<?xml version="1.0"?>
<MethodSetup Method="BDT::BDTG">
  <GeneralInfo>
    <Info name="TMVA Release" value="4.2.1 [262657]"/>
    <Info name="ROOT Release" value="6.22/02 [398850]"/>
    <Info name="Creator" value="shoh"/>
    <Info name="Date" value="Mon Nov 23 19:03:18 2020"/>
    <Info name="Host" value="Linux 835c480b91db 4.15.0-1092-azure #102~16.04.1-Ubuntu SMP Tue Jul 14 20:28:23 UTC 2020 x86_64 x86_64 x86_64 GNU/Linux"/>
    <Info name="Dir" value="/home/shoh/works/workbench/Fake_tmva/shahiti"/>
    <Info name="Training events" value="1121377"/>
    <Info name="TrainingTime" value="1.84067687e+02"/>
    <Info name="AnalysisType" value="Classification"/>
  </GeneralInfo>
  <Options>
    <Option name="V" modified="Yes">False</Option>
    <Option name="VerbosityLevel" modified="No">Default</Option>
    <Option name="VarTransform" modified="No">None</Option>
    <Option name="H" modified="Yes">False</Option>
    <Option name="CreateMVAPdfs" modified="No">False</Option>
    <Option name="IgnoreNegWeightsInTraining" modified="No">False</Option>
    <Option name="NTrees" modified="Yes">500</Option>
    <Option name="MaxDepth" modified="Yes">3</Option>
    <Option name="MinNodeSize" modified="Yes">0.5%</Option>
    <Option name="nCuts" modified="Yes">500</Option>
    <Option name="BoostType" modified="Yes">Grad</Option>
    <Option name="AdaBoostR2Loss" modified="No">quadratic</Option>
    <Option name="UseBaggedBoost" modified="Yes">True</Option>
    <Option name="Shrinkage" modified="Yes">5.000000e-02</Option>
    <Option name="AdaBoostBeta" modified="No">5.000000e-01</Option>
    <Option name="UseRandomisedTrees" modified="No">False</Option>
    <Option name="UseNvars" modified="No">3</Option>
    <Option name="UsePoissonNvars" modified="No">True</Option>
    <Option name="BaggedSampleFraction" modified="No">5.000000e-01</Option>
    <Option name="UseYesNoLeaf" modified="No">True</Option>
    <Option name="NegWeightTreatment" modified="No">pray</Option>
    <Option name="Css" modified="No">1.000000e+00</Option>
    <Option name="Cts_sb" modified="No">1.000000e+00</Option>
    <Option name="Ctb_ss" modified="No">1.000000e+00</Option>
    <Option name="Cbb" modified="No">1.000000e+00</Option>
    <Option name="NodePurityLimit" modified="No">5.000000e-01</Option>
    <Option name="SeparationType" modified="No">giniindex</Option>
    <Option name="RegressionLossFunctionBDTG" modified="No">huber</Option>
    <Option name="HuberQuantile" modified="No">7.000000e-01</Option>
    <Option name="DoBoostMonitor" modified="No">False</Option>
    <Option name="UseFisherCuts" modified="No">False</Option>
    <Option name="MinLinCorrForFisher" modified="No">8.000000e-01</Option>
    <Option name="UseExclusiveVars" modified="No">False</Option>
    <Option name="DoPreselection" modified="No">False</Option>
    <Option name="SigToBkgFraction" modified="No">1.000000e+00</Option>
    <Option name="PruneMethod" modified="No">nopruning</Option>
    <Option name="PruneStrength" modified="No">0.000000e+00</Option>
    <Option name="PruningValFraction" modified="No">5.000000e-01</Option>
    <Option name="SkipNormalization" modified="No">False</Option>
    <Option name="nEventsMin" modified="No">0</Option>
    <Option name="UseBaggedGrad" modified="No">False</Option>
    <Option name="GradBaggingFraction" modified="Yes">5.000000e-01</Option>
    <Option name="UseNTrainEvents" modified="No">0</Option>
    <Option name="NNodesMax" modified="No">0</Option>
  </Options>
  <Variables NVar="6">
    <Variable VarIndex="0" Expression="Electron_miniPFRelIso_chg" Label="Electron_miniPFRelIso_chg" Title="Electron_miniPFRelIso_chg" Unit="F" Internal="Electron_miniPFRelIso_chg" Type="F" Min="0.00000000e+00" Max="1.93407784e+01"/>
    <Variable VarIndex="1" Expression="Electron_miniPFRelIso_all-Electron_miniPFRelIso_chg" Label="Electron_miniPFRelIso_neu" Title="Electron_miniPFRelIso_neu" Unit="F" Internal="Electron_miniPFRelIso_neu" Type="F" Min="0.00000000e+00" Max="2.10277233e+01"/>
    <Variable VarIndex="2" Expression="log(abs(Electron_dxy))" Label="Electron_dxy" Title="Electron_dxy" Unit="F" Internal="Electron_dxy" Type="F" Min="-1.87149734e+01" Max="3.65228033e+00"/>
    <Variable VarIndex="3" Expression="(Electron_jetIdx&gt;=0)*(Jet_btagDeepFlavB[max(Electron_jetIdx,0)])" Label="Jet_btagDeepFlavB" Title="Jet_btagDeepFlavB" Unit="F" Internal="Jet_btagDeepFlavB" Type="F" Min="0.00000000e+00" Max="9.99511719e-01"/>
    <Variable VarIndex="4" Expression="(Electron_jetIdx&gt;=0)*(Electron_jetPtRelv2)" Label="Electron_jetPtRelv2" Title="Electron_jetPtRelv2" Unit="F" Internal="Electron_jetPtRelv2" Type="F" Min="0.00000000e+00" Max="1.55200000e+03"/>
    <Variable VarIndex="5" Expression="(Electron_jetIdx==-1)*((1)/(1+(Electron_miniPFRelIso_all)))+(Electron_jetIdx&gt;=0)*((Electron_pt)/(Jet_pt[max(Electron_jetIdx,0)]))" Label="Electron_jetPtRatio" Title="Electron_jetPtRatio" Unit="F" Internal="Electron_jetPtRatio" Type="F" Min="0.00000000e+00" Max="7.51784325e+00"/>
  </Variables>
  <Spectators NSpec="0"/>
  <Classes NClass="2">
    <Class Name="Signal" Index="0"/>
    <Class Name="Background" Index="1"/>
  </Classes>
  <Transformations NTransformations="0"/>
  <MVAPdfs/>
  <Weights NTrees="500" AnalysisType="1">
    <BinaryTree type="DecisionTree" boostWeight="1.0000000000000000e+00" itree="0">
      <Node pos="s" depth="0" NCoef="0" IVar="5" Cut="6.1611115932464600e-01" cType="1" res="-1.9042566418647766e-04" rms="4.9999997019767761e-01" purity="4.9980956315994263e-01" nType="0">
        <Node pos="l" depth="1" NCoef="0" IVar="0" Cut="3.7878174334764481e-02" cType="1" res="-4.2584437131881714e-01" rms="2.6202401518821716e-01" purity="7.4155636131763458e-02" nType="0">
          <Node pos="l" depth="2" NCoef="0" IVar="5" Cut="5.1157689094543457e-01" cType="1" res="-1.4585457742214203e-01" rms="4.7825354337692261e-01" purity="3.5414543747901917e-01" nType="0">
            <Node pos="l" depth="3" NCoef="0" IVar="-1" Cut="0.0000000000000000e+00" cType="1" res="-3.2871514558792114e-02" rms="3.7675768136978149e-01" purity="1.7128486931324005e-01" nType="-99"/>
            <Node pos="r" depth="3" NCoef="0" IVar="-1" Cut="0.0000000000000000e+00" cType="1" res="1.5396438539028168e-03" rms="4.9976289272308350e-01" purity="5.1539641618728638e-01" nType="-99"/>
          </Node>
          <Node pos="r" depth="2" NCoef="0" IVar="0" Cut="1.1348378658294678e-01" cType="1" res="-4.8318287730216980e-01" rms="1.2858577072620392e-01" purity="1.6817117109894753e-02" nType="0">
            <Node pos="l" depth="3" NCoef="0" IVar="-1" Cut="0.0000000000000000e+00" cType="1" res="-3.6982055753469467e-02" rms="3.3650073409080505e-01" purity="1.3017943501472473e-01" nType="-99"/>
            <Node pos="r" depth="3" NCoef="0" IVar="-1" Cut="0.0000000000000000e+00" cType="1" res="-4.9155950546264648e-02" rms="9.1483592987060547e-02" purity="8.4404889494180679e-03" nType="-99"/>
          </Node>
        </Node>
        <Node pos="r" depth="1" NCoef="0" IVar="0" Cut="8.0179244279861450e-02" cType="1" res="3.1423792243003845e-01" rms="3.8891455531120300e-01" purity="8.1423795223236084e-01" nType="0">
          <Node pos="l" depth="2" NCoef="0" IVar="3" Cut="2.0748347043991089e-01" cType="1" res="3.4736257791519165e-01" rms="3.5963764786720276e-01" purity="8.4736257791519165e-01" nType="0">
            <Node pos="l" depth="3" NCoef="0" IVar="-1" Cut="0.0000000000000000e+00" cType="1" res="3.7123572081327438e-02" rms="3.3493885397911072e-01" purity="8.7123572826385498e-01" nType="-99"/>
            <Node pos="r" depth="3" NCoef="0" IVar="-1" Cut="0.0000000000000000e+00" cType="1" res="-2.5401616003364325e-03" rms="4.9935433268547058e-01" purity="4.7459834814071655e-01" nType="-99"/>
          </Node>
          <Node pos="r" depth="2" NCoef="0" IVar="0" Cut="1.2870143353939056e-01" cType="1" res="-2.9929608106613159e-01" rms="4.0052697062492371e-01" purity="2.0070391893386841e-01" nType="0">
            <Node pos="l" depth="3" NCoef="0" IVar="-1" Cut="0.0000000000000000e+00" cType="1" res="-1.1513239704072475e-02" rms="4.8656401038169861e-01" purity="3.8486757874488831e-01" nType="-99"/>
            <Node pos="r" depth="3" NCoef="0" IVar="-1" Cut="0.0000000000000000e+00" cType="1" res="-3.7897527217864990e-02" rms="3.2615602016448975e-01" purity="1.2102474272251129e-01" nType="-99"/>
          </Node>
        </Node>
      </Node>
    </BinaryTree>
    <BinaryTree type="DecisionTree" boostWeight="1.0000000000000000e+00" itree="1">
      <Node pos="s" depth="0" NCoef="0" IVar="5" Cut="6.1511641740798950e-01" cType="1" res="-6.4187269890680909e-04" rms="4.8409914970397949e-01" purity="4.9928349256515503e-01" nType="0">
        <Node pos="l" depth="1" NCoef="0" IVar="0" Cut="3.7878174334764481e-02" cType="1" res="-4.0565407276153564e-01" rms="2.5617116689682007e-01" purity="7.3054395616054535e-02" nType="0">
          <Node pos="l" depth="2" NCoef="0" IVar="5" Cut="4.9917724728584290e-01" cType="1" res="-1.4349758625030518e-01" rms="4.7364237904548645e-01" purity="3.4904572367668152e-01" nType="0">
            <Node pos="l" depth="3" NCoef="0" IVar="-1" Cut="0.0000000000000000e+00" cType="1" res="-3.3143650740385056e-02" rms="3.5949668288230896e-01" purity="1.5249153971672058e-01" nType="-99"/>
            <Node pos="r" depth="3" NCoef="0" IVar="-1" Cut="0.0000000000000000e+00" cType="1" res="2.2288538457360119e-04" rms="4.9964517354965210e-01" purity="5.0174295902252197e-01" nType="-99"/>
          </Node>
          <Node pos="r" depth="2" NCoef="0" IVar="0" Cut="1.1348339915275574e-01" cType="1" res="-4.5949670672416687e-01" rms="1.2653975188732147e-01" purity="1.6370311379432678e-02" nType="0">
            <Node pos="l" depth="3" NCoef="0" IVar="-1" Cut="0.0000000000000000e+00" cType="1" res="-3.5696048289537430e-02" rms="3.3076956868171692e-01" purity="1.2504467368125916e-01" nType="-99"/>
            <Node pos="r" depth="3" NCoef="0" IVar="-1" Cut="0.0000000000000000e+00" cType="1" res="-4.6837940812110901e-02" rms="9.0139925479888916e-02" purity="8.1923203542828560e-03" nType="-99"/>
          </Node>
        </Node>
        <Node pos="r" depth="1" NCoef="0" IVar="0" Cut="7.5168035924434662e-02" cType="1" res="3.0031919479370117e-01" rms="3.8374739885330200e-01" purity="8.1601071357727051e-01" nType="0">
          <Node pos="l" depth="2" NCoef="0" IVar="3" Cut="1.7356790602207184e-01" cType="1" res="3.3235067129135132e-01" rms="3.5613325238227844e-01" purity="8.4969234466552734e-01" nType="0">
            <Node pos="l" depth="3" NCoef="0" IVar="-1" Cut="0.0000000000000000e+00" cType="1" res="3.5904616117477417e-02" rms="3.2832658290863037e-01" purity="8.7708771228790283e-01" nType="-99"/>
            <Node pos="r" depth="3" NCoef="0" IVar="-1" Cut="0.0000000000000000e+00" cType="1" res="1.3591200113296509e-03" rms="4.9841293692588806e-01" purity="5.1640504598617554e-01" nType="-99"/>
          </Node>
          <Node pos="r" depth="2" NCoef="0" IVar="0" Cut="1.4810164272785187e-01" cType="1" res="-2.6586008071899414e-01" rms="4.1195034980773926e-01" purity="2.2066403925418854e-01" nType="0">
            <Node pos="l" depth="3" NCoef="0" IVar="-1" Cut="0.0000000000000000e+00" cType="1" res="-1.1377453804016113e-02" rms="4.8416200280189514e-01" purity="3.8050216436386108e-01" nType="-99"/>
            <Node pos="r" depth="3" NCoef="0" IVar="-1" Cut="0.0000000000000000e+00" cType="1" res="-3.7535112351179123e-02" rms="3.0808809399604797e-01" purity="1.0620260238647461e-01" nType="-99"/>
          </Node>
        </Node>
      </Node>
    </BinaryTree>
    <BinaryTree type="DecisionTree" boostWeight="1.0000000000000000e+00" itree="2">
      <Node pos="s" depth="0" NCoef="0" IVar="5" Cut="6.2570065259933472e-01" cType="1" res="-6.6503381822258234e-04" rms="4.6939948201179504e-01" purity="4.9931034445762634e-01" nType="0">
        <Node pos="l" depth="1" NCoef="0" IVar="0" Cut="3.8604348897933960e-02" cType="1" res="-3.7768828868865967e-01" rms="2.6494604349136353e-01" purity="8.1898905336856842e-02" nType="0">
          <Node pos="l" depth="2" NCoef="0" IVar="5" Cut="4.9926456809043884e-01" cType="1" res="-1.1586721986532211e-01" rms="4.7638753056526184e-01" purity="3.7260487675666809e-01" nType="0">
            <Node pos="l" depth="3" NCoef="0" IVar="-1" Cut="0.0000000000000000e+00" cType="1" res="-3.1470920890569687e-02" rms="3.6065644025802612e-01" purity="1.5369221568107605e-01" nType="-99"/>
            <Node pos="r" depth="3" NCoef="0" IVar="-1" Cut="0.0000000000000000e+00" cType="1" res="1.8072101520374417e-03" rms="4.9825748801231384e-01" purity="5.2107411623001099e-01" nType="-99"/>
          </Node>
          <Node pos="r" depth="2" NCoef="0" IVar="0" Cut="7.7134594321250916e-02" cType="1" res="-4.3571150302886963e-01" rms="1.3000114262104034e-01" purity="1.7474381253123283e-02" nType="0">
            <Node pos="l" depth="3" NCoef="0" IVar="-1" Cut="0.0000000000000000e+00" cType="1" res="-2.9332870617508888e-02" rms="3.7834519147872925e-01" purity="1.7480732500553131e-01" nType="-99"/>
            <Node pos="r" depth="3" NCoef="0" IVar="-1" Cut="0.0000000000000000e+00" cType="1" res="-4.4543620198965073e-02" rms="1.0501811653375626e-01" purity="1.1223115026950836e-02" nType="-99"/>
          </Node>
        </Node>
        <Node pos="r" depth="1" NCoef="0" IVar="0" Cut="6.5145634114742279e-02" cType="1" res="2.8849193453788757e-01" rms="3.7796068191528320e-01" purity="8.1944286823272705e-01" nType="0">
          <Node pos="l" depth="2" NCoef="0" IVar="1" Cut="1.3677190244197845e-01" cType="1" res="3.1821322441101074e-01" rms="3.5266196727752686e-01" purity="8.5222250223159790e-01" nType="0">
            <Node pos="l" depth="3" NCoef="0" IVar="-1" Cut="0.0000000000000000e+00" cType="1" res="3.3532381057739258e-02" rms="3.3654269576072693e-01" purity="8.6772012710571289e-01" nType="-99"/>
            <Node pos="r" depth="3" NCoef="0" IVar="-1" Cut="0.0000000000000000e+00" cType="1" res="-1.2386228889226913e-02" rms="4.8997735977172852e-01" purity="4.0939784049987793e-01" nType="-99"/>
          </Node>
          <Node pos="r" depth="2" NCoef="0" IVar="0" Cut="1.1397945135831833e-01" cType="1" res="-2.1222259104251862e-01" rms="4.3434303998947144e-01" purity="2.6720446348190308e-01" nType="0">
            <Node pos="l" depth="3" NCoef="0" IVar="-1" Cut="0.0000000000000000e+00" cType="1" res="-2.4460097774863243e-03" rms="4.9603900313377380e-01" purity="4.7856456041336060e-01" nType="-99"/>
            <Node pos="r" depth="3" NCoef="0" IVar="-1" Cut="0.0000000000000000e+00" cType="1" res="-3.1940322369337082e-02" rms="3.5407876968383789e-01" purity="1.4832159876823425e-01" nType="-99"/>
          </Node>
        </Node>
      </Node>
    </BinaryTree>
    <BinaryTree type="DecisionTree" boostWeight="1.0000000000000000e+00" itree="3">
      <Node pos="s" depth="0" NCoef="0" IVar="5" Cut="6.1091309785842896e-01" cType="1" res="4.6981449122540653e-04" rms="4.5545303821563721e-01" purity="5.0036609172821045e-01" nType="0">
        <Node pos="l" depth="1" NCoef="0" IVar="0" Cut="7.7208697795867920e-02" cType="1" res="-3.6918243765830994e-01" rms="2.4385011196136475e-01" purity="6.9801039993762970e-02" nType="0">
          <Node pos="l" depth="2" NCoef="0" IVar="1" Cut="1.2525470554828644e-01" cType="1" res="-1.5718840062618256e-01" rms="4.5651498436927795e-01" purity="3.1676471233367920e-01" nType="0">
            <Node pos="l" depth="3" NCoef="0" IVar="-1" Cut="0.0000000000000000e+00" cType="1" res="-1.6933558508753777e-03" rms="4.9138179421424866e-01" purity="4.6395841240882874e-01" nType="-99"/>
            <Node pos="r" depth="3" NCoef="0" IVar="-1" Cut="0.0000000000000000e+00" cType="1" res="-3.2562572509050369e-02" rms="3.4393280744552612e-01" purity="1.4238476753234863e-01" nType="-99"/>
          </Node>
          <Node pos="r" depth="2" NCoef="0" IVar="5" Cut="5.1193708181381226e-01" cType="1" res="-4.2026448249816895e-01" rms="1.0067339241504669e-01" purity="1.0292740538716316e-02" nType="0">
            <Node pos="l" depth="3" NCoef="0" IVar="-1" Cut="0.0000000000000000e+00" cType="1" res="-4.3396346271038055e-02" rms="6.9687977433204651e-02" purity="4.8968680202960968e-03" nType="-99"/>
            <Node pos="r" depth="3" NCoef="0" IVar="-1" Cut="0.0000000000000000e+00" cType="1" res="-3.8594819605350494e-02" rms="2.2278989851474762e-01" purity="5.2665568888187408e-02" nType="-99"/>
          </Node>
        </Node>
        <Node pos="r" depth="1" NCoef="0" IVar="0" Cut="7.2364464402198792e-02" cType="1" res="2.6992285251617432e-01" rms="3.7827596068382263e-01" purity="8.1422072649002075e-01" nType="0">
          <Node pos="l" depth="2" NCoef="0" IVar="3" Cut="1.5760762989521027e-01" cType="1" res="3.0033987760543823e-01" rms="3.5395613312721252e-01" purity="8.4960478544235229e-01" nType="0">
            <Node pos="l" depth="3" NCoef="0" IVar="-1" Cut="0.0000000000000000e+00" cType="1" res="3.3057779073715210e-02" rms="3.2512524724006653e-01" purity="8.7885373830795288e-01" nType="-99"/>
            <Node pos="r" depth="3" NCoef="0" IVar="-1" Cut="0.0000000000000000e+00" cType="1" res="2.3411442525684834e-03" rms="4.9475535750389099e-01" purity="5.4543614387512207e-01" nType="-99"/>
          </Node>
          <Node pos="r" depth="2" NCoef="0" IVar="1" Cut="1.6021154820919037e-02" cType="1" res="-2.3827494680881500e-01" rms="4.0852922201156616e-01" purity="2.2303396463394165e-01" nType="0">
            <Node pos="l" depth="3" NCoef="0" IVar="-1" Cut="0.0000000000000000e+00" cType="1" res="-1.0455163195729256e-02" rms="4.7212940454483032e-01" purity="3.6381202936172485e-01" nType="-99"/>
            <Node pos="r" depth="3" NCoef="0" IVar="-1" Cut="0.0000000000000000e+00" cType="1" res="-3.4411426633596420e-02" rms="3.1588271260261536e-01" purity="1.1552806943655014e-01" nType="-99"/>
          </Node>
        </Node>
      </Node>
    </BinaryTree>
    <BinaryTree type="DecisionTree" boostWeight="1.0000000000000000e+00" itree="4">
      <Node pos="s" depth="0" NCoef="0" IVar="5" Cut="6.0653454065322876e-01" cType="1" res="2.8928788378834724e-04" rms="4.4268560409545898e-01" purity="5.0036847591400146e-01" nType="0">
        <Node pos="l" depth="1" NCoef="0" IVar="0" Cut="6.4061887562274933e-02" cType="1" res="-3.5379454493522644e-01" rms="2.3567870259284973e-01" purity="6.6555000841617584e-02" nType="0">
          <Node pos="l" depth="2" NCoef="0" IVar="3" Cut="3.8304641842842102e-01" cType="1" res="-1.5362618863582611e-01" rms="4.5247280597686768e-01" purity="3.1241789460182190e-01" nType="0">
            <Node pos="l" depth="3" NCoef="0" IVar="-1" Cut="0.0000000000000000e+00" cType="1" res="-7.1343374438583851e-03" rms="4.7964134812355042e-01" purity="3.9940053224563599e-01" nType="-99"/>
            <Node pos="r" depth="3" NCoef="0" IVar="-1" Cut="0.0000000000000000e+00" cType="1" res="-4.0804367512464523e-02" rms="2.1246945858001709e-01" purity="4.9777708947658539e-02" nType="-99"/>
          </Node>
          <Node pos="r" depth="2" NCoef="0" IVar="5" Cut="5.4478949308395386e-01" cType="1" res="-3.9899736642837524e-01" rms="1.0374453663825989e-01" purity="1.1033250950276852e-02" nType="0">
            <Node pos="l" depth="3" NCoef="0" IVar="-1" Cut="0.0000000000000000e+00" cType="1" res="-4.1687320917844772e-02" rms="7.9844698309898376e-02" purity="6.4822905696928501e-03" nType="-99"/>
            <Node pos="r" depth="3" NCoef="0" IVar="-1" Cut="0.0000000000000000e+00" cType="1" res="-3.4792877733707428e-02" rms="2.6417884230613708e-01" purity="7.6443731784820557e-02" nType="-99"/>
          </Node>
        </Node>
        <Node pos="r" depth="1" NCoef="0" IVar="0" Cut="6.2211129814386368e-02" cType="1" res="2.5364342331886292e-01" rms="3.7755969166755676e-01" purity="8.1077075004577637e-01" nType="0">
          <Node pos="l" depth="2" NCoef="0" IVar="3" Cut="2.1147353947162628e-01" cType="1" res="2.8552150726318359e-01" rms="3.5294997692108154e-01" purity="8.4962701797485352e-01" nType="0">
            <Node pos="l" depth="3" NCoef="0" IVar="-1" Cut="0.0000000000000000e+00" cType="1" res="3.1123112887144089e-02" rms="3.3174747228622437e-01" purity="8.7266737222671509e-01" nType="-99"/>
            <Node pos="r" depth="3" NCoef="0" IVar="-1" Cut="0.0000000000000000e+00" cType="1" res="-3.9271265268325806e-03" rms="4.9830234050750732e-01" purity="4.7556471824645996e-01" nType="-99"/>
          </Node>
          <Node pos="r" depth="2" NCoef="0" IVar="0" Cut="1.2282836437225342e-01" cType="1" res="-2.0136491954326630e-01" rms="4.2144474387168884e-01" purity="2.5616082549095154e-01" nType="0">
            <Node pos="l" depth="3" NCoef="0" IVar="-1" Cut="0.0000000000000000e+00" cType="1" res="-3.4388762433081865e-03" rms="4.8998424410820007e-01" purity="4.6030256152153015e-01" nType="-99"/>
            <Node pos="r" depth="3" NCoef="0" IVar="-1" Cut="0.0000000000000000e+00" cType="1" res="-3.1470458954572678e-02" rms="3.2832384109497070e-01" purity="1.2468342483043671e-01" nType="-99"/>
          </Node>
        </Node>
      </Node>
    </BinaryTree>
    <BinaryTree type="DecisionTree" boostWeight="1.0000000000000000e+00" itree="5">
      <Node pos="s" depth="0" NCoef="0" IVar="5" Cut="6.1645942926406860e-01" cType="1" res="2.6334042559028603e-05" rms="4.3064323067665100e-01" purity="4.9992477893829346e-01" nType="0">
        <Node pos="l" depth="1" NCoef="0" IVar="0" Cut="3.8604348897933960e-02" cType="1" res="-3.2990282773971558e-01" rms="2.4439118802547455e-01" purity="7.4463225901126862e-02" nType="0">
          <Node pos="l" depth="2" NCoef="0" IVar="1" Cut="1.4868497848510742e-01" cType="1" res="-1.1285529285669327e-01" rms="4.6406134963035583e-01" purity="3.5364702343940735e-01" nType="0">
            <Node pos="l" depth="3" NCoef="0" IVar="-1" Cut="0.0000000000000000e+00" cType="1" res="1.1271957773715258e-03" rms="4.9053388833999634e-01" purity="4.9239793419837952e-01" nType="-99"/>
            <Node pos="r" depth="3" NCoef="0" IVar="-1" Cut="0.0000000000000000e+00" cType="1" res="-2.9338499531149864e-02" rms="3.5583123564720154e-01" purity="1.5670090913772583e-01" nType="-99"/>
          </Node>
          <Node pos="r" depth="2" NCoef="0" IVar="0" Cut="1.1567028611898422e-01" cType="1" res="-3.7490895390510559e-01" rms="1.2515214085578918e-01" purity="1.6572775319218636e-02" nType="0">
            <Node pos="l" depth="3" NCoef="0" IVar="-1" Cut="0.0000000000000000e+00" cType="1" res="-2.9710665345191956e-02" rms="3.2943055033683777e-01" purity="1.2794730067253113e-01" nType="-99"/>
            <Node pos="r" depth="3" NCoef="0" IVar="-1" Cut="0.0000000000000000e+00" cType="1" res="-4.0113642811775208e-02" rms="8.8869720697402954e-02" purity="8.0026555806398392e-03" nType="-99"/>
          </Node>
        </Node>
        <Node pos="r" depth="1" NCoef="0" IVar="0" Cut="5.0112023949623108e-02" cType="1" res="2.4637822806835175e-01" rms="3.7062555551528931e-01" purity="8.1760901212692261e-01" nType="0">
          <Node pos="l" depth="2" NCoef="0" IVar="1" Cut="1.4008559286594391e-01" cType="1" res="2.7661347389221191e-01" rms="3.4642589092254639e-01" purity="8.5568654537200928e-01" nType="0">
            <Node pos="l" depth="3" NCoef="0" IVar="-1" Cut="0.0000000000000000e+00" cType="1" res="2.9860172420740128e-02" rms="3.3155372738838196e-01" purity="8.7053400278091431e-01" nType="-99"/>
            <Node pos="r" depth="3" NCoef="0" IVar="-1" Cut="0.0000000000000000e+00" cType="1" res="-1.4041217975318432e-02" rms="4.8971015214920044e-01" purity="4.1699847579002380e-01" nType="-99"/>
          </Node>
          <Node pos="r" depth="2" NCoef="0" IVar="1" Cut="3.7058249115943909e-02" cType="1" res="-1.4689105749130249e-01" rms="4.4329941272735596e-01" purity="3.2233399152755737e-01" nType="0">
            <Node pos="l" depth="3" NCoef="0" IVar="-1" Cut="0.0000000000000000e+00" cType="1" res="-2.5982537772506475e-03" rms="4.7653359174728394e-01" purity="4.6257972717285156e-01" nType="-99"/>
            <Node pos="r" depth="3" NCoef="0" IVar="-1" Cut="0.0000000000000000e+00" cType="1" res="-3.1633846461772919e-02" rms="3.3083790540695190e-01" purity="1.3446331024169922e-01" nType="-99"/>
          </Node>
        </Node>
      </Node>
    </BinaryTree>
    <BinaryTree type="DecisionTree" boostWeight="1.0000000000000000e+00" itree="6">
      <Node pos="s" depth="0" NCoef="0" IVar="5" Cut="6.2845748662948608e-01" cType="1" res="3.5745018976740539e-04" rms="4.1949501633644104e-01" purity="5.0066924095153809e-01" nType="0">
        <Node pos="l" depth="1" NCoef="0" IVar="0" Cut="6.4061887562274933e-02" cType="1" res="-3.0788132548332214e-01" rms="2.5161594152450562e-01" purity="8.3413913846015930e-02" nType="0">
          <Node pos="l" depth="2" NCoef="0" IVar="1" Cut="1.8585622310638428e-01" cType="1" res="-1.0957814007997513e-01" rms="4.5859375596046448e-01" purity="3.5577625036239624e-01" nType="0">
            <Node pos="l" depth="3" NCoef="0" IVar="-1" Cut="0.0000000000000000e+00" cType="1" res="-2.2145673574414104e-04" rms="4.8582947254180908e-01" purity="4.8339581489562988e-01" nType="-99"/>
            <Node pos="r" depth="3" NCoef="0" IVar="-1" Cut="0.0000000000000000e+00" cType="1" res="-3.0348649248480797e-02" rms="3.3274483680725098e-01" purity="1.3395468890666962e-01" nType="-99"/>
          </Node>
          <Node pos="r" depth="2" NCoef="0" IVar="5" Cut="5.4296422004699707e-01" cType="1" res="-3.5908359289169312e-01" rms="1.1216178536415100e-01" purity="1.3089436106383801e-02" nType="0">
            <Node pos="l" depth="3" NCoef="0" IVar="-1" Cut="0.0000000000000000e+00" cType="1" res="-3.9046429097652435e-02" rms="8.0295607447624207e-02" purity="6.5608741715550423e-03" nType="-99"/>
            <Node pos="r" depth="3" NCoef="0" IVar="-1" Cut="0.0000000000000000e+00" cType="1" res="-3.2075159251689911e-02" rms="2.7037921547889709e-01" purity="8.1174366176128387e-02" nType="-99"/>
          </Node>
        </Node>
        <Node pos="r" depth="1" NCoef="0" IVar="1" Cut="9.3002773821353912e-02" cType="1" res="2.3890511691570282e-01" rms="3.6432659626007080e-01" purity="8.2358539104461670e-01" nType="0">
          <Node pos="l" depth="2" NCoef="0" IVar="3" Cut="2.4538910388946533e-01" cType="1" res="2.6536616683006287e-01" rms="3.4165552258491516e-01" purity="8.5468405485153198e-01" nType="0">
            <Node pos="l" depth="3" NCoef="0" IVar="-1" Cut="0.0000000000000000e+00" cType="1" res="2.9590616002678871e-02" rms="3.2100760936737061e-01" purity="8.7799280881881714e-01" nType="-99"/>
            <Node pos="r" depth="3" NCoef="0" IVar="-1" Cut="0.0000000000000000e+00" cType="1" res="-1.0975630953907967e-02" rms="4.8207744956016541e-01" purity="4.0630543231964111e-01" nType="-99"/>
          </Node>
          <Node pos="r" depth="2" NCoef="0" IVar="0" Cut="3.4573223441839218e-02" cType="1" res="-1.3631080090999603e-01" rms="4.5713585615158081e-01" purity="3.8260975480079651e-01" nType="0">
            <Node pos="l" depth="3" NCoef="0" IVar="-1" Cut="0.0000000000000000e+00" cType="1" res="-4.0459334850311279e-03" rms="4.9100506305694580e-01" purity="5.2404290437698364e-01" nType="-99"/>
            <Node pos="r" depth="3" NCoef="0" IVar="-1" Cut="0.0000000000000000e+00" cType="1" res="-3.2272540032863617e-02" rms="3.1877154111862183e-01" purity="1.2336002290248871e-01" nType="-99"/>
          </Node>
        </Node>
      </Node>
    </BinaryTree>
    <BinaryTree type="DecisionTree" boostWeight="1.0000000000000000e+00" itree="7">
      <Node pos="s" depth="0" NCoef="0" IVar="5" Cut="6.3567984104156494e-01" cType="1" res="-8.5407315054908395e-05" rms="4.0901628136634827e-01" purity="4.9991372227668762e-01" nType="0">
        <Node pos="l" depth="1" NCoef="0" IVar="0" Cut="3.8604348897933960e-02" cType="1" res="-2.8786584734916687e-01" rms="2.5633615255355835e-01" purity="9.0741701424121857e-02" nType="0">
          <Node pos="l" depth="2" NCoef="0" IVar="3" Cut="2.9326990246772766e-01" cType="1" res="-7.6781086623668671e-02" rms="4.6442016959190369e-01" purity="3.9467534422874451e-01" nType="0">
            <Node pos="l" depth="3" NCoef="0" IVar="-1" Cut="0.0000000000000000e+00" cType="1" res="7.2939530946314335e-04" rms="4.8056823015213013e-01" purity="4.9114489555358887e-01" nType="-99"/>
            <Node pos="r" depth="3" NCoef="0" IVar="-1" Cut="0.0000000000000000e+00" cType="1" res="-3.4219563007354736e-02" rms="2.8558528423309326e-01" purity="9.9723488092422485e-02" nType="-99"/>
          </Node>
          <Node pos="r" depth="2" NCoef="0" IVar="0" Cut="1.1567028611898422e-01" cType="1" res="-3.3759143948554993e-01" rms="1.3194227218627930e-01" purity="1.9143585115671158e-02" nType="0">
            <Node pos="l" depth="3" NCoef="0" IVar="-1" Cut="0.0000000000000000e+00" cType="1" res="-2.6465374976396561e-02" rms="3.4240496158599854e-01" purity="1.4582070708274841e-01" nType="-99"/>
            <Node pos="r" depth="3" NCoef="0" IVar="-1" Cut="0.0000000000000000e+00" cType="1" res="-3.7697874009609222e-02" rms="9.3246318399906158e-02" purity="8.9036924764513969e-03" nType="-99"/>
          </Node>
        </Node>
        <Node pos="r" depth="1" NCoef="0" IVar="1" Cut="1.1381665617227554e-01" cType="1" res="2.3025521636009216e-01" rms="3.5952734947204590e-01" purity="8.2741665840148926e-01" nType="0">
          <Node pos="l" depth="2" NCoef="0" IVar="3" Cut="2.5935435295104980e-01" cType="1" res="2.5244092941284180e-01" rms="3.4051537513732910e-01" purity="8.5484468936920166e-01" nType="0">
            <Node pos="l" depth="3" NCoef="0" IVar="-1" Cut="0.0000000000000000e+00" cType="1" res="2.8420509770512581e-02" rms="3.2169193029403687e-01" purity="8.7737905979156494e-01" nType="-99"/>
            <Node pos="r" depth="3" NCoef="0" IVar="-1" Cut="0.0000000000000000e+00" cType="1" res="-1.1753208003938198e-02" rms="4.7862869501113892e-01" purity="3.9173233509063721e-01" nType="-99"/>
          </Node>
          <Node pos="r" depth="2" NCoef="0" IVar="1" Cut="2.7500805258750916e-01" cType="1" res="-1.5990021824836731e-01" rms="4.4992968440055847e-01" purity="3.4506940841674805e-01" nType="0">
            <Node pos="l" depth="3" NCoef="0" IVar="-1" Cut="0.0000000000000000e+00" cType="1" res="-3.6214462015777826e-03" rms="4.7613793611526489e-01" purity="4.9920526146888733e-01" nType="-99"/>
            <Node pos="r" depth="3" NCoef="0" IVar="-1" Cut="0.0000000000000000e+00" cType="1" res="-2.6307627558708191e-02" rms="4.0297576785087585e-01" purity="2.2575213015079498e-01" nType="-99"/>
          </Node>
        </Node>
      </Node>
    </BinaryTree>
    <BinaryTree type="DecisionTree" boostWeight="1.0000000000000000e+00" itree="8">
      <Node pos="s" depth="0" NCoef="0" IVar="5" Cut="6.0429692268371582e-01" cType="1" res="4.1231844807043672e-04" rms="3.9930349588394165e-01" purity="5.0092232227325439e-01" nType="0">
        <Node pos="l" depth="1" NCoef="0" IVar="0" Cut="3.8604348897933960e-02" cType="1" res="-2.9100263118743896e-01" rms="2.2237275540828705e-01" purity="6.4467318356037140e-02" nType="0">
          <Node pos="l" depth="2" NCoef="0" IVar="2" Cut="-5.1260251998901367e+00" cType="1" res="-1.1814844608306885e-01" rms="4.4984897971153259e-01" purity="3.2739251852035522e-01" nType="0">
            <Node pos="l" depth="3" NCoef="0" IVar="-1" Cut="0.0000000000000000e+00" cType="1" res="1.0613906197249889e-03" rms="4.8183172941207886e-01" purity="4.6643295884132385e-01" nType="-99"/>
            <Node pos="r" depth="3" NCoef="0" IVar="-1" Cut="0.0000000000000000e+00" cType="1" res="-2.6790354400873184e-02" rms="3.6111682653427124e-01" purity="1.7281976342201233e-01" nType="-99"/>
          </Node>
          <Node pos="r" depth="2" NCoef="0" IVar="5" Cut="5.0651770830154419e-01" cType="1" res="-3.2383197546005249e-01" rms="1.1685425043106079e-01" purity="1.4531239867210388e-02" nType="0">
            <Node pos="l" depth="3" NCoef="0" IVar="-1" Cut="0.0000000000000000e+00" cType="1" res="-3.6973640322685242e-02" rms="7.9838007688522339e-02" purity="6.6132191568613052e-03" nType="-99"/>
            <Node pos="r" depth="3" NCoef="0" IVar="-1" Cut="0.0000000000000000e+00" cType="1" res="-3.0731195583939552e-02" rms="2.4962733685970306e-01" purity="6.9978341460227966e-02" nType="-99"/>
          </Node>
        </Node>
        <Node pos="r" depth="1" NCoef="0" IVar="0" Cut="5.9168871492147446e-02" cType="1" res="2.0647801458835602e-01" rms="3.6702644824981689e-01" purity="8.0954897403717041e-01" nType="0">
          <Node pos="l" depth="2" NCoef="0" IVar="3" Cut="1.4164736866950989e-01" cType="1" res="2.3470744490623474e-01" rms="3.4733837842941284e-01" purity="8.4977471828460693e-01" nType="0">
            <Node pos="l" depth="3" NCoef="0" IVar="-1" Cut="0.0000000000000000e+00" cType="1" res="2.7627050876617432e-02" rms="3.1908434629440308e-01" purity="8.8122767210006714e-01" nType="-99"/>
            <Node pos="r" depth="3" NCoef="0" IVar="-1" Cut="0.0000000000000000e+00" cType="1" res="2.2357199341058731e-03" rms="4.8143672943115234e-01" purity="5.7963150739669800e-01" nType="-99"/>
          </Node>
          <Node pos="r" depth="2" NCoef="0" IVar="0" Cut="1.1238054186105728e-01" cType="1" res="-1.7837546765804291e-01" rms="4.0923541784286499e-01" purity="2.6114958524703979e-01" nType="0">
            <Node pos="l" depth="3" NCoef="0" IVar="-1" Cut="0.0000000000000000e+00" cType="1" res="-3.0583906918764114e-03" rms="4.7937932610511780e-01" purity="4.7491258382797241e-01" nType="-99"/>
            <Node pos="r" depth="3" NCoef="0" IVar="-1" Cut="0.0000000000000000e+00" cType="1" res="-2.8255218639969826e-02" rms="3.2795122265815735e-01" purity="1.3013894855976105e-01" nType="-99"/>
          </Node>
        </Node>
      </Node>
    </BinaryTree>
    <BinaryTree type="DecisionTree" boostWeight="1.0000000000000000e+00" itree="9">
      <Node pos="s" depth="0" NCoef="0" IVar="5" Cut="5.9440195560455322e-01" cType="1" res="-4.1367934318259358e-04" rms="3.9066207408905029e-01" purity="4.9980157613754272e-01" nType="0">
        <Node pos="l" depth="1" NCoef="0" IVar="0" Cut="3.8604348897933960e-02" cType="1" res="-2.8110405802726746e-01" rms="2.1139839291572571e-01" purity="5.8523621410131454e-02" nType="0">
          <Node pos="l" depth="2" NCoef="0" IVar="3" Cut="2.7930468320846558e-01" cType="1" res="-1.2836289405822754e-01" rms="4.4133788347244263e-01" purity="3.0856844782829285e-01" nType="0">
            <Node pos="l" depth="3" NCoef="0" IVar="-1" Cut="0.0000000000000000e+00" cType="1" res="-4.6934192068874836e-03" rms="4.7636246681213379e-01" purity="4.0651199221611023e-01" nType="-99"/>
            <Node pos="r" depth="3" NCoef="0" IVar="-1" Cut="0.0000000000000000e+00" cType="1" res="-3.3613022416830063e-02" rms="2.5830543041229248e-01" purity="7.9190813004970551e-02" nType="-99"/>
          </Node>
          <Node pos="r" depth="2" NCoef="0" IVar="0" Cut="1.5421333909034729e-01" cType="1" res="-3.0853357911109924e-01" rms="1.1311000585556030e-01" purity="1.3620102778077126e-02" nType="0">
            <Node pos="l" depth="3" NCoef="0" IVar="-1" Cut="0.0000000000000000e+00" cType="1" res="-2.8607601299881935e-02" rms="2.7763310074806213e-01" purity="8.7875425815582275e-02" nType="-99"/>
            <Node pos="r" depth="3" NCoef="0" IVar="-1" Cut="0.0000000000000000e+00" cType="1" res="-3.6084380000829697e-02" rms="7.5331419706344604e-02" purity="5.7389312423765659e-03" nType="-99"/>
          </Node>
        </Node>
        <Node pos="r" depth="1" NCoef="0" IVar="0" Cut="6.6996604204177856e-02" cType="1" res="1.9230562448501587e-01" rms="3.6808115243911743e-01" purity="8.0277878046035767e-01" nType="0">
          <Node pos="l" depth="2" NCoef="0" IVar="2" Cut="-4.9656467437744141e+00" cType="1" res="2.1964900195598602e-01" rms="3.5076531767845154e-01" purity="8.4449571371078491e-01" nType="0">
            <Node pos="l" depth="3" NCoef="0" IVar="-1" Cut="0.0000000000000000e+00" cType="1" res="2.6796299964189529e-02" rms="3.1971642374992371e-01" purity="8.7804692983627319e-01" nType="-99"/>
            <Node pos="r" depth="3" NCoef="0" IVar="-1" Cut="0.0000000000000000e+00" cType="1" res="3.8482914678752422e-03" rms="4.6210485696792603e-01" purity="6.3587301969528198e-01" nType="-99"/>
          </Node>
          <Node pos="r" depth="2" NCoef="0" IVar="0" Cut="1.1816658079624176e-01" cType="1" res="-1.8534234166145325e-01" rms="3.9300739765167236e-01" purity="2.2661270201206207e-01" nType="0">
            <Node pos="l" depth="3" NCoef="0" IVar="-1" Cut="0.0000000000000000e+00" cType="1" res="-4.3929778039455414e-03" rms="4.7688359022140503e-01" purity="4.3583461642265320e-01" nType="-99"/>
            <Node pos="r" depth="3" NCoef="0" IVar="-1" Cut="0.0000000000000000e+00" cType="1" res="-2.7024229988455772e-02" rms="3.2497942447662354e-01" purity="1.2714789807796478e-01" nType="-99"/>
          </Node>
        </Node>
      </Node>
    </BinaryTree>
    <BinaryTree type="DecisionTree" boostWeight="1.0000000000000000e+00" itree="10">
      <Node pos="s" depth="0" NCoef="0" IVar="5" Cut="6.4554452896118164e-01" cType="1" res="3.5468253190629184e-04" rms="3.8227877020835876e-01" purity="5.0066739320755005e-01" nType="0">
        <Node pos="l" depth="1" NCoef="0" IVar="0" Cut="5.9834957122802734e-02" cType="1" res="-2.4261632561683655e-01" rms="2.5639784336090088e-01" purity="1.0153175890445709e-01" nType="0">
          <Node pos="l" depth="2" NCoef="0" IVar="1" Cut="1.0057333111763000e-01" cType="1" res="-6.7852333188056946e-02" rms="4.5395895838737488e-01" purity="4.0138113498687744e-01" nType="0">
            <Node pos="l" depth="3" NCoef="0" IVar="-1" Cut="0.0000000000000000e+00" cType="1" res="4.9694241024553776e-03" rms="4.7361987829208374e-01" purity="5.5534982681274414e-01" nType="-99"/>
            <Node pos="r" depth="3" NCoef="0" IVar="-1" Cut="0.0000000000000000e+00" cType="1" res="-2.3717787116765976e-02" rms="3.7091797590255737e-01" purity="1.9139139354228973e-01" nType="-99"/>
          </Node>
          <Node pos="r" depth="2" NCoef="0" IVar="5" Cut="5.1627749204635620e-01" cType="1" res="-2.9290333390235901e-01" rms="1.1849582940340042e-01" purity="1.5252380631864071e-02" nType="0">
            <Node pos="l" depth="3" NCoef="0" IVar="-1" Cut="0.0000000000000000e+00" cType="1" res="-3.5307787358760834e-02" rms="7.3357678949832916e-02" purity="5.4964483715593815e-03" nType="-99"/>
            <Node pos="r" depth="3" NCoef="0" IVar="-1" Cut="0.0000000000000000e+00" cType="1" res="-2.8685277327895164e-02" rms="2.6186931133270264e-01" purity="7.8812032938003540e-02" nType="-99"/>
          </Node>
        </Node>
        <Node pos="r" depth="1" NCoef="0" IVar="1" Cut="1.1957500129938126e-01" cType="1" res="2.0270702242851257e-01" rms="3.5068741440773010e-01" purity="8.3307754993438721e-01" nType="0">
          <Node pos="l" depth="2" NCoef="0" IVar="3" Cut="1.4962750673294067e-01" cType="1" res="2.2064316272735596e-01" rms="3.3511975407600403e-01" purity="8.5725730657577515e-01" nType="0">
            <Node pos="l" depth="3" NCoef="0" IVar="-1" Cut="0.0000000000000000e+00" cType="1" res="2.6789370924234390e-02" rms="3.0687358975410461e-01" purity="8.8951319456100464e-01" nType="-99"/>
            <Node pos="r" depth="3" NCoef="0" IVar="-1" Cut="0.0000000000000000e+00" cType="1" res="-6.2228977913036942e-04" rms="4.7885796427726746e-01" purity="5.4818236827850342e-01" nType="-99"/>
          </Node>
          <Node pos="r" depth="2" NCoef="0" IVar="1" Cut="2.7330574393272400e-01" cType="1" res="-1.5643516182899475e-01" rms="4.4870337843894958e-01" purity="3.4891739487648010e-01" nType="0">
            <Node pos="l" depth="3" NCoef="0" IVar="-1" Cut="0.0000000000000000e+00" cType="1" res="-2.1890061907470226e-03" rms="4.7197398543357849e-01" purity="5.2860474586486816e-01" nType="-99"/>
            <Node pos="r" depth="3" NCoef="0" IVar="-1" Cut="0.0000000000000000e+00" cType="1" res="-2.5257706642150879e-02" rms="4.1086414456367493e-01" purity="2.3501282930374146e-01" nType="-99"/>
          </Node>
        </Node>
      </Node>
    </BinaryTree>
    <BinaryTree type="DecisionTree" boostWeight="1.0000000000000000e+00" itree="11">
      <Node pos="s" depth="0" NCoef="0" IVar="5" Cut="5.8461159467697144e-01" cType="1" res="3.4166101249866188e-04" rms="3.7451332807540894e-01" purity="5.0085240602493286e-01" nType="0">
        <Node pos="l" depth="1" NCoef="0" IVar="0" Cut="7.7208697795867920e-02" cType="1" res="-2.5857749581336975e-01" rms="1.9905109703540802e-01" purity="5.2576776593923569e-02" nType="0">
          <Node pos="l" depth="2" NCoef="0" IVar="3" Cut="2.3740896582603455e-01" cType="1" res="-1.4865854382514954e-01" rms="4.1560110449790955e-01" purity="2.6072898507118225e-01" nType="0">
            <Node pos="l" depth="3" NCoef="0" IVar="-1" Cut="0.0000000000000000e+00" cType="1" res="-6.6487784497439861e-03" rms="4.6439528465270996e-01" purity="3.6598539352416992e-01" nType="-99"/>
            <Node pos="r" depth="3" NCoef="0" IVar="-1" Cut="0.0000000000000000e+00" cType="1" res="-3.1969778239727020e-02" rms="2.5105607509613037e-01" purity="7.5857080519199371e-02" nType="-99"/>
          </Node>
          <Node pos="r" depth="2" NCoef="0" IVar="1" Cut="5.2779503166675568e-02" cType="1" res="-2.8179335594177246e-01" rms="9.1749429702758789e-02" purity="8.6131514981389046e-03" nType="0">
            <Node pos="l" depth="3" NCoef="0" IVar="-1" Cut="0.0000000000000000e+00" cType="1" res="-3.1463112682104111e-02" rms="1.7436972260475159e-01" purity="3.1962487846612930e-02" nType="-99"/>
            <Node pos="r" depth="3" NCoef="0" IVar="-1" Cut="0.0000000000000000e+00" cType="1" res="-3.4662541002035141e-02" rms="6.7363649606704712e-02" purity="4.5924517326056957e-03" nType="-99"/>
          </Node>
        </Node>
        <Node pos="r" depth="1" NCoef="0" IVar="0" Cut="5.5123228579759598e-02" cType="1" res="1.7181044816970825e-01" rms="3.6484256386756897e-01" purity="7.9772222042083740e-01" nType="0">
          <Node pos="l" depth="2" NCoef="0" IVar="2" Cut="-4.8347010612487793e+00" cType="1" res="2.0125994086265564e-01" rms="3.4704864025115967e-01" purity="8.4594106674194336e-01" nType="0">
            <Node pos="l" depth="3" NCoef="0" IVar="-1" Cut="0.0000000000000000e+00" cType="1" res="2.5050969794392586e-02" rms="3.1968891620635986e-01" purity="8.7674313783645630e-01" nType="-99"/>
            <Node pos="r" depth="3" NCoef="0" IVar="-1" Cut="0.0000000000000000e+00" cType="1" res="1.7158720875158906e-03" rms="4.6420636773109436e-01" purity="6.1970466375350952e-01" nType="-99"/>
          </Node>
          <Node pos="r" depth="2" NCoef="0" IVar="0" Cut="1.2864142656326294e-01" cType="1" res="-1.6009178757667542e-01" rms="3.9489290118217468e-01" purity="2.5428509712219238e-01" nType="0">
            <Node pos="l" depth="3" NCoef="0" IVar="-1" Cut="0.0000000000000000e+00" cType="1" res="-4.4994684867560863e-03" rms="4.6770372986793518e-01" purity="4.5168179273605347e-01" nType="-99"/>
            <Node pos="r" depth="3" NCoef="0" IVar="-1" Cut="0.0000000000000000e+00" cType="1" res="-2.7260458096861839e-02" rms="3.0250585079193115e-01" purity="1.0727172344923019e-01" nType="-99"/>
          </Node>
        </Node>
      </Node>
    </BinaryTree>
    <BinaryTree type="DecisionTree" boostWeight="1.0000000000000000e+00" itree="12">
      <Node pos="s" depth="0" NCoef="0" IVar="5" Cut="6.4984250068664551e-01" cType="1" res="-8.8731141295284033e-04" rms="3.6747610569000244e-01" purity="4.9897113442420959e-01" nType="0">
        <Node pos="l" depth="1" NCoef="0" IVar="0" Cut="3.7878174334764481e-02" cType="1" res="-2.1789288520812988e-01" rms="2.5400450825691223e-01" purity="1.0519283264875412e-01" nType="0">
          <Node pos="l" depth="2" NCoef="0" IVar="2" Cut="-4.8501772880554199e+00" cType="1" res="-4.7695685178041458e-02" rms="4.5362609624862671e-01" purity="4.2908397316932678e-01" nType="0">
            <Node pos="l" depth="3" NCoef="0" IVar="-1" Cut="0.0000000000000000e+00" cType="1" res="5.1043317653238773e-03" rms="4.6411678194999695e-01" purity="5.5044436454772949e-01" nType="-99"/>
            <Node pos="r" depth="3" NCoef="0" IVar="-1" Cut="0.0000000000000000e+00" cType="1" res="-2.2973487153649330e-02" rms="3.7834003567695618e-01" purity="2.1533109247684479e-01" nType="-99"/>
          </Node>
          <Node pos="r" depth="2" NCoef="0" IVar="0" Cut="1.5128874778747559e-01" cType="1" res="-2.6159173250198364e-01" rms="1.3748680055141449e-01" purity="2.2032454609870911e-02" nType="0">
            <Node pos="l" depth="3" NCoef="0" IVar="-1" Cut="0.0000000000000000e+00" cType="1" res="-2.3273605853319168e-02" rms="3.1986773014068604e-01" purity="1.3221420347690582e-01" nType="-99"/>
            <Node pos="r" depth="3" NCoef="0" IVar="-1" Cut="0.0000000000000000e+00" cType="1" res="-3.3586345613002777e-02" rms="8.8881544768810272e-02" purity="8.1520872190594673e-03" nType="-99"/>
          </Node>
        </Node>
        <Node pos="r" depth="1" NCoef="0" IVar="1" Cut="1.1117473989725113e-01" cType="1" res="1.8336711823940277e-01" rms="3.4782469272613525e-01" purity="8.3331918716430664e-01" nType="0">
          <Node pos="l" depth="2" NCoef="0" IVar="3" Cut="1.2768213450908661e-01" cType="1" res="2.0106263458728790e-01" rms="3.3260858058929443e-01" purity="8.5873889923095703e-01" nType="0">
            <Node pos="l" depth="3" NCoef="0" IVar="-1" Cut="0.0000000000000000e+00" cType="1" res="2.5604041293263435e-02" rms="3.0117869377136230e-01" purity="8.9376014471054077e-01" nType="-99"/>
            <Node pos="r" depth="3" NCoef="0" IVar="-1" Cut="0.0000000000000000e+00" cType="1" res="2.0518491510301828e-03" rms="4.6583804488182068e-01" purity="6.0572403669357300e-01" nType="-99"/>
          </Node>
          <Node pos="r" depth="2" NCoef="0" IVar="1" Cut="3.7805476784706116e-01" cType="1" res="-1.4820289611816406e-01" rms="4.4629076123237610e-01" purity="3.5701590776443481e-01" nType="0">
            <Node pos="l" depth="3" NCoef="0" IVar="-1" Cut="0.0000000000000000e+00" cType="1" res="-4.2079510167241096e-03" rms="4.6785286068916321e-01" purity="5.1313358545303345e-01" nType="-99"/>
            <Node pos="r" depth="3" NCoef="0" IVar="-1" Cut="0.0000000000000000e+00" cType="1" res="-2.5499936193227768e-02" rms="4.0396794676780701e-01" purity="2.2157362103462219e-01" nType="-99"/>
          </Node>
        </Node>
      </Node>
    </BinaryTree>
    <BinaryTree type="DecisionTree" boostWeight="1.0000000000000000e+00" itree="13">
      <Node pos="s" depth="0" NCoef="0" IVar="5" Cut="5.8454561233520508e-01" cType="1" res="6.6126097226515412e-04" rms="3.6027839779853821e-01" purity="5.0105178356170654e-01" nType="0">
        <Node pos="l" depth="1" NCoef="0" IVar="0" Cut="7.7208697795867920e-02" cType="1" res="-2.3409056663513184e-01" rms="1.9644880294799805e-01" purity="5.2687671035528183e-02" nType="0">
          <Node pos="l" depth="2" NCoef="0" IVar="5" Cut="4.6673521399497986e-01" cType="1" res="-1.3431128859519958e-01" rms="4.1379094123840332e-01" purity="2.6365026831626892e-01" nType="0">
            <Node pos="l" depth="3" NCoef="0" IVar="-1" Cut="0.0000000000000000e+00" cType="1" res="-2.7809567749500275e-02" rms="2.9736903309822083e-01" purity="1.0746573656797409e-01" nType="-99"/>
            <Node pos="r" depth="3" NCoef="0" IVar="-1" Cut="0.0000000000000000e+00" cType="1" res="-3.4685458522289991e-03" rms="4.6718129515647888e-01" purity="3.9444756507873535e-01" nType="-99"/>
          </Node>
          <Node pos="r" depth="2" NCoef="0" IVar="0" Cut="1.9260419905185699e-01" cType="1" res="-2.5498938560485840e-01" rms="9.1052137315273285e-02" purity="8.5014253854751587e-03" nType="0">
            <Node pos="l" depth="3" NCoef="0" IVar="-1" Cut="0.0000000000000000e+00" cType="1" res="-2.8839988633990288e-02" rms="2.0623260736465454e-01" purity="4.5060772448778152e-02" nType="-99"/>
            <Node pos="r" depth="3" NCoef="0" IVar="-1" Cut="0.0000000000000000e+00" cType="1" res="-3.3265896141529083e-02" rms="6.9329112768173218e-02" purity="4.8562311567366123e-03" nType="-99"/>
          </Node>
        </Node>
        <Node pos="r" depth="1" NCoef="0" IVar="0" Cut="5.2640188485383987e-02" cType="1" res="1.5642333030700684e-01" rms="3.5984954237937927e-01" purity="7.9854941368103027e-01" nType="0">
          <Node pos="l" depth="2" NCoef="0" IVar="3" Cut="2.6134938001632690e-01" cType="1" res="1.8361672759056091e-01" rms="3.4383422136306763e-01" purity="8.4691041707992554e-01" nType="0">
            <Node pos="l" depth="3" NCoef="0" IVar="-1" Cut="0.0000000000000000e+00" cType="1" res="2.2570220753550529e-02" rms="3.2867345213890076e-01" purity="8.6830765008926392e-01" nType="-99"/>
            <Node pos="r" depth="3" NCoef="0" IVar="-1" Cut="0.0000000000000000e+00" cType="1" res="-1.1511540040373802e-02" rms="4.8362067341804504e-01" purity="4.0871021151542664e-01" nType="-99"/>
          </Node>
          <Node pos="r" depth="2" NCoef="0" IVar="1" Cut="2.4705499410629272e-02" cType="1" res="-1.4146648347377777e-01" rms="3.9510348439216614e-01" purity="2.6877880096435547e-01" nType="0">
            <Node pos="l" depth="3" NCoef="0" IVar="-1" Cut="0.0000000000000000e+00" cType="1" res="-4.6482235193252563e-03" rms="4.5142924785614014e-01" purity="4.2522135376930237e-01" nType="-99"/>
            <Node pos="r" depth="3" NCoef="0" IVar="-1" Cut="0.0000000000000000e+00" cType="1" res="-2.6507865637540817e-02" rms="3.0420312285423279e-01" purity="1.1883933842182159e-01" nType="-99"/>
          </Node>
        </Node>
      </Node>
    </BinaryTree>
    <BinaryTree type="DecisionTree" boostWeight="1.0000000000000000e+00" itree="14">
      <Node pos="s" depth="0" NCoef="0" IVar="5" Cut="6.4989978075027466e-01" cType="1" res="-1.2898688146378845e-04" rms="3.5426121950149536e-01" purity="5.0012761354446411e-01" nType="0">
        <Node pos="l" depth="1" NCoef="0" IVar="0" Cut="3.8604348897933960e-02" cType="1" res="-1.9770835340023041e-01" rms="2.4919402599334717e-01" purity="1.0550512373447418e-01" nType="0">
          <Node pos="l" depth="2" NCoef="0" IVar="1" Cut="1.6762220859527588e-01" cType="1" res="-4.5753933489322662e-02" rms="4.4851243495941162e-01" purity="4.2832291126251221e-01" nType="0">
            <Node pos="l" depth="3" NCoef="0" IVar="-1" Cut="0.0000000000000000e+00" cType="1" res="4.0453076362609863e-03" rms="4.6583530306816101e-01" purity="5.5514150857925415e-01" nType="-99"/>
            <Node pos="r" depth="3" NCoef="0" IVar="-1" Cut="0.0000000000000000e+00" cType="1" res="-2.3932015523314476e-02" rms="3.4993904829025269e-01" purity="1.6498740017414093e-01" nType="-99"/>
          </Node>
          <Node pos="r" depth="2" NCoef="0" IVar="1" Cut="4.1971504688262939e-02" cType="1" res="-2.3720259964466095e-01" rms="1.3561774790287018e-01" purity="2.1602051332592964e-02" nType="0">
            <Node pos="l" depth="3" NCoef="0" IVar="-1" Cut="0.0000000000000000e+00" cType="1" res="-2.4302041158080101e-02" rms="2.6280391216278076e-01" purity="8.8213175535202026e-02" nType="-99"/>
            <Node pos="r" depth="3" NCoef="0" IVar="-1" Cut="0.0000000000000000e+00" cType="1" res="-3.2436050474643707e-02" rms="9.1590516269207001e-02" purity="9.0508610010147095e-03" nType="-99"/>
          </Node>
        </Node>
        <Node pos="r" depth="1" NCoef="0" IVar="1" Cut="9.3002773821353912e-02" cType="1" res="1.6718432307243347e-01" rms="3.4371584653854370e-01" purity="8.3430016040802002e-01" nType="0">
          <Node pos="l" depth="2" NCoef="0" IVar="3" Cut="2.7331957221031189e-01" cType="1" res="1.8532201647758484e-01" rms="3.2788687944412231e-01" purity="8.6177569627761841e-01" nType="0">
            <Node pos="l" depth="3" NCoef="0" IVar="-1" Cut="0.0000000000000000e+00" cType="1" res="2.3105613887310028e-02" rms="3.1351688504219055e-01" purity="8.8205921649932861e-01" nType="-99"/>
            <Node pos="r" depth="3" NCoef="0" IVar="-1" Cut="0.0000000000000000e+00" cType="1" res="-1.2425343506038189e-02" rms="4.7346189618110657e-01" purity="3.8702213764190674e-01" nType="-99"/>
          </Node>
          <Node pos="r" depth="2" NCoef="0" IVar="1" Cut="2.9319950938224792e-01" cType="1" res="-1.1902048438787460e-01" rms="4.4585338234901428e-01" purity="4.0074890851974487e-01" nType="0">
            <Node pos="l" depth="3" NCoef="0" IVar="-1" Cut="0.0000000000000000e+00" cType="1" res="-1.8974064150825143e-03" rms="4.6082645654678345e-01" purity="5.6796997785568237e-01" nType="-99"/>
            <Node pos="r" depth="3" NCoef="0" IVar="-1" Cut="0.0000000000000000e+00" cType="1" res="-2.4358605965971947e-02" rms="4.0187323093414307e-01" purity="2.2171586751937866e-01" nType="-99"/>
          </Node>
        </Node>
      </Node>
    </BinaryTree>
    <BinaryTree type="DecisionTree" boostWeight="1.0000000000000000e+00" itree="15">
      <Node pos="s" depth="0" NCoef="0" IVar="5" Cut="5.7576072216033936e-01" cType="1" res="-1.9675424846354872e-04" rms="3.4869414567947388e-01" purity="4.9967953562736511e-01" nType="0">
        <Node pos="l" depth="1" NCoef="0" IVar="5" Cut="4.9653428792953491e-01" cType="1" res="-2.1527484059333801e-01" rms="1.8617293238639832e-01" purity="4.7555226832628250e-02" nType="0">
          <Node pos="l" depth="2" NCoef="0" IVar="5" Cut="4.3811297416687012e-01" cType="1" res="-2.3121704161167145e-01" rms="1.2747585773468018e-01" purity="1.9611733034253120e-02" nType="0">
            <Node pos="l" depth="3" NCoef="0" IVar="-1" Cut="0.0000000000000000e+00" cType="1" res="-3.1975492835044861e-02" rms="9.6134588122367859e-02" purity="1.0468850843608379e-02" nType="-99"/>
            <Node pos="r" depth="3" NCoef="0" IVar="-1" Cut="0.0000000000000000e+00" cType="1" res="-2.5521652773022652e-02" rms="2.3946478962898254e-01" purity="7.4797369539737701e-02" nType="-99"/>
          </Node>
          <Node pos="r" depth="2" NCoef="0" IVar="0" Cut="8.5806466639041901e-02" cType="1" res="-1.2921020388603210e-01" rms="3.5393476486206055e-01" purity="1.9840945303440094e-01" nType="0">
            <Node pos="l" depth="3" NCoef="0" IVar="-1" Cut="0.0000000000000000e+00" cType="1" res="-2.8328723274171352e-03" rms="4.6853610873222351e-01" purity="4.0036571025848389e-01" nType="-99"/>
            <Node pos="r" depth="3" NCoef="0" IVar="-1" Cut="0.0000000000000000e+00" cType="1" res="-2.8328666463494301e-02" rms="1.8628290295600891e-01" purity="3.6522269248962402e-02" nType="-99"/>
          </Node>
        </Node>
        <Node pos="r" depth="1" NCoef="0" IVar="0" Cut="4.5514516532421112e-02" cType="1" res="1.3906022906303406e-01" rms="3.5850647091865540e-01" purity="7.9241722822189331e-01" nType="0">
          <Node pos="l" depth="2" NCoef="0" IVar="2" Cut="-4.7508134841918945e+00" cType="1" res="1.6628435254096985e-01" rms="3.4336861968040466e-01" purity="8.4539657831192017e-01" nType="0">
            <Node pos="l" depth="3" NCoef="0" IVar="-1" Cut="0.0000000000000000e+00" cType="1" res="2.2108139470219612e-02" rms="3.1919533014297485e-01" purity="8.7511903047561646e-01" nType="-99"/>
            <Node pos="r" depth="3" NCoef="0" IVar="-1" Cut="0.0000000000000000e+00" cType="1" res="-1.2042296584695578e-03" rms="4.6136799454689026e-01" purity="6.0363864898681641e-01" nType="-99"/>
          </Node>
          <Node pos="r" depth="2" NCoef="0" IVar="0" Cut="1.2580563127994537e-01" cType="1" res="-1.1686683446168900e-01" rms="3.9489591121673584e-01" purity="2.9437184333801270e-01" nType="0">
            <Node pos="l" depth="3" NCoef="0" IVar="-1" Cut="0.0000000000000000e+00" cType="1" res="-2.2075714077800512e-03" rms="4.5681011676788330e-01" purity="4.9537625908851624e-01" nType="-99"/>
            <Node pos="r" depth="3" NCoef="0" IVar="-1" Cut="0.0000000000000000e+00" cType="1" res="-2.4256184697151184e-02" rms="3.0221754312515259e-01" purity="1.1008715629577637e-01" nType="-99"/>
          </Node>
        </Node>
      </Node>
    </BinaryTree>
    <BinaryTree type="DecisionTree" boostWeight="1.0000000000000000e+00" itree="16">
      <Node pos="s" depth="0" NCoef="0" IVar="5" Cut="6.6451990604400635e-01" cType="1" res="-1.4367969706654549e-03" rms="3.4385541081428528e-01" purity="4.9883097410202026e-01" nType="0">
        <Node pos="l" depth="1" NCoef="0" IVar="0" Cut="3.7878174334764481e-02" cType="1" res="-1.7451776564121246e-01" rms="2.5471264123916626e-01" purity="1.2081964313983917e-01" nType="0">
          <Node pos="l" depth="2" NCoef="0" IVar="2" Cut="-4.6840515136718750e+00" cType="1" res="-3.5835303366184235e-02" rms="4.4384440779685974e-01" purity="4.5628806948661804e-01" nType="0">
            <Node pos="l" depth="3" NCoef="0" IVar="-1" Cut="0.0000000000000000e+00" cType="1" res="4.1888402774930000e-03" rms="4.5273390412330627e-01" purity="5.6411361694335938e-01" nType="-99"/>
            <Node pos="r" depth="3" NCoef="0" IVar="-1" Cut="0.0000000000000000e+00" cType="1" res="-2.2000947967171669e-02" rms="3.7279522418975830e-01" purity="2.1685566008090973e-01" nType="-99"/>
          </Node>
          <Node pos="r" depth="2" NCoef="0" IVar="1" Cut="4.1971504688262939e-02" cType="1" res="-2.1448741853237152e-01" rms="1.4021334052085876e-01" purity="2.4134343490004539e-02" nType="0">
            <Node pos="l" depth="3" NCoef="0" IVar="-1" Cut="0.0000000000000000e+00" cType="1" res="-2.2862097248435020e-02" rms="2.6600250601768494e-01" purity="9.5216035842895508e-02" nType="-99"/>
            <Node pos="r" depth="3" NCoef="0" IVar="-1" Cut="0.0000000000000000e+00" cType="1" res="-3.1240263953804970e-02" rms="9.7462199628353119e-02" purity="1.0523988865315914e-02" nType="-99"/>
          </Node>
        </Node>
        <Node pos="r" depth="1" NCoef="0" IVar="1" Cut="8.8995665311813354e-02" cType="1" res="1.5494151413440704e-01" rms="3.3900609612464905e-01" purity="8.4036350250244141e-01" nType="0">
          <Node pos="l" depth="2" NCoef="0" IVar="3" Cut="1.0972683876752853e-01" cType="1" res="1.7055328190326691e-01" rms="3.2462155818939209e-01" purity="8.6533910036087036e-01" nType="0">
            <Node pos="l" depth="3" NCoef="0" IVar="-1" Cut="0.0000000000000000e+00" cType="1" res="2.3852337151765823e-02" rms="2.8868827223777771e-01" purity="9.0336930751800537e-01" nType="-99"/>
            <Node pos="r" depth="3" NCoef="0" IVar="-1" Cut="0.0000000000000000e+00" cType="1" res="3.4196912311017513e-03" rms="4.4767710566520691e-01" purity="6.6137200593948364e-01" nType="-99"/>
          </Node>
          <Node pos="r" depth="2" NCoef="0" IVar="1" Cut="2.7502000331878662e-01" cType="1" res="-1.0592371970415115e-01" rms="4.4978943467140198e-01" purity="4.2303338646888733e-01" nType="0">
            <Node pos="l" depth="3" NCoef="0" IVar="-1" Cut="0.0000000000000000e+00" cType="1" res="-1.7192400991916656e-03" rms="4.5694786310195923e-01" purity="5.8719521760940552e-01" nType="-99"/>
            <Node pos="r" depth="3" NCoef="0" IVar="-1" Cut="0.0000000000000000e+00" cType="1" res="-2.1745176985859871e-02" rms="4.2121624946594238e-01" purity="2.4759931862354279e-01" nType="-99"/>
          </Node>
        </Node>
      </Node>
    </BinaryTree>
    <BinaryTree type="DecisionTree" boostWeight="1.0000000000000000e+00" itree="17">
      <Node pos="s" depth="0" NCoef="0" IVar="5" Cut="5.7650399208068848e-01" cType="1" res="-3.3511625952087343e-04" rms="3.3890527486801147e-01" purity="4.9960765242576599e-01" nType="0">
        <Node pos="l" depth="1" NCoef="0" IVar="5" Cut="4.7754138708114624e-01" cType="1" res="-1.9491741061210632e-01" rms="1.8578915297985077e-01" purity="4.8224572092294693e-02" nType="0">
          <Node pos="l" depth="2" NCoef="0" IVar="4" Cut="4.0419163703918457e+00" cType="1" res="-2.1205349266529083e-01" rms="1.1653394997119904e-01" purity="1.6055591404438019e-02" nType="0">
            <Node pos="l" depth="3" NCoef="0" IVar="-1" Cut="0.0000000000000000e+00" cType="1" res="-3.0995277687907219e-02" rms="9.6118345856666565e-02" purity="1.0483485646545887e-02" nType="-99"/>
            <Node pos="r" depth="3" NCoef="0" IVar="-1" Cut="0.0000000000000000e+00" cType="1" res="-2.5344803929328918e-02" rms="2.2057943046092987e-01" purity="6.2142115086317062e-02" nType="-99"/>
          </Node>
          <Node pos="r" depth="2" NCoef="0" IVar="0" Cut="6.2924742698669434e-02" cType="1" res="-1.2448541820049286e-01" rms="3.3823987841606140e-01" purity="1.8044413626194000e-01" nType="0">
            <Node pos="l" depth="3" NCoef="0" IVar="-1" Cut="0.0000000000000000e+00" cType="1" res="-2.4181436747312546e-03" rms="4.6838212013244629e-01" purity="4.0077123045921326e-01" nType="-99"/>
            <Node pos="r" depth="3" NCoef="0" IVar="-1" Cut="0.0000000000000000e+00" cType="1" res="-2.6955429464578629e-02" rms="1.8961893022060394e-01" purity="3.8563467562198639e-02" nType="-99"/>
          </Node>
        </Node>
        <Node pos="r" depth="1" NCoef="0" IVar="1" Cut="7.4712313711643219e-02" cType="1" res="1.2542232871055603e-01" rms="3.5566055774688721e-01" purity="7.9133409261703491e-01" nType="0">
          <Node pos="l" depth="2" NCoef="0" IVar="3" Cut="3.9302158355712891e-01" cType="1" res="1.5233139693737030e-01" rms="3.3713197708129883e-01" purity="8.3900129795074463e-01" nType="0">
            <Node pos="l" depth="3" NCoef="0" IVar="-1" Cut="0.0000000000000000e+00" cType="1" res="1.9855024293065071e-02" rms="3.2811835408210754e-01" purity="8.5820943117141724e-01" nType="-99"/>
            <Node pos="r" depth="3" NCoef="0" IVar="-1" Cut="0.0000000000000000e+00" cType="1" res="-2.2269316017627716e-02" rms="4.0316468477249146e-01" purity="2.4456658959388733e-01" nType="-99"/>
          </Node>
          <Node pos="r" depth="2" NCoef="0" IVar="3" Cut="2.9326990246772766e-01" cType="1" res="-1.0888072848320007e-01" rms="4.2078664898872375e-01" purity="3.7628537416458130e-01" nType="0">
            <Node pos="l" depth="3" NCoef="0" IVar="-1" Cut="0.0000000000000000e+00" cType="1" res="-8.5618840530514717e-03" rms="4.3594089150428772e-01" purity="4.2827311158180237e-01" nType="-99"/>
            <Node pos="r" depth="3" NCoef="0" IVar="-1" Cut="0.0000000000000000e+00" cType="1" res="-3.4789897501468658e-02" rms="2.2851069271564484e-01" purity="5.7303197681903839e-02" nType="-99"/>
          </Node>
        </Node>
      </Node>
    </BinaryTree>
    <BinaryTree type="DecisionTree" boostWeight="1.0000000000000000e+00" itree="18">
      <Node pos="s" depth="0" NCoef="0" IVar="5" Cut="6.5311807394027710e-01" cType="1" res="4.8377076745964587e-04" rms="3.3389976620674133e-01" purity="5.0120186805725098e-01" nType="0">
        <Node pos="l" depth="1" NCoef="0" IVar="0" Cut="3.7878174334764481e-02" cType="1" res="-1.6142413020133972e-01" rms="2.4426998198032379e-01" purity="1.0894443094730377e-01" nType="0">
          <Node pos="l" depth="2" NCoef="0" IVar="3" Cut="4.4688746333122253e-01" cType="1" res="-3.5959348082542419e-02" rms="4.4124084711074829e-01" purity="4.3576899170875549e-01" nType="0">
            <Node pos="l" depth="3" NCoef="0" IVar="-1" Cut="0.0000000000000000e+00" cType="1" res="1.2708044378086925e-03" rms="4.5791730284690857e-01" purity="5.1057553291320801e-01" nType="-99"/>
            <Node pos="r" depth="3" NCoef="0" IVar="-1" Cut="0.0000000000000000e+00" cType="1" res="-3.1631361693143845e-02" rms="2.2682951390743256e-01" purity="6.2817573547363281e-02" nType="-99"/>
          </Node>
          <Node pos="r" depth="2" NCoef="0" IVar="0" Cut="1.5128596127033234e-01" cType="1" res="-1.9458459317684174e-01" rms="1.3682225346565247e-01" purity="2.2564372047781944e-02" nType="0">
            <Node pos="l" depth="3" NCoef="0" IVar="-1" Cut="0.0000000000000000e+00" cType="1" res="-1.8851691856980324e-02" rms="3.1627067923545837e-01" purity="1.3402368128299713e-01" nType="-99"/>
            <Node pos="r" depth="3" NCoef="0" IVar="-1" Cut="0.0000000000000000e+00" cType="1" res="-3.0377363786101341e-02" rms="8.9616790413856506e-02" purity="8.3623090758919716e-03" nType="-99"/>
          </Node>
        </Node>
        <Node pos="r" depth="1" NCoef="0" IVar="1" Cut="1.4008559286594391e-01" cType="1" res="1.3910499215126038e-01" rms="3.3793088793754578e-01" purity="8.3704227209091187e-01" nType="0">
          <Node pos="l" depth="2" NCoef="0" IVar="3" Cut="1.4164736866950989e-01" cType="1" res="1.5151327848434448e-01" rms="3.2740736007690430e-01" purity="8.5934382677078247e-01" nType="0">
            <Node pos="l" depth="3" NCoef="0" IVar="-1" Cut="0.0000000000000000e+00" cType="1" res="2.1474195644259453e-02" rms="3.0116742849349976e-01" purity="8.9267349243164062e-01" nType="-99"/>
            <Node pos="r" depth="3" NCoef="0" IVar="-1" Cut="0.0000000000000000e+00" cType="1" res="-2.7231131680309772e-03" rms="4.6829554438591003e-01" purity="5.6236129999160767e-01" nType="-99"/>
          </Node>
          <Node pos="r" depth="2" NCoef="0" IVar="1" Cut="2.7618846297264099e-01" cType="1" res="-1.5239119529724121e-01" rms="4.3599879741668701e-01" purity="3.1313288211822510e-01" nType="0">
            <Node pos="l" depth="3" NCoef="0" IVar="-1" Cut="0.0000000000000000e+00" cType="1" res="-5.3192418999969959e-03" rms="4.6979826688766479e-01" purity="4.9429097771644592e-01" nType="-99"/>
            <Node pos="r" depth="3" NCoef="0" IVar="-1" Cut="0.0000000000000000e+00" cType="1" res="-2.1318450570106506e-02" rms="4.1295510530471802e-01" purity="2.3499320447444916e-01" nType="-99"/>
          </Node>
        </Node>
      </Node>
    </BinaryTree>
    <BinaryTree type="DecisionTree" boostWeight="1.0000000000000000e+00" itree="19">
      <Node pos="s" depth="0" NCoef="0" IVar="0" Cut="6.4061887562274933e-02" cType="1" res="-1.5053942333906889e-03" rms="3.3010557293891907e-01" purity="4.9839085340499878e-01" nType="0">
        <Node pos="l" depth="1" NCoef="0" IVar="1" Cut="1.3009935617446899e-01" cType="1" res="1.0960889607667923e-01" rms="3.5770279169082642e-01" purity="7.8157973289489746e-01" nType="0">
          <Node pos="l" depth="2" NCoef="0" IVar="3" Cut="4.1895699501037598e-01" cType="1" res="1.3601699471473694e-01" rms="3.4287270903587341e-01" purity="8.3398592472076416e-01" nType="0">
            <Node pos="l" depth="3" NCoef="0" IVar="-1" Cut="0.0000000000000000e+00" cType="1" res="1.8375027924776077e-02" rms="3.3464366197586060e-01" purity="8.5448449850082397e-01" nType="-99"/>
            <Node pos="r" depth="3" NCoef="0" IVar="-1" Cut="0.0000000000000000e+00" cType="1" res="-2.4664195254445076e-02" rms="3.8326123356819153e-01" purity="2.0402249693870544e-01" nType="-99"/>
          </Node>
          <Node pos="r" depth="2" NCoef="0" IVar="1" Cut="3.1338682770729065e-01" cType="1" res="-1.5780931711196899e-01" rms="3.9317363500595093e-01" purity="2.5089547038078308e-01" nType="0">
            <Node pos="l" depth="3" NCoef="0" IVar="-1" Cut="0.0000000000000000e+00" cType="1" res="-8.3821360021829605e-03" rms="4.3808385729789734e-01" purity="3.8029807806015015e-01" nType="-99"/>
            <Node pos="r" depth="3" NCoef="0" IVar="-1" Cut="0.0000000000000000e+00" cType="1" res="-2.3494439199566841e-02" rms="3.5148504376411438e-01" purity="1.6698496043682098e-01" nType="-99"/>
          </Node>
        </Node>
        <Node pos="r" depth="1" NCoef="0" IVar="0" Cut="9.5974974334239960e-02" cType="1" res="-1.8335348367691040e-01" rms="1.5693962574005127e-01" purity="3.4927744418382645e-02" nType="0">
          <Node pos="l" depth="2" NCoef="0" IVar="1" Cut="5.0872653722763062e-02" cType="1" res="-7.6528482139110565e-02" rms="3.9443489909172058e-01" purity="3.0094408988952637e-01" nType="0">
            <Node pos="l" depth="3" NCoef="0" IVar="-1" Cut="0.0000000000000000e+00" cType="1" res="4.5564072206616402e-03" rms="4.5926675200462341e-01" purity="5.1025092601776123e-01" nType="-99"/>
            <Node pos="r" depth="3" NCoef="0" IVar="-1" Cut="0.0000000000000000e+00" cType="1" res="-2.5245014578104019e-02" rms="2.6505738496780396e-01" purity="8.7038896977901459e-02" nType="-99"/>
          </Node>
          <Node pos="r" depth="2" NCoef="0" IVar="0" Cut="1.5965615212917328e-01" cType="1" res="-1.8912087380886078e-01" rms="1.3004180788993835e-01" purity="2.0565755665302277e-02" nType="0">
            <Node pos="l" depth="3" NCoef="0" IVar="-1" Cut="0.0000000000000000e+00" cType="1" res="-2.0433431491255760e-02" rms="2.9920288920402527e-01" purity="1.2579895555973053e-01" nType="-99"/>
            <Node pos="r" depth="3" NCoef="0" IVar="-1" Cut="0.0000000000000000e+00" cType="1" res="-2.9772238805890083e-02" rms="1.0379914939403534e-01" purity="1.1819004081189632e-02" nType="-99"/>
          </Node>
        </Node>
      </Node>
    </BinaryTree>
    <BinaryTree type="DecisionTree" boostWeight="1.0000000000000000e+00" itree="20">
      <Node pos="s" depth="0" NCoef="0" IVar="5" Cut="6.5812182426452637e-01" cType="1" res="-5.0863286014646292e-04" rms="3.2566839456558228e-01" purity="4.9957844614982605e-01" nType="0">
        <Node pos="l" depth="1" NCoef="0" IVar="5" Cut="5.4163283109664917e-01" cType="1" res="-1.4576244354248047e-01" rms="2.4345295131206512e-01" purity="1.1362595856189728e-01" nType="0">
          <Node pos="l" depth="2" NCoef="0" IVar="5" Cut="4.6201747655868530e-01" cType="1" res="-1.7711447179317474e-01" rms="1.5558671951293945e-01" purity="3.2450959086418152e-02" nType="0">
            <Node pos="l" depth="3" NCoef="0" IVar="-1" Cut="0.0000000000000000e+00" cType="1" res="-2.9404437169432640e-02" rms="1.0653866827487946e-01" purity="1.3174319639801979e-02" nType="-99"/>
            <Node pos="r" depth="3" NCoef="0" IVar="-1" Cut="0.0000000000000000e+00" cType="1" res="-1.8613601103425026e-02" rms="2.9171988368034363e-01" purity="1.2676876783370972e-01" nType="-99"/>
          </Node>
          <Node pos="r" depth="2" NCoef="0" IVar="0" Cut="9.2746645212173462e-02" cType="1" res="-3.1359590590000153e-02" rms="4.1295936703681946e-01" purity="4.0983173251152039e-01" nType="0">
            <Node pos="l" depth="3" NCoef="0" IVar="-1" Cut="0.0000000000000000e+00" cType="1" res="3.4269194584339857e-03" rms="4.5952874422073364e-01" purity="5.7667315006256104e-01" nType="-99"/>
            <Node pos="r" depth="3" NCoef="0" IVar="-1" Cut="0.0000000000000000e+00" cType="1" res="-2.2535700350999832e-02" rms="2.5392672419548035e-01" purity="7.3960021138191223e-02" nType="-99"/>
          </Node>
        </Node>
        <Node pos="r" depth="1" NCoef="0" IVar="3" Cut="2.1346856653690338e-01" cType="1" res="1.2707491219043732e-01" rms="3.3518469333648682e-01" purity="8.3857941627502441e-01" nType="0">
          <Node pos="l" depth="2" NCoef="0" IVar="1" Cut="2.0215326547622681e-01" cType="1" res="1.4066217839717865e-01" rms="3.2059592008590698e-01" purity="8.6398738622665405e-01" nType="0">
            <Node pos="l" depth="3" NCoef="0" IVar="-1" Cut="0.0000000000000000e+00" cType="1" res="1.9320070743560791e-02" rms="3.1200990080833435e-01" purity="8.8223451375961304e-01" nType="-99"/>
            <Node pos="r" depth="3" NCoef="0" IVar="-1" Cut="0.0000000000000000e+00" cType="1" res="-1.6938110813498497e-02" rms="4.3254271149635315e-01" purity="2.7636119723320007e-01" nType="-99"/>
          </Node>
          <Node pos="r" depth="2" NCoef="0" IVar="3" Cut="4.6609124541282654e-01" cType="1" res="-9.5449350774288177e-02" rms="4.6528658270835876e-01" purity="4.2246410250663757e-01" nType="0">
            <Node pos="l" depth="3" NCoef="0" IVar="-1" Cut="0.0000000000000000e+00" cType="1" res="-1.5209245029836893e-03" rms="4.8393803834915161e-01" purity="5.3556126356124878e-01" nType="-99"/>
            <Node pos="r" depth="3" NCoef="0" IVar="-1" Cut="0.0000000000000000e+00" cType="1" res="-2.7091177180409431e-02" rms="3.7341448664665222e-01" purity="1.9051590561866760e-01" nType="-99"/>
          </Node>
        </Node>
      </Node>
    </BinaryTree>
    <BinaryTree type="DecisionTree" boostWeight="1.0000000000000000e+00" itree="21">
      <Node pos="s" depth="0" NCoef="0" IVar="0" Cut="5.9855196624994278e-02" cType="1" res="-1.2061328161507845e-03" rms="3.2143500447273254e-01" purity="4.9823552370071411e-01" nType="0">
        <Node pos="l" depth="1" NCoef="0" IVar="1" Cut="9.9107429385185242e-02" cType="1" res="1.0158786177635193e-01" rms="3.5256570577621460e-01" purity="7.8470796346664429e-01" nType="0">
          <Node pos="l" depth="2" NCoef="0" IVar="2" Cut="-4.6611161231994629e+00" cType="1" res="1.2891519069671631e-01" rms="3.3574989438056946e-01" purity="8.4275442361831665e-01" nType="0">
            <Node pos="l" depth="3" NCoef="0" IVar="-1" Cut="0.0000000000000000e+00" cType="1" res="1.9180262461304665e-02" rms="3.1524866819381714e-01" purity="8.7414509057998657e-01" nType="-99"/>
            <Node pos="r" depth="3" NCoef="0" IVar="-1" Cut="0.0000000000000000e+00" cType="1" res="-5.0880177877843380e-03" rms="4.4522330164909363e-01" purity="5.6306600570678711e-01" nType="-99"/>
          </Node>
          <Node pos="r" depth="2" NCoef="0" IVar="3" Cut="1.9152320921421051e-01" cType="1" res="-1.2981167435646057e-01" rms="4.0304258465766907e-01" purity="2.9318794608116150e-01" nType="0">
            <Node pos="l" depth="3" NCoef="0" IVar="-1" Cut="0.0000000000000000e+00" cType="1" res="-9.0549252927303314e-03" rms="4.4870948791503906e-01" purity="3.8768157362937927e-01" nType="-99"/>
            <Node pos="r" depth="3" NCoef="0" IVar="-1" Cut="0.0000000000000000e+00" cType="1" res="-2.9819605872035027e-02" rms="2.2209586203098297e-01" purity="6.1549443751573563e-02" nType="-99"/>
          </Node>
        </Node>
        <Node pos="r" depth="1" NCoef="0" IVar="0" Cut="1.1947403848171234e-01" cType="1" res="-1.6674664616584778e-01" rms="1.5846267342567444e-01" purity="3.6897391080856323e-02" nType="0">
          <Node pos="l" depth="2" NCoef="0" IVar="3" Cut="2.7331957221031189e-01" cType="1" res="-9.3504942953586578e-02" rms="3.7711584568023682e-01" purity="2.6489388942718506e-01" nType="0">
            <Node pos="l" depth="3" NCoef="0" IVar="-1" Cut="0.0000000000000000e+00" cType="1" res="-3.3021389972418547e-03" rms="4.2673149704933167e-01" purity="3.7677684426307678e-01" nType="-99"/>
            <Node pos="r" depth="3" NCoef="0" IVar="-1" Cut="0.0000000000000000e+00" cType="1" res="-2.9497656971216202e-02" rms="1.9659763574600220e-01" purity="4.4827796518802643e-02" nType="-99"/>
          </Node>
          <Node pos="r" depth="2" NCoef="0" IVar="3" Cut="2.7930468320846558e-01" cType="1" res="-1.7370064556598663e-01" rms="1.1590516567230225e-01" purity="1.5250061638653278e-02" nType="0">
            <Node pos="l" depth="3" NCoef="0" IVar="-1" Cut="0.0000000000000000e+00" cType="1" res="-2.7416910976171494e-02" rms="1.4707301557064056e-01" purity="2.4961493909358978e-02" nType="-99"/>
            <Node pos="r" depth="3" NCoef="0" IVar="-1" Cut="0.0000000000000000e+00" cType="1" res="-3.0405266210436821e-02" rms="4.3003339320421219e-02" purity="1.6457288293167949e-03" nType="-99"/>
          </Node>
        </Node>
      </Node>
    </BinaryTree>
    <BinaryTree type="DecisionTree" boostWeight="1.0000000000000000e+00" itree="22">
      <Node pos="s" depth="0" NCoef="0" IVar="5" Cut="6.6628682613372803e-01" cType="1" res="-3.4341114223934710e-04" rms="3.1888577342033386e-01" purity="5.0019294023513794e-01" nType="0">
        <Node pos="l" depth="1" NCoef="0" IVar="0" Cut="3.2030943781137466e-02" cType="1" res="-1.2990857660770416e-01" rms="2.4522072076797485e-01" purity="1.2319353967905045e-01" nType="0">
          <Node pos="l" depth="2" NCoef="0" IVar="2" Cut="-4.7922172546386719e+00" cType="1" res="-2.2116795182228088e-02" rms="4.3218398094177246e-01" purity="4.6746438741683960e-01" nType="0">
            <Node pos="l" depth="3" NCoef="0" IVar="-1" Cut="0.0000000000000000e+00" cType="1" res="5.2515775896608829e-03" rms="4.4174051284790039e-01" purity="5.8309394121170044e-01" nType="-99"/>
            <Node pos="r" depth="3" NCoef="0" IVar="-1" Cut="0.0000000000000000e+00" cType="1" res="-1.8384253606200218e-02" rms="3.7518730759620667e-01" purity="2.3627908527851105e-01" nType="-99"/>
          </Node>
          <Node pos="r" depth="2" NCoef="0" IVar="1" Cut="4.1971504688262939e-02" cType="1" res="-1.5991927683353424e-01" rms="1.4400225877761841e-01" purity="2.7343887835741043e-02" nType="0">
            <Node pos="l" depth="3" NCoef="0" IVar="-1" Cut="0.0000000000000000e+00" cType="1" res="-1.8482336774468422e-02" rms="2.7161288261413574e-01" purity="1.0889266431331635e-01" nType="-99"/>
            <Node pos="r" depth="3" NCoef="0" IVar="-1" Cut="0.0000000000000000e+00" cType="1" res="-2.8764493763446808e-02" rms="9.9570602178573608e-02" purity="1.1215315200388432e-02" nType="-99"/>
          </Node>
        </Node>
        <Node pos="r" depth="1" NCoef="0" IVar="3" Cut="1.1371690034866333e-01" cType="1" res="1.1716300994157791e-01" rms="3.3217915892601013e-01" purity="8.4210473299026489e-01" nType="0">
          <Node pos="l" depth="2" NCoef="0" IVar="1" Cut="2.7900832891464233e-01" cType="1" res="1.3804630935192108e-01" rms="3.0417770147323608e-01" purity="8.7846362590789795e-01" nType="0">
            <Node pos="l" depth="3" NCoef="0" IVar="-1" Cut="0.0000000000000000e+00" cType="1" res="1.9712140783667564e-02" rms="2.9554727673530579e-01" purity="8.9598989486694336e-01" nType="-99"/>
            <Node pos="r" depth="3" NCoef="0" IVar="-1" Cut="0.0000000000000000e+00" cType="1" res="-1.6912804916501045e-02" rms="4.3185967206954956e-01" purity="2.6097187399864197e-01" nType="-99"/>
          </Node>
          <Node pos="r" depth="2" NCoef="0" IVar="3" Cut="4.5144769549369812e-01" cType="1" res="-3.6811048630625010e-03" rms="4.4308888912200928e-01" purity="6.3170886039733887e-01" nType="0">
            <Node pos="l" depth="3" NCoef="0" IVar="-1" Cut="0.0000000000000000e+00" cType="1" res="3.3507114276289940e-03" rms="4.4070595502853394e-01" purity="6.9185113906860352e-01" nType="-99"/>
            <Node pos="r" depth="3" NCoef="0" IVar="-1" Cut="0.0000000000000000e+00" cType="1" res="-2.3293636739253998e-02" rms="3.9400061964988708e-01" purity="2.2274100780487061e-01" nType="-99"/>
          </Node>
        </Node>
      </Node>
    </BinaryTree>
    <BinaryTree type="DecisionTree" boostWeight="1.0000000000000000e+00" itree="23">
      <Node pos="s" depth="0" NCoef="0" IVar="5" Cut="5.6933635473251343e-01" cType="1" res="-7.4177375063300133e-04" rms="3.1550091505050659e-01" purity="4.9947535991668701e-01" nType="0">
        <Node pos="l" depth="1" NCoef="0" IVar="5" Cut="4.6364694833755493e-01" cType="1" res="-1.4912264049053192e-01" rms="1.7293481528759003e-01" purity="4.3432384729385376e-02" nType="0">
          <Node pos="l" depth="2" NCoef="0" IVar="2" Cut="-5.3764457702636719e+00" cType="1" res="-1.6088023781776428e-01" rms="1.0767640173435211e-01" purity="1.3765044510364532e-02" nType="0">
            <Node pos="l" depth="3" NCoef="0" IVar="-1" Cut="0.0000000000000000e+00" cType="1" res="-2.7120538055896759e-02" rms="1.2818774580955505e-01" purity="2.0433727651834488e-02" nType="-99"/>
            <Node pos="r" depth="3" NCoef="0" IVar="-1" Cut="0.0000000000000000e+00" cType="1" res="-2.9234217479825020e-02" rms="8.4794364869594574e-02" purity="7.8030531294643879e-03" nType="-99"/>
          </Node>
          <Node pos="r" depth="2" NCoef="0" IVar="0" Cut="9.7728148102760315e-02" cType="1" res="-1.0474295914173126e-01" rms="3.1070193648338318e-01" purity="1.5541343390941620e-01" nType="0">
            <Node pos="l" depth="3" NCoef="0" IVar="-1" Cut="0.0000000000000000e+00" cType="1" res="-4.3689892627298832e-03" rms="4.4116657972335815e-01" purity="3.4246417880058289e-01" nType="-99"/>
            <Node pos="r" depth="3" NCoef="0" IVar="-1" Cut="0.0000000000000000e+00" cType="1" res="-2.6344440877437592e-02" rms="1.4717623591423035e-01" purity="2.2481156513094902e-02" nType="-99"/>
          </Node>
        </Node>
        <Node pos="r" depth="1" NCoef="0" IVar="3" Cut="3.3516561985015869e-01" cType="1" res="9.3233190476894379e-02" rms="3.4765991568565369e-01" purity="7.8830385208129883e-01" nType="0">
          <Node pos="l" depth="2" NCoef="0" IVar="1" Cut="8.8720872998237610e-02" cType="1" res="1.0714288800954819e-01" rms="3.4057208895683289e-01" purity="8.1783235073089600e-01" nType="0">
            <Node pos="l" depth="3" NCoef="0" IVar="-1" Cut="0.0000000000000000e+00" cType="1" res="1.6472546383738518e-02" rms="3.2655656337738037e-01" purity="8.5745072364807129e-01" nType="-99"/>
            <Node pos="r" depth="3" NCoef="0" IVar="-1" Cut="0.0000000000000000e+00" cType="1" res="-8.2459691911935806e-03" rms="4.2778167128562927e-01" purity="3.8651421666145325e-01" nType="-99"/>
          </Node>
          <Node pos="r" depth="2" NCoef="0" IVar="3" Cut="6.0304927825927734e-01" cType="1" res="-1.7423659563064575e-01" rms="3.7337312102317810e-01" purity="2.2050009667873383e-01" nType="0">
            <Node pos="l" depth="3" NCoef="0" IVar="-1" Cut="0.0000000000000000e+00" cType="1" res="-9.2411413788795471e-03" rms="4.5074203610420227e-01" purity="3.6931243538856506e-01" nType="-99"/>
            <Node pos="r" depth="3" NCoef="0" IVar="-1" Cut="0.0000000000000000e+00" cType="1" res="-3.1219905242323875e-02" rms="2.4845130741596222e-01" purity="7.4030771851539612e-02" nType="-99"/>
          </Node>
        </Node>
      </Node>
    </BinaryTree>
    <BinaryTree type="DecisionTree" boostWeight="1.0000000000000000e+00" itree="24">
      <Node pos="s" depth="0" NCoef="0" IVar="5" Cut="6.7695778608322144e-01" cType="1" res="5.1809835713356733e-04" rms="3.1132256984710693e-01" purity="5.0028777122497559e-01" nType="0">
        <Node pos="l" depth="1" NCoef="0" IVar="5" Cut="5.3102308511734009e-01" cType="1" res="-1.1603200435638428e-01" rms="2.4775096774101257e-01" purity="1.3526785373687744e-01" nType="0">
          <Node pos="l" depth="2" NCoef="0" IVar="1" Cut="6.4951583743095398e-02" cType="1" res="-1.4840221405029297e-01" rms="1.4499233663082123e-01" purity="2.8136929497122765e-02" nType="0">
            <Node pos="l" depth="3" NCoef="0" IVar="-1" Cut="0.0000000000000000e+00" cType="1" res="-1.8247293308377266e-02" rms="2.6092901825904846e-01" purity="1.0176567733287811e-01" nType="-99"/>
            <Node pos="r" depth="3" NCoef="0" IVar="-1" Cut="0.0000000000000000e+00" cType="1" res="-2.8060602024197578e-02" rms="1.0588929057121277e-01" purity="1.3153995387256145e-02" nType="-99"/>
          </Node>
          <Node pos="r" depth="2" NCoef="0" IVar="0" Cut="5.1483880728483200e-02" cType="1" res="-2.6969624683260918e-02" rms="4.0200072526931763e-01" purity="4.3002462387084961e-01" nType="0">
            <Node pos="l" depth="3" NCoef="0" IVar="-1" Cut="0.0000000000000000e+00" cType="1" res="3.7091532722115517e-03" rms="4.4509708881378174e-01" purity="6.2371319532394409e-01" nType="-99"/>
            <Node pos="r" depth="3" NCoef="0" IVar="-1" Cut="0.0000000000000000e+00" cType="1" res="-1.8372181802988052e-02" rms="2.9341992735862732e-01" purity="1.1266846209764481e-01" nType="-99"/>
          </Node>
        </Node>
        <Node pos="r" depth="1" NCoef="0" IVar="3" Cut="1.0773180425167084e-01" cType="1" res="1.1226505786180496e-01" rms="3.2478722929954529e-01" purity="8.5026478767395020e-01" nType="0">
          <Node pos="l" depth="2" NCoef="0" IVar="1" Cut="2.3250694572925568e-01" cType="1" res="1.3247875869274139e-01" rms="2.9521867632865906e-01" purity="8.8639050722122192e-01" nType="0">
            <Node pos="l" depth="3" NCoef="0" IVar="-1" Cut="0.0000000000000000e+00" cType="1" res="1.9588412716984749e-02" rms="2.8643324971199036e-01" purity="9.0373206138610840e-01" nType="-99"/>
            <Node pos="r" depth="3" NCoef="0" IVar="-1" Cut="0.0000000000000000e+00" cType="1" res="-1.3938593678176403e-02" rms="4.4157266616821289e-01" purity="2.8454628586769104e-01" nType="-99"/>
          </Node>
          <Node pos="r" depth="2" NCoef="0" IVar="3" Cut="5.3852087259292603e-01" cType="1" res="4.6804714947938919e-03" rms="4.3509843945503235e-01" purity="6.5799051523208618e-01" nType="0">
            <Node pos="l" depth="3" NCoef="0" IVar="-1" Cut="0.0000000000000000e+00" cType="1" res="3.1097366008907557e-03" rms="4.3476557731628418e-01" purity="6.9986814260482788e-01" nType="-99"/>
            <Node pos="r" depth="3" NCoef="0" IVar="-1" Cut="0.0000000000000000e+00" cType="1" res="-2.6072509586811066e-02" rms="3.5388708114624023e-01" purity="1.6818635165691376e-01" nType="-99"/>
          </Node>
        </Node>
      </Node>
    </BinaryTree>
    <BinaryTree type="DecisionTree" boostWeight="1.0000000000000000e+00" itree="25">
      <Node pos="s" depth="0" NCoef="0" IVar="0" Cut="6.4061887562274933e-02" cType="1" res="-1.5105472994036973e-04" rms="3.1050717830657959e-01" purity="5.0134915113449097e-01" nType="0">
        <Node pos="l" depth="1" NCoef="0" IVar="1" Cut="7.4342489242553711e-02" cType="1" res="8.3073891699314117e-02" rms="3.4885421395301819e-01" purity="7.8298139572143555e-01" nType="0">
          <Node pos="l" depth="2" NCoef="0" IVar="2" Cut="-4.9476532936096191e+00" cType="1" res="1.0872827470302582e-01" rms="3.3228567242622375e-01" purity="8.4576719999313354e-01" nType="0">
            <Node pos="l" depth="3" NCoef="0" IVar="-1" Cut="0.0000000000000000e+00" cType="1" res="1.8046647310256958e-02" rms="3.0741810798645020e-01" purity="8.8319009542465210e-01" nType="-99"/>
            <Node pos="r" depth="3" NCoef="0" IVar="-1" Cut="0.0000000000000000e+00" cType="1" res="-2.5747176259756088e-03" rms="4.3433153629302979e-01" purity="6.1536604166030884e-01" nType="-99"/>
          </Node>
          <Node pos="r" depth="2" NCoef="0" IVar="3" Cut="2.5536426901817322e-01" cType="1" res="-9.5649071037769318e-02" rms="4.0471410751342773e-01" purity="3.4558004140853882e-01" nType="0">
            <Node pos="l" depth="3" NCoef="0" IVar="-1" Cut="0.0000000000000000e+00" cType="1" res="-6.2560033984482288e-03" rms="4.4121190905570984e-01" purity="4.3786698579788208e-01" nType="-99"/>
            <Node pos="r" depth="3" NCoef="0" IVar="-1" Cut="0.0000000000000000e+00" cType="1" res="-2.9340591281652451e-02" rms="2.1062968671321869e-01" purity="5.1613669842481613e-02" nType="-99"/>
          </Node>
        </Node>
        <Node pos="r" depth="1" NCoef="0" IVar="5" Cut="7.5876128673553467e-01" cType="1" res="-1.3786278665065765e-01" rms="1.5540583431720734e-01" purity="3.5334315150976181e-02" nType="0">
          <Node pos="l" depth="2" NCoef="0" IVar="0" Cut="9.5974974334239960e-02" cType="1" res="-1.4058823883533478e-01" rms="1.4307871460914612e-01" purity="2.7080027386546135e-02" nType="0">
            <Node pos="l" depth="3" NCoef="0" IVar="-1" Cut="0.0000000000000000e+00" cType="1" res="-1.1019494384527206e-02" rms="3.7269696593284607e-01" purity="2.3611427843570709e-01" nType="-99"/>
            <Node pos="r" depth="3" NCoef="0" IVar="-1" Cut="0.0000000000000000e+00" cType="1" res="-2.6977842673659325e-02" rms="1.2242484092712402e-01" purity="1.7665430903434753e-02" nType="-99"/>
          </Node>
          <Node pos="r" depth="2" NCoef="0" IVar="-1" Cut="0.0000000000000000e+00" cType="1" res="3.4943496575579047e-04" rms="4.4069436192512512e-01" purity="4.6228384971618652e-01" nType="-99"/>
        </Node>
      </Node>
    </BinaryTree>
    <BinaryTree type="DecisionTree" boostWeight="1.0000000000000000e+00" itree="26">
      <Node pos="s" depth="0" NCoef="0" IVar="0" Cut="3.8604348897933960e-02" cType="1" res="4.6629027929157019e-04" rms="3.0676615238189697e-01" purity="5.0110441446304321e-01" nType="0">
        <Node pos="l" depth="1" NCoef="0" IVar="1" Cut="1.4829701185226440e-01" cType="1" res="8.6011722683906555e-02" rms="3.4238830208778381e-01" purity="7.9721158742904663e-01" nType="0">
          <Node pos="l" depth="2" NCoef="0" IVar="2" Cut="-4.8371949195861816e+00" cType="1" res="1.0345494747161865e-01" rms="3.3180776238441467e-01" purity="8.4282022714614868e-01" nType="0">
            <Node pos="l" depth="3" NCoef="0" IVar="-1" Cut="0.0000000000000000e+00" cType="1" res="1.7251910641789436e-02" rms="3.0893424153327942e-01" purity="8.7925964593887329e-01" nType="-99"/>
            <Node pos="r" depth="3" NCoef="0" IVar="-1" Cut="0.0000000000000000e+00" cType="1" res="-3.8789114914834499e-03" rms="4.3805766105651855e-01" purity="5.8667308092117310e-01" nType="-99"/>
          </Node>
          <Node pos="r" depth="2" NCoef="0" IVar="1" Cut="9.8973542451858521e-01" cType="1" res="-1.2412195652723312e-01" rms="3.9413425326347351e-01" purity="2.4777726829051971e-01" nType="0">
            <Node pos="l" depth="3" NCoef="0" IVar="-1" Cut="0.0000000000000000e+00" cType="1" res="-1.1213151738047600e-02" rms="4.0769946575164795e-01" purity="2.8277865052223206e-01" nType="-99"/>
            <Node pos="r" depth="3" NCoef="0" IVar="-1" Cut="0.0000000000000000e+00" cType="1" res="-2.7152085676789284e-02" rms="3.1505945324897766e-01" purity="1.0995391756296158e-01" nType="-99"/>
          </Node>
        </Node>
        <Node pos="r" depth="1" NCoef="0" IVar="5" Cut="7.4293452501296997e-01" cType="1" res="-1.2574593722820282e-01" rms="1.8237845599651337e-01" purity="6.4232990145683289e-02" nType="0">
          <Node pos="l" depth="2" NCoef="0" IVar="1" Cut="4.1971504688262939e-02" cType="1" res="-1.3186481595039368e-01" rms="1.6069561243057251e-01" purity="3.9598181843757629e-02" nType="0">
            <Node pos="l" depth="3" NCoef="0" IVar="-1" Cut="0.0000000000000000e+00" cType="1" res="-1.5374682843685150e-02" rms="2.9867276549339294e-01" purity="1.5649656951427460e-01" nType="-99"/>
            <Node pos="r" depth="3" NCoef="0" IVar="-1" Cut="0.0000000000000000e+00" cType="1" res="-2.7396142482757568e-02" rms="1.0641524195671082e-01" purity="1.3403924182057381e-02" nType="-99"/>
          </Node>
          <Node pos="r" depth="2" NCoef="0" IVar="4" Cut="6.8023953437805176e+00" cType="1" res="6.4943982288241386e-03" rms="4.1920435428619385e-01" purity="5.9663760662078857e-01" nType="0">
            <Node pos="l" depth="3" NCoef="0" IVar="-1" Cut="0.0000000000000000e+00" cType="1" res="7.1512591093778610e-03" rms="4.0801224112510681e-01" purity="6.8493813276290894e-01" nType="-99"/>
            <Node pos="r" depth="3" NCoef="0" IVar="-1" Cut="0.0000000000000000e+00" cType="1" res="-1.0760169476270676e-02" rms="4.2227199673652649e-01" purity="4.3956884741783142e-01" nType="-99"/>
          </Node>
        </Node>
      </Node>
    </BinaryTree>
    <BinaryTree type="DecisionTree" boostWeight="1.0000000000000000e+00" itree="27">
      <Node pos="s" depth="0" NCoef="0" IVar="5" Cut="6.7695778608322144e-01" cType="1" res="-1.5579872997477651e-03" rms="3.0565923452377319e-01" purity="4.9844121932983398e-01" nType="0">
        <Node pos="l" depth="1" NCoef="0" IVar="5" Cut="5.3102511167526245e-01" cType="1" res="-1.0106531530618668e-01" rms="2.4526923894882202e-01" purity="1.3608360290527344e-01" nType="0">
          <Node pos="l" depth="2" NCoef="0" IVar="5" Cut="4.4939514994621277e-01" cType="1" res="-1.2902213633060455e-01" rms="1.4547100663185120e-01" purity="2.8737960383296013e-02" nType="0">
            <Node pos="l" depth="3" NCoef="0" IVar="-1" Cut="0.0000000000000000e+00" cType="1" res="-2.7278998866677284e-02" rms="1.0104588419198990e-01" purity="1.1827046982944012e-02" nType="-99"/>
            <Node pos="r" depth="3" NCoef="0" IVar="-1" Cut="0.0000000000000000e+00" cType="1" res="-1.6976168379187584e-02" rms="2.6473280787467957e-01" purity="1.0541628301143646e-01" nType="-99"/>
          </Node>
          <Node pos="r" depth="2" NCoef="0" IVar="3" Cut="4.5087754726409912e-01" cType="1" res="-2.4399174377322197e-02" rms="3.9883911609649658e-01" purity="4.3045803904533386e-01" nType="0">
            <Node pos="l" depth="3" NCoef="0" IVar="-1" Cut="0.0000000000000000e+00" cType="1" res="5.2504334598779678e-04" rms="4.1416686773300171e-01" purity="4.9191641807556152e-01" nType="-99"/>
            <Node pos="r" depth="3" NCoef="0" IVar="-1" Cut="0.0000000000000000e+00" cType="1" res="-2.7961211279034615e-02" rms="2.2046205401420593e-01" purity="5.8340623974800110e-02" nType="-99"/>
          </Node>
        </Node>
        <Node pos="r" depth="1" NCoef="0" IVar="3" Cut="9.1771535575389862e-02" cType="1" res="9.3755796551704407e-02" rms="3.2669076323509216e-01" purity="8.4552806615829468e-01" nType="0">
          <Node pos="l" depth="2" NCoef="0" IVar="1" Cut="2.1257777512073517e-01" cType="1" res="1.1765023320913315e-01" rms="2.9167801141738892e-01" purity="8.8640087842941284e-01" nType="0">
            <Node pos="l" depth="3" NCoef="0" IVar="-1" Cut="0.0000000000000000e+00" cType="1" res="1.8532302230596542e-02" rms="2.8245553374290466e-01" purity="9.0609169006347656e-01" nType="-99"/>
            <Node pos="r" depth="3" NCoef="0" IVar="-1" Cut="0.0000000000000000e+00" cType="1" res="-1.3246434740722179e-02" rms="4.3668368458747864e-01" purity="2.7780041098594666e-01" nType="-99"/>
          </Node>
          <Node pos="r" depth="2" NCoef="0" IVar="3" Cut="3.3457890152931213e-01" cType="1" res="5.5860960856080055e-03" rms="4.2040097713470459e-01" purity="6.9470864534378052e-01" nType="0">
            <Node pos="l" depth="3" NCoef="0" IVar="-1" Cut="0.0000000000000000e+00" cType="1" res="3.9124763570725918e-03" rms="4.1336548328399658e-01" purity="7.5497055053710938e-01" nType="-99"/>
            <Node pos="r" depth="3" NCoef="0" IVar="-1" Cut="0.0000000000000000e+00" cType="1" res="-1.5707526355981827e-02" rms="4.3164965510368347e-01" purity="3.1020650267601013e-01" nType="-99"/>
          </Node>
        </Node>
      </Node>
    </BinaryTree>
    <BinaryTree type="DecisionTree" boostWeight="1.0000000000000000e+00" itree="28">
      <Node pos="s" depth="0" NCoef="0" IVar="0" Cut="3.2030943781137466e-02" cType="1" res="1.7675792332738638e-04" rms="3.0333581566810608e-01" purity="5.0091284513473511e-01" nType="0">
        <Node pos="l" depth="1" NCoef="0" IVar="3" Cut="2.2942884266376495e-01" cType="1" res="7.9129874706268311e-02" rms="3.4141573309898376e-01" purity="7.9894608259201050e-01" nType="0">
          <Node pos="l" depth="2" NCoef="0" IVar="1" Cut="2.1472236514091492e-01" cType="1" res="9.5229014754295349e-02" rms="3.3022859692573547e-01" purity="8.4072077274322510e-01" nType="0">
            <Node pos="l" depth="3" NCoef="0" IVar="-1" Cut="0.0000000000000000e+00" cType="1" res="1.5162708237767220e-02" rms="3.2087478041648865e-01" purity="8.6854541301727295e-01" nType="-99"/>
            <Node pos="r" depth="3" NCoef="0" IVar="-1" Cut="0.0000000000000000e+00" cType="1" res="-1.1946787126362324e-02" rms="4.3400239944458008e-01" purity="2.8001070022583008e-01" nType="-99"/>
          </Node>
          <Node pos="r" depth="2" NCoef="0" IVar="3" Cut="5.9836381673812866e-01" cType="1" res="-1.0578377544879913e-01" rms="4.0705952048301697e-01" purity="3.1912490725517273e-01" nType="0">
            <Node pos="l" depth="3" NCoef="0" IVar="-1" Cut="0.0000000000000000e+00" cType="1" res="-4.7369697131216526e-03" rms="4.5771920680999756e-01" purity="4.4482994079589844e-01" nType="-99"/>
            <Node pos="r" depth="3" NCoef="0" IVar="-1" Cut="0.0000000000000000e+00" cType="1" res="-2.8615208342671394e-02" rms="2.4185280501842499e-01" purity="7.4503466486930847e-02" nType="-99"/>
          </Node>
        </Node>
        <Node pos="r" depth="1" NCoef="0" IVar="0" Cut="9.5969177782535553e-02" cType="1" res="-1.1200414597988129e-01" rms="1.8890762329101562e-01" purity="7.7450983226299286e-02" nType="0">
          <Node pos="l" depth="2" NCoef="0" IVar="1" Cut="2.8316408395767212e-02" cType="1" res="-3.1608272343873978e-02" rms="3.9234367012977600e-01" purity="4.5241329073905945e-01" nType="0">
            <Node pos="l" depth="3" NCoef="0" IVar="-1" Cut="0.0000000000000000e+00" cType="1" res="5.1040863618254662e-03" rms="4.2085143923759460e-01" purity="6.5563994646072388e-01" nType="-99"/>
            <Node pos="r" depth="3" NCoef="0" IVar="-1" Cut="0.0000000000000000e+00" cType="1" res="-1.7688808962702751e-02" rms="3.2672616839408875e-01" purity="1.8150493502616882e-01" nType="-99"/>
          </Node>
          <Node pos="r" depth="2" NCoef="0" IVar="0" Cut="1.9148889183998108e-01" cType="1" res="-1.2416605651378632e-01" rms="1.2912197411060333e-01" purity="2.0728416740894318e-02" nType="0">
            <Node pos="l" depth="3" NCoef="0" IVar="-1" Cut="0.0000000000000000e+00" cType="1" res="-1.6459649428725243e-02" rms="2.8045496344566345e-01" purity="1.1100620776414871e-01" nType="-99"/>
            <Node pos="r" depth="3" NCoef="0" IVar="-1" Cut="0.0000000000000000e+00" cType="1" res="-2.7187407016754150e-02" rms="9.4972468912601471e-02" purity="9.6979318186640739e-03" nType="-99"/>
          </Node>
        </Node>
      </Node>
    </BinaryTree>
    <BinaryTree type="DecisionTree" boostWeight="1.0000000000000000e+00" itree="29">
      <Node pos="s" depth="0" NCoef="0" IVar="0" Cut="5.3798947483301163e-02" cType="1" res="-1.2635303428396583e-03" rms="3.0108991265296936e-01" purity="4.9760904908180237e-01" nType="0">
        <Node pos="l" depth="1" NCoef="0" IVar="3" Cut="3.8304641842842102e-01" cType="1" res="7.0454597473144531e-02" rms="3.4434783458709717e-01" purity="7.8764510154724121e-01" nType="0">
          <Node pos="l" depth="2" NCoef="0" IVar="1" Cut="2.2302746772766113e-01" cType="1" res="8.3046920597553253e-02" rms="3.4055498242378235e-01" purity="8.2038277387619019e-01" nType="0">
            <Node pos="l" depth="3" NCoef="0" IVar="-1" Cut="0.0000000000000000e+00" cType="1" res="1.3563618995249271e-02" rms="3.3256432414054871e-01" purity="8.5217553377151489e-01" nType="-99"/>
            <Node pos="r" depth="3" NCoef="0" IVar="-1" Cut="0.0000000000000000e+00" cType="1" res="-1.4136999845504761e-02" rms="4.1098335385322571e-01" purity="2.3987619578838348e-01" nType="-99"/>
          </Node>
          <Node pos="r" depth="2" NCoef="0" IVar="2" Cut="-5.1840739250183105e+00" cType="1" res="-1.7023752629756927e-01" rms="3.2751390337944031e-01" purity="1.6189201176166534e-01" nType="0">
            <Node pos="l" depth="3" NCoef="0" IVar="-1" Cut="0.0000000000000000e+00" cType="1" res="-7.4681118130683899e-03" rms="4.2512542009353638e-01" purity="3.3249503374099731e-01" nType="-99"/>
            <Node pos="r" depth="3" NCoef="0" IVar="-1" Cut="0.0000000000000000e+00" cType="1" res="-2.7651896700263023e-02" rms="2.5901484489440918e-01" purity="8.4899939596652985e-02" nType="-99"/>
          </Node>
        </Node>
        <Node pos="r" depth="1" NCoef="0" IVar="0" Cut="1.0740377008914948e-01" cType="1" res="-1.1380915343761444e-01" rms="1.6156227886676788e-01" purity="4.2462054640054703e-02" nType="0">
          <Node pos="l" depth="2" NCoef="0" IVar="2" Cut="-5.4038124084472656e+00" cType="1" res="-5.3146809339523315e-02" rms="3.8067880272865295e-01" purity="3.1363597512245178e-01" nType="0">
            <Node pos="l" depth="3" NCoef="0" IVar="-1" Cut="0.0000000000000000e+00" cType="1" res="3.1693812925368547e-03" rms="4.1692635416984558e-01" purity="4.6018782258033752e-01" nType="-99"/>
            <Node pos="r" depth="3" NCoef="0" IVar="-1" Cut="0.0000000000000000e+00" cType="1" res="-1.9948009401559830e-02" rms="3.1262522935867310e-01" purity="1.4884635806083679e-01" nType="-99"/>
          </Node>
          <Node pos="r" depth="2" NCoef="0" IVar="5" Cut="6.5483480691909790e-01" cType="1" res="-1.1942549049854279e-01" rms="1.2136685848236084e-01" purity="1.7355831339955330e-02" nType="0">
            <Node pos="l" depth="3" NCoef="0" IVar="-1" Cut="0.0000000000000000e+00" cType="1" res="-2.6444954797625542e-02" rms="9.8569370806217194e-02" purity="1.0434271767735481e-02" nType="-99"/>
            <Node pos="r" depth="3" NCoef="0" IVar="-1" Cut="0.0000000000000000e+00" cType="1" res="-1.8290420994162560e-02" rms="3.5725450515747070e-01" purity="1.7447814345359802e-01" nType="-99"/>
          </Node>
        </Node>
      </Node>
    </BinaryTree>
    <BinaryTree type="DecisionTree" boostWeight="1.0000000000000000e+00" itree="30">
