<?xml version="1.0"?>
<MethodSetup Method="BDT::BDT">
  <GeneralInfo>
    <Info name="TMVA Release" value="4.2.1 [262657]"/>
    <Info name="ROOT Release" value="6.12/07 [396295]"/>
    <Info name="Creator" value="srudrabh"/>
    <Info name="Date" value="Wed Oct  7 06:38:27 2020"/>
    <Info name="Host" value="Linux cmsbuild66.cern.ch 2.6.32-696.30.1.el6.x86_64 #1 SMP Tue May 22 06:09:36 CEST 2018 x86_64 x86_64 x86_64 GNU/Linux"/>
    <Info name="Dir" value="/afs/cern.ch/work/s/srudrabh/ZH3l/CMSSW_10_2_0/src/LeptonMVA"/>
    <Info name="Training events" value="1121377"/>
    <Info name="TrainingTime" value="3.03299982e+02"/>
    <Info name="AnalysisType" value="Classification"/>
  </GeneralInfo>
  <Options>
    <Option name="V" modified="Yes">False</Option>
    <Option name="VerbosityLevel" modified="No">Default</Option>
    <Option name="VarTransform" modified="No">None</Option>
    <Option name="H" modified="Yes">False</Option>
    <Option name="CreateMVAPdfs" modified="No">False</Option>
    <Option name="IgnoreNegWeightsInTraining" modified="No">False</Option>
    <Option name="NTrees" modified="Yes">500</Option>
    <Option name="MaxDepth" modified="Yes">3</Option>
    <Option name="MinNodeSize" modified="Yes">0.5%</Option>
    <Option name="nCuts" modified="Yes">500</Option>
    <Option name="BoostType" modified="Yes">AdaBoost</Option>
    <Option name="AdaBoostR2Loss" modified="No">quadratic</Option>
    <Option name="UseBaggedBoost" modified="No">False</Option>
    <Option name="Shrinkage" modified="No">1.000000e+00</Option>
    <Option name="AdaBoostBeta" modified="Yes">1.000000e-01</Option>
    <Option name="UseRandomisedTrees" modified="No">False</Option>
    <Option name="UseNvars" modified="No">3</Option>
    <Option name="UsePoissonNvars" modified="No">True</Option>
    <Option name="BaggedSampleFraction" modified="No">6.000000e-01</Option>
    <Option name="UseYesNoLeaf" modified="No">True</Option>
    <Option name="NegWeightTreatment" modified="No">inverseboostnegweights</Option>
    <Option name="Css" modified="No">1.000000e+00</Option>
    <Option name="Cts_sb" modified="No">1.000000e+00</Option>
    <Option name="Ctb_ss" modified="No">1.000000e+00</Option>
    <Option name="Cbb" modified="No">1.000000e+00</Option>
    <Option name="NodePurityLimit" modified="No">5.000000e-01</Option>
    <Option name="SeparationType" modified="Yes">giniindex</Option>
    <Option name="RegressionLossFunctionBDTG" modified="No">huber</Option>
    <Option name="HuberQuantile" modified="No">7.000000e-01</Option>
    <Option name="DoBoostMonitor" modified="No">False</Option>
    <Option name="UseFisherCuts" modified="No">False</Option>
    <Option name="MinLinCorrForFisher" modified="No">8.000000e-01</Option>
    <Option name="UseExclusiveVars" modified="No">False</Option>
    <Option name="DoPreselection" modified="No">False</Option>
    <Option name="SigToBkgFraction" modified="No">1.000000e+00</Option>
    <Option name="PruneMethod" modified="No">nopruning</Option>
    <Option name="PruneStrength" modified="No">0.000000e+00</Option>
    <Option name="PruningValFraction" modified="No">5.000000e-01</Option>
    <Option name="SkipNormalization" modified="No">False</Option>
    <Option name="nEventsMin" modified="No">0</Option>
    <Option name="UseBaggedGrad" modified="No">False</Option>
    <Option name="GradBaggingFraction" modified="No">6.000000e-01</Option>
    <Option name="UseNTrainEvents" modified="No">0</Option>
    <Option name="NNodesMax" modified="No">0</Option>
  </Options>
  <Variables NVar="11">
    <Variable VarIndex="0" Expression="Electron_pt" Label="Electron_pt" Title="Electron_pt" Unit="F" Internal="Electron_pt" Type="F" Min="1.50000029e+01" Max="9.43002808e+02"/>
    <Variable VarIndex="1" Expression="Electron_eta" Label="Electron_eta" Title="Electron_eta" Unit="F" Internal="Electron_eta" Type="F" Min="-3.09716797e+00" Max="2.93896484e+00"/>
    <Variable VarIndex="2" Expression="Electron_miniPFRelIso_chg" Label="Electron_miniPFRelIso_chg" Title="Electron_miniPFRelIso_chg" Unit="F" Internal="Electron_miniPFRelIso_chg" Type="F" Min="0.00000000e+00" Max="1.93407784e+01"/>
    <Variable VarIndex="3" Expression="Electron_miniPFRelIso_all-Electron_miniPFRelIso_chg" Label="Electron_miniPFRelIso_neu" Title="Electron_miniPFRelIso_neu" Unit="F" Internal="Electron_miniPFRelIso_neu" Type="F" Min="0.00000000e+00" Max="2.10277233e+01"/>
    <Variable VarIndex="4" Expression="log(abs(Electron_dxy))" Label="Electron_dxy" Title="Electron_dxy" Unit="F" Internal="Electron_dxy" Type="F" Min="-1.87149734e+01" Max="3.65228033e+00"/>
    <Variable VarIndex="5" Expression="log(abs(Electron_dz))" Label="Electron_dz" Title="Electron_dz" Unit="F" Internal="Electron_dz" Type="F" Min="-2.10834007e+01" Max="5.16120815e+00"/>
    <Variable VarIndex="6" Expression="Electron_sip3d" Label="Electron_sip3d" Title="Electron_sip3d" Unit="F" Internal="Electron_sip3d" Type="F" Min="1.40666962e-03" Max="1.34320000e+04"/>
    <Variable VarIndex="7" Expression="Electron_mvaFall17V1Iso_WP90" Label="Electron_mvaFall17V1Iso_WP90" Title="Electron_mvaFall17V1Iso_WP90" Unit="F" Internal="Electron_mvaFall17V1Iso_WP90" Type="F" Min="0.00000000e+00" Max="1.00000000e+00"/>
    <Variable VarIndex="8" Expression="(Electron_jetIdx&gt;=0)*(Jet_btagDeepFlavB[max(Electron_jetIdx,0)])" Label="Jet_btagDeepFlavB" Title="Jet_btagDeepFlavB" Unit="F" Internal="Jet_btagDeepFlavB" Type="F" Min="0.00000000e+00" Max="9.99511719e-01"/>
    <Variable VarIndex="9" Expression="(Electron_jetIdx&gt;=0)*(Electron_jetPtRelv2)" Label="Electron_jetPtRelv2" Title="Electron_jetPtRelv2" Unit="F" Internal="Electron_jetPtRelv2" Type="F" Min="0.00000000e+00" Max="1.55200000e+03"/>
    <Variable VarIndex="10" Expression="(Electron_jetIdx==-1)*((1)/(1+(Electron_miniPFRelIso_all)))+(Electron_jetIdx&gt;=0)*((Electron_pt)/(Jet_pt[max(Electron_jetIdx,0)]))" Label="Electron_jetPtRatio" Title="Electron_jetPtRatio" Unit="F" Internal="Electron_jetPtRatio" Type="F" Min="0.00000000e+00" Max="7.51784325e+00"/>
  </Variables>
  <Spectators NSpec="0"/>
  <Classes NClass="2">
    <Class Name="Signal" Index="0"/>
    <Class Name="Background" Index="1"/>
  </Classes>
  <Transformations NTransformations="0"/>
  <MVAPdfs/>
  <Weights NTrees="500" AnalysisType="0">
    <BinaryTree type="DecisionTree" boostWeight="2.1867338358736760e-01" itree="0">
      <Node pos="s" depth="0" NCoef="0" IVar="7" Cut="1.9960079807788134e-03" cType="0" res="-9.9000000000000000e+01" rms="0.0000000000000000e+00" purity="5.0000000000000000e-01" nType="0">
        <Node pos="l" depth="1" NCoef="0" IVar="8" Cut="2.2942884266376495e-01" cType="1" res="-9.9000000000000000e+01" rms="0.0000000000000000e+00" purity="8.8823264837265015e-01" nType="0">
          <Node pos="l" depth="2" NCoef="0" IVar="-1" Cut="2.4857685089111328e+01" cType="0" res="-9.9000000000000000e+01" rms="0.0000000000000000e+00" purity="9.1302907466888428e-01" nType="1"/>
          <Node pos="r" depth="2" NCoef="0" IVar="8" Cut="6.0143774747848511e-01" cType="1" res="-9.9000000000000000e+01" rms="0.0000000000000000e+00" purity="4.7965678572654724e-01" nType="0">
            <Node pos="l" depth="3" NCoef="0" IVar="-1" Cut="0.0000000000000000e+00" cType="1" res="-9.9000000000000000e+01" rms="0.0000000000000000e+00" purity="5.7809388637542725e-01" nType="1"/>
            <Node pos="r" depth="3" NCoef="0" IVar="-1" Cut="0.0000000000000000e+00" cType="1" res="-9.9000000000000000e+01" rms="0.0000000000000000e+00" purity="1.5302892029285431e-01" nType="-1"/>
          </Node>
        </Node>
        <Node pos="r" depth="1" NCoef="0" IVar="10" Cut="6.4393544197082520e-01" cType="0" res="-9.9000000000000000e+01" rms="0.0000000000000000e+00" purity="1.3882850110530853e-01" nType="0">
          <Node pos="l" depth="2" NCoef="0" IVar="2" Cut="6.0134429484605789e-02" cType="1" res="-9.9000000000000000e+01" rms="0.0000000000000000e+00" purity="5.2975898981094360e-01" nType="0">
            <Node pos="l" depth="3" NCoef="0" IVar="-1" Cut="0.0000000000000000e+00" cType="1" res="-9.9000000000000000e+01" rms="0.0000000000000000e+00" purity="6.1939108371734619e-01" nType="1"/>
            <Node pos="r" depth="3" NCoef="0" IVar="-1" Cut="0.0000000000000000e+00" cType="1" res="-9.9000000000000000e+01" rms="0.0000000000000000e+00" purity="1.7558197677135468e-01" nType="-1"/>
          </Node>
          <Node pos="r" depth="2" NCoef="0" IVar="-1" Cut="3.8604348897933960e-02" cType="1" res="-9.9000000000000000e+01" rms="0.0000000000000000e+00" purity="3.6958754062652588e-02" nType="-1"/>
        </Node>
      </Node>
    </BinaryTree>
    <BinaryTree type="DecisionTree" boostWeight="1.9717167887822154e-01" itree="1">
      <Node pos="s" depth="0" NCoef="0" IVar="7" Cut="1.9960079807788134e-03" cType="0" res="-9.9000000000000000e+01" rms="0.0000000000000000e+00" purity="4.9272206425666809e-01" nType="0">
        <Node pos="l" depth="1" NCoef="0" IVar="8" Cut="1.5760762989521027e-01" cType="1" res="-9.9000000000000000e+01" rms="0.0000000000000000e+00" purity="8.6699175834655762e-01" nType="0">
          <Node pos="l" depth="2" NCoef="0" IVar="-1" Cut="2.6265985488891602e+01" cType="0" res="-9.9000000000000000e+01" rms="0.0000000000000000e+00" purity="9.0223866701126099e-01" nType="1"/>
          <Node pos="r" depth="2" NCoef="0" IVar="8" Cut="4.5343589782714844e-01" cType="1" res="-9.9000000000000000e+01" rms="0.0000000000000000e+00" purity="5.4210859537124634e-01" nType="0">
            <Node pos="l" depth="3" NCoef="0" IVar="-1" Cut="0.0000000000000000e+00" cType="1" res="-9.9000000000000000e+01" rms="0.0000000000000000e+00" purity="6.2419420480728149e-01" nType="1"/>
            <Node pos="r" depth="3" NCoef="0" IVar="-1" Cut="0.0000000000000000e+00" cType="1" res="-9.9000000000000000e+01" rms="0.0000000000000000e+00" purity="2.6040878891944885e-01" nType="-1"/>
          </Node>
        </Node>
        <Node pos="r" depth="1" NCoef="0" IVar="10" Cut="6.1916869878768921e-01" cType="0" res="-9.9000000000000000e+01" rms="0.0000000000000000e+00" purity="1.4427974820137024e-01" nType="0">
          <Node pos="l" depth="2" NCoef="0" IVar="0" Cut="5.5750938415527344e+01" cType="1" res="-9.9000000000000000e+01" rms="0.0000000000000000e+00" purity="4.7496810555458069e-01" nType="0">
            <Node pos="l" depth="3" NCoef="0" IVar="-1" Cut="0.0000000000000000e+00" cType="1" res="-9.9000000000000000e+01" rms="0.0000000000000000e+00" purity="5.5746555328369141e-01" nType="1"/>
            <Node pos="r" depth="3" NCoef="0" IVar="-1" Cut="0.0000000000000000e+00" cType="1" res="-9.9000000000000000e+01" rms="0.0000000000000000e+00" purity="1.5813636779785156e-01" nType="-1"/>
          </Node>
          <Node pos="r" depth="2" NCoef="0" IVar="-1" Cut="3.8604348897933960e-02" cType="1" res="-9.9000000000000000e+01" rms="0.0000000000000000e+00" purity="3.7350527942180634e-02" nType="-1"/>
        </Node>
      </Node>
    </BinaryTree>
    <BinaryTree type="DecisionTree" boostWeight="1.8496180356898287e-01" itree="2">
      <Node pos="s" depth="0" NCoef="0" IVar="7" Cut="1.9960079807788134e-03" cType="0" res="-9.9000000000000000e+01" rms="0.0000000000000000e+00" purity="4.8450821638107300e-01" nType="0">
        <Node pos="l" depth="1" NCoef="0" IVar="8" Cut="1.4164736866950989e-01" cType="1" res="-9.9000000000000000e+01" rms="0.0000000000000000e+00" purity="8.4567981958389282e-01" nType="0">
          <Node pos="l" depth="2" NCoef="0" IVar="-1" Cut="2.6265985488891602e+01" cType="0" res="-9.9000000000000000e+01" rms="0.0000000000000000e+00" purity="8.8741767406463623e-01" nType="1"/>
          <Node pos="r" depth="2" NCoef="0" IVar="8" Cut="3.3519679307937622e-01" cType="1" res="-9.9000000000000000e+01" rms="0.0000000000000000e+00" purity="5.4430913925170898e-01" nType="0">
            <Node pos="l" depth="3" NCoef="0" IVar="-1" Cut="0.0000000000000000e+00" cType="1" res="-9.9000000000000000e+01" rms="0.0000000000000000e+00" purity="6.2711578607559204e-01" nType="1"/>
            <Node pos="r" depth="3" NCoef="0" IVar="-1" Cut="0.0000000000000000e+00" cType="1" res="-9.9000000000000000e+01" rms="0.0000000000000000e+00" purity="3.5859668254852295e-01" nType="-1"/>
          </Node>
        </Node>
        <Node pos="r" depth="1" NCoef="0" IVar="2" Cut="3.8604348897933960e-02" cType="1" res="-9.9000000000000000e+01" rms="0.0000000000000000e+00" purity="1.4822968840599060e-01" nType="0">
          <Node pos="l" depth="2" NCoef="0" IVar="3" Cut="1.1151373386383057e-01" cType="1" res="-9.9000000000000000e+01" rms="0.0000000000000000e+00" purity="4.3532967567443848e-01" nType="0">
            <Node pos="l" depth="3" NCoef="0" IVar="-1" Cut="0.0000000000000000e+00" cType="1" res="-9.9000000000000000e+01" rms="0.0000000000000000e+00" purity="5.5046010017395020e-01" nType="1"/>
            <Node pos="r" depth="3" NCoef="0" IVar="-1" Cut="0.0000000000000000e+00" cType="1" res="-9.9000000000000000e+01" rms="0.0000000000000000e+00" purity="1.9391775131225586e-01" nType="-1"/>
          </Node>
          <Node pos="r" depth="2" NCoef="0" IVar="-1" Cut="6.5686798095703125e-01" cType="0" res="-9.9000000000000000e+01" rms="0.0000000000000000e+00" purity="3.3021770417690277e-02" nType="-1"/>
        </Node>
      </Node>
    </BinaryTree>
    <BinaryTree type="DecisionTree" boostWeight="1.6747248529414799e-01" itree="3">
      <Node pos="s" depth="0" NCoef="0" IVar="7" Cut="1.9960079807788134e-03" cType="0" res="-9.9000000000000000e+01" rms="0.0000000000000000e+00" purity="4.7701922059059143e-01" nType="0">
        <Node pos="l" depth="1" NCoef="0" IVar="0" Cut="2.6265911102294922e+01" cType="0" res="-9.9000000000000000e+01" rms="0.0000000000000000e+00" purity="8.2434368133544922e-01" nType="0">
          <Node pos="l" depth="2" NCoef="0" IVar="-1" Cut="1.4164736866950989e-01" cType="1" res="-9.9000000000000000e+01" rms="0.0000000000000000e+00" purity="8.9329200983047485e-01" nType="1"/>
          <Node pos="r" depth="2" NCoef="0" IVar="8" Cut="2.1147353947162628e-01" cType="1" res="-9.9000000000000000e+01" rms="0.0000000000000000e+00" purity="6.1660802364349365e-01" nType="0">
            <Node pos="l" depth="3" NCoef="0" IVar="-1" Cut="0.0000000000000000e+00" cType="1" res="-9.9000000000000000e+01" rms="0.0000000000000000e+00" purity="6.7337137460708618e-01" nType="1"/>
            <Node pos="r" depth="3" NCoef="0" IVar="-1" Cut="0.0000000000000000e+00" cType="1" res="-9.9000000000000000e+01" rms="0.0000000000000000e+00" purity="3.6523941159248352e-01" nType="-1"/>
          </Node>
        </Node>
        <Node pos="r" depth="1" NCoef="0" IVar="-1" Cut="7.7208697795867920e-02" cType="1" res="-9.9000000000000000e+01" rms="0.0000000000000000e+00" purity="1.5266989171504974e-01" nType="-1"/>
      </Node>
    </BinaryTree>
    <BinaryTree type="DecisionTree" boostWeight="1.5022821254724616e-01" itree="4">
      <Node pos="s" depth="0" NCoef="0" IVar="2" Cut="7.7208697795867920e-02" cType="1" res="-9.9000000000000000e+01" rms="0.0000000000000000e+00" purity="4.7910529375076294e-01" nType="0">
        <Node pos="l" depth="1" NCoef="0" IVar="7" Cut="1.9960079807788134e-03" cType="0" res="-9.9000000000000000e+01" rms="0.0000000000000000e+00" purity="7.0558267831802368e-01" nType="0">
          <Node pos="l" depth="2" NCoef="0" IVar="-1" Cut="2.6265911102294922e+01" cType="0" res="-9.9000000000000000e+01" rms="0.0000000000000000e+00" purity="8.0914825201034546e-01" nType="1"/>
          <Node pos="r" depth="2" NCoef="0" IVar="8" Cut="2.5935435295104980e-01" cType="1" res="-9.9000000000000000e+01" rms="0.0000000000000000e+00" purity="4.3768686056137085e-01" nType="0">
            <Node pos="l" depth="3" NCoef="0" IVar="-1" Cut="0.0000000000000000e+00" cType="1" res="-9.9000000000000000e+01" rms="0.0000000000000000e+00" purity="5.0694835186004639e-01" nType="1"/>
            <Node pos="r" depth="3" NCoef="0" IVar="-1" Cut="0.0000000000000000e+00" cType="1" res="-9.9000000000000000e+01" rms="0.0000000000000000e+00" purity="1.0304021835327148e-01" nType="-1"/>
          </Node>
        </Node>
        <Node pos="r" depth="1" NCoef="0" IVar="10" Cut="5.8412551879882812e-01" cType="0" res="-9.9000000000000000e+01" rms="0.0000000000000000e+00" purity="4.1782647371292114e-02" nType="0">
          <Node pos="l" depth="2" NCoef="0" IVar="7" Cut="1.9960079807788134e-03" cType="0" res="-9.9000000000000000e+01" rms="0.0000000000000000e+00" purity="2.3115403950214386e-01" nType="0">
            <Node pos="l" depth="3" NCoef="0" IVar="-1" Cut="0.0000000000000000e+00" cType="1" res="-9.9000000000000000e+01" rms="0.0000000000000000e+00" purity="6.0598266124725342e-01" nType="1"/>
            <Node pos="r" depth="3" NCoef="0" IVar="-1" Cut="0.0000000000000000e+00" cType="1" res="-9.9000000000000000e+01" rms="0.0000000000000000e+00" purity="1.7630068957805634e-01" nType="-1"/>
          </Node>
          <Node pos="r" depth="2" NCoef="0" IVar="-1" Cut="5.0824648141860962e-01" cType="0" res="-9.9000000000000000e+01" rms="0.0000000000000000e+00" purity="1.5350792557001114e-02" nType="-1"/>
        </Node>
      </Node>
    </BinaryTree>
    <BinaryTree type="DecisionTree" boostWeight="1.4493704418642653e-01" itree="5">
      <Node pos="s" depth="0" NCoef="0" IVar="7" Cut="1.9960079807788134e-03" cType="0" res="-9.9000000000000000e+01" rms="0.0000000000000000e+00" purity="4.6761605143547058e-01" nType="0">
        <Node pos="l" depth="1" NCoef="0" IVar="0" Cut="2.6265911102294922e+01" cType="0" res="-9.9000000000000000e+01" rms="0.0000000000000000e+00" purity="7.7928537130355835e-01" nType="0">
          <Node pos="l" depth="2" NCoef="0" IVar="-1" Cut="1.1571193486452103e-01" cType="1" res="-9.9000000000000000e+01" rms="0.0000000000000000e+00" purity="8.5918831825256348e-01" nType="1"/>
          <Node pos="r" depth="2" NCoef="0" IVar="4" Cut="-5.1458449363708496e+00" cType="1" res="-9.9000000000000000e+01" rms="0.0000000000000000e+00" purity="5.5759078264236450e-01" nType="0">
            <Node pos="l" depth="3" NCoef="0" IVar="-1" Cut="0.0000000000000000e+00" cType="1" res="-9.9000000000000000e+01" rms="0.0000000000000000e+00" purity="6.0661441087722778e-01" nType="1"/>
            <Node pos="r" depth="3" NCoef="0" IVar="-1" Cut="0.0000000000000000e+00" cType="1" res="-9.9000000000000000e+01" rms="0.0000000000000000e+00" purity="3.6434319615364075e-01" nType="-1"/>
          </Node>
        </Node>
        <Node pos="r" depth="1" NCoef="0" IVar="-1" Cut="5.7789075374603271e-01" cType="0" res="-9.9000000000000000e+01" rms="0.0000000000000000e+00" purity="1.7501021921634674e-01" nType="-1"/>
      </Node>
    </BinaryTree>
    <BinaryTree type="DecisionTree" boostWeight="1.3415860375783095e-01" itree="6">
      <Node pos="s" depth="0" NCoef="0" IVar="10" Cut="5.8614635467529297e-01" cType="0" res="-9.9000000000000000e+01" rms="0.0000000000000000e+00" purity="4.6925657987594604e-01" nType="0">
        <Node pos="l" depth="1" NCoef="0" IVar="7" Cut="1.9960079807788134e-03" cType="0" res="-9.9000000000000000e+01" rms="0.0000000000000000e+00" purity="6.9113206863403320e-01" nType="0">
          <Node pos="l" depth="2" NCoef="0" IVar="-1" Cut="2.6265911102294922e+01" cType="0" res="-9.9000000000000000e+01" rms="0.0000000000000000e+00" purity="7.7352583408355713e-01" nType="1"/>
          <Node pos="r" depth="2" NCoef="0" IVar="2" Cut="1.0523525625467300e-01" cType="1" res="-9.9000000000000000e+01" rms="0.0000000000000000e+00" purity="4.7509524226188660e-01" nType="0">
            <Node pos="l" depth="3" NCoef="0" IVar="-1" Cut="0.0000000000000000e+00" cType="1" res="-9.9000000000000000e+01" rms="0.0000000000000000e+00" purity="5.3433239459991455e-01" nType="1"/>
            <Node pos="r" depth="3" NCoef="0" IVar="-1" Cut="0.0000000000000000e+00" cType="1" res="-9.9000000000000000e+01" rms="0.0000000000000000e+00" purity="1.8819475173950195e-01" nType="-1"/>
          </Node>
        </Node>
        <Node pos="r" depth="1" NCoef="0" IVar="-1" Cut="7.7208697795867920e-02" cType="1" res="-9.9000000000000000e+01" rms="0.0000000000000000e+00" purity="8.0984145402908325e-02" nType="-1"/>
      </Node>
    </BinaryTree>
    <BinaryTree type="DecisionTree" boostWeight="1.2642981586810520e-01" itree="7">
      <Node pos="s" depth="0" NCoef="0" IVar="2" Cut="7.7208697795867920e-02" cType="1" res="-9.9000000000000000e+01" rms="0.0000000000000000e+00" purity="4.6059197187423706e-01" nType="0">
        <Node pos="l" depth="1" NCoef="0" IVar="7" Cut="1.9960079807788134e-03" cType="0" res="-9.9000000000000000e+01" rms="0.0000000000000000e+00" purity="6.4998424053192139e-01" nType="0">
          <Node pos="l" depth="2" NCoef="0" IVar="-1" Cut="2.7674139022827148e+01" cType="0" res="-9.9000000000000000e+01" rms="0.0000000000000000e+00" purity="7.4183011054992676e-01" nType="1"/>
          <Node pos="r" depth="2" NCoef="0" IVar="3" Cut="7.4342489242553711e-02" cType="1" res="-9.9000000000000000e+01" rms="0.0000000000000000e+00" purity="4.3260630965232849e-01" nType="0">
            <Node pos="l" depth="3" NCoef="0" IVar="-1" Cut="0.0000000000000000e+00" cType="1" res="-9.9000000000000000e+01" rms="0.0000000000000000e+00" purity="5.3471624851226807e-01" nType="1"/>
            <Node pos="r" depth="3" NCoef="0" IVar="-1" Cut="0.0000000000000000e+00" cType="1" res="-9.9000000000000000e+01" rms="0.0000000000000000e+00" purity="2.5752565264701843e-01" nType="-1"/>
          </Node>
        </Node>
        <Node pos="r" depth="1" NCoef="0" IVar="-1" Cut="5.6957703828811646e-01" cType="0" res="-9.9000000000000000e+01" rms="0.0000000000000000e+00" purity="5.6571651250123978e-02" nType="-1"/>
      </Node>
    </BinaryTree>
    <BinaryTree type="DecisionTree" boostWeight="1.1398062599159760e-01" itree="8">
      <Node pos="s" depth="0" NCoef="0" IVar="10" Cut="5.6963521242141724e-01" cType="0" res="-9.9000000000000000e+01" rms="0.0000000000000000e+00" purity="4.5218926668167114e-01" nType="0">
        <Node pos="l" depth="1" NCoef="0" IVar="7" Cut="1.9960079807788134e-03" cType="0" res="-9.9000000000000000e+01" rms="0.0000000000000000e+00" purity="6.4028829336166382e-01" nType="0">
          <Node pos="l" depth="2" NCoef="0" IVar="-1" Cut="2.7674139022827148e+01" cType="0" res="-9.9000000000000000e+01" rms="0.0000000000000000e+00" purity="7.2386878728866577e-01" nType="1"/>
          <Node pos="r" depth="2" NCoef="0" IVar="-1" Cut="6.1307838439941406e+01" cType="1" res="-9.9000000000000000e+01" rms="0.0000000000000000e+00" purity="4.3893927335739136e-01" nType="-1"/>
        </Node>
        <Node pos="r" depth="1" NCoef="0" IVar="-1" Cut="7.7208697795867920e-02" cType="1" res="-9.9000000000000000e+01" rms="0.0000000000000000e+00" purity="8.1813685595989227e-02" nType="-1"/>
      </Node>
    </BinaryTree>
    <BinaryTree type="DecisionTree" boostWeight="1.1200156182786657e-01" itree="9">
      <Node pos="s" depth="0" NCoef="0" IVar="10" Cut="5.5312401056289673e-01" cType="0" res="-9.9000000000000000e+01" rms="0.0000000000000000e+00" purity="4.5258289575576782e-01" nType="0">
        <Node pos="l" depth="1" NCoef="0" IVar="8" Cut="1.1571193486452103e-01" cType="1" res="-9.9000000000000000e+01" rms="0.0000000000000000e+00" purity="6.2590682506561279e-01" nType="0">
          <Node pos="l" depth="2" NCoef="0" IVar="-1" Cut="1.9960079807788134e-03" cType="0" res="-9.9000000000000000e+01" rms="0.0000000000000000e+00" purity="6.9368773698806763e-01" nType="1"/>
          <Node pos="r" depth="2" NCoef="0" IVar="-1" Cut="5.2498227357864380e-01" cType="1" res="-9.9000000000000000e+01" rms="0.0000000000000000e+00" purity="3.8544833660125732e-01" nType="-1"/>
        </Node>
        <Node pos="r" depth="1" NCoef="0" IVar="-1" Cut="7.7208697795867920e-02" cType="1" res="-9.9000000000000000e+01" rms="0.0000000000000000e+00" purity="7.8132353723049164e-02" nType="-1"/>
      </Node>
    </BinaryTree>
    <BinaryTree type="DecisionTree" boostWeight="1.0545693839946035e-01" itree="10">
      <Node pos="s" depth="0" NCoef="0" IVar="2" Cut="1.1581304669380188e-01" cType="1" res="-9.9000000000000000e+01" rms="0.0000000000000000e+00" purity="4.4928050041198730e-01" nType="0">
        <Node pos="l" depth="1" NCoef="0" IVar="0" Cut="2.6113897323608398e+01" cType="0" res="-9.9000000000000000e+01" rms="0.0000000000000000e+00" purity="6.0343325138092041e-01" nType="0">
          <Node pos="l" depth="2" NCoef="0" IVar="7" Cut="1.9960079807788134e-03" cType="0" res="-9.9000000000000000e+01" rms="0.0000000000000000e+00" purity="6.9365674257278442e-01" nType="0">
            <Node pos="l" depth="3" NCoef="0" IVar="-1" Cut="0.0000000000000000e+00" cType="1" res="-9.9000000000000000e+01" rms="0.0000000000000000e+00" purity="7.7409672737121582e-01" nType="1"/>
            <Node pos="r" depth="3" NCoef="0" IVar="-1" Cut="0.0000000000000000e+00" cType="1" res="-9.9000000000000000e+01" rms="0.0000000000000000e+00" purity="4.9922683835029602e-01" nType="-1"/>
          </Node>
          <Node pos="r" depth="2" NCoef="0" IVar="5" Cut="-5.3809561729431152e+00" cType="1" res="-9.9000000000000000e+01" rms="0.0000000000000000e+00" purity="4.1137239336967468e-01" nType="0">
            <Node pos="l" depth="3" NCoef="0" IVar="-1" Cut="0.0000000000000000e+00" cType="1" res="-9.9000000000000000e+01" rms="0.0000000000000000e+00" purity="5.0382512807846069e-01" nType="1"/>
            <Node pos="r" depth="3" NCoef="0" IVar="-1" Cut="0.0000000000000000e+00" cType="1" res="-9.9000000000000000e+01" rms="0.0000000000000000e+00" purity="3.3869299292564392e-01" nType="-1"/>
          </Node>
        </Node>
        <Node pos="r" depth="1" NCoef="0" IVar="-1" Cut="5.4775428771972656e-01" cType="0" res="-9.9000000000000000e+01" rms="0.0000000000000000e+00" purity="5.1395718008279800e-02" nType="-1"/>
      </Node>
    </BinaryTree>
    <BinaryTree type="DecisionTree" boostWeight="1.0717798577618726e-01" itree="11">
      <Node pos="s" depth="0" NCoef="0" IVar="2" Cut="1.1581304669380188e-01" cType="1" res="-9.9000000000000000e+01" rms="0.0000000000000000e+00" purity="4.5075178146362305e-01" nType="0">
        <Node pos="l" depth="1" NCoef="0" IVar="0" Cut="2.7966197967529297e+01" cType="0" res="-9.9000000000000000e+01" rms="0.0000000000000000e+00" purity="5.9868830442428589e-01" nType="0">
          <Node pos="l" depth="2" NCoef="0" IVar="8" Cut="1.5960267186164856e-01" cType="1" res="-9.9000000000000000e+01" rms="0.0000000000000000e+00" purity="6.9672149419784546e-01" nType="0">
            <Node pos="l" depth="3" NCoef="0" IVar="-1" Cut="0.0000000000000000e+00" cType="1" res="-9.9000000000000000e+01" rms="0.0000000000000000e+00" purity="7.3746991157531738e-01" nType="1"/>
            <Node pos="r" depth="3" NCoef="0" IVar="-1" Cut="0.0000000000000000e+00" cType="1" res="-9.9000000000000000e+01" rms="0.0000000000000000e+00" purity="3.2614997029304504e-01" nType="-1"/>
          </Node>
          <Node pos="r" depth="2" NCoef="0" IVar="-1" Cut="5.6658947467803955e-01" cType="1" res="-9.9000000000000000e+01" rms="0.0000000000000000e+00" purity="4.3243628740310669e-01" nType="-1"/>
        </Node>
        <Node pos="r" depth="1" NCoef="0" IVar="-1" Cut="5.4775428771972656e-01" cType="0" res="-9.9000000000000000e+01" rms="0.0000000000000000e+00" purity="5.6787259876728058e-02" nType="-1"/>
      </Node>
    </BinaryTree>
    <BinaryTree type="DecisionTree" boostWeight="1.0369895560349079e-01" itree="12">
      <Node pos="s" depth="0" NCoef="0" IVar="2" Cut="1.1581304669380188e-01" cType="1" res="-9.9000000000000000e+01" rms="0.0000000000000000e+00" purity="4.5426225662231445e-01" nType="0">
        <Node pos="l" depth="1" NCoef="0" IVar="0" Cut="2.4261596679687500e+01" cType="0" res="-9.9000000000000000e+01" rms="0.0000000000000000e+00" purity="5.9688353538513184e-01" nType="0">
          <Node pos="l" depth="2" NCoef="0" IVar="8" Cut="2.0748347043991089e-01" cType="1" res="-9.9000000000000000e+01" rms="0.0000000000000000e+00" purity="6.6478949785232544e-01" nType="0">
            <Node pos="l" depth="3" NCoef="0" IVar="-1" Cut="0.0000000000000000e+00" cType="1" res="-9.9000000000000000e+01" rms="0.0000000000000000e+00" purity="6.9829744100570679e-01" nType="1"/>
            <Node pos="r" depth="3" NCoef="0" IVar="-1" Cut="0.0000000000000000e+00" cType="1" res="-9.9000000000000000e+01" rms="0.0000000000000000e+00" purity="3.1515458226203918e-01" nType="-1"/>
          </Node>
          <Node pos="r" depth="2" NCoef="0" IVar="-1" Cut="5.5860936641693115e-01" cType="1" res="-9.9000000000000000e+01" rms="0.0000000000000000e+00" purity="4.1713196039199829e-01" nType="-1"/>
        </Node>
        <Node pos="r" depth="1" NCoef="0" IVar="-1" Cut="5.4775428771972656e-01" cType="0" res="-9.9000000000000000e+01" rms="0.0000000000000000e+00" purity="6.2808223068714142e-02" nType="-1"/>
      </Node>
    </BinaryTree>
    <BinaryTree type="DecisionTree" boostWeight="8.9792849455715376e-02" itree="13">
      <Node pos="s" depth="0" NCoef="0" IVar="2" Cut="1.1581304669380188e-01" cType="1" res="-9.9000000000000000e+01" rms="0.0000000000000000e+00" purity="4.5387685298919678e-01" nType="0">
        <Node pos="l" depth="1" NCoef="0" IVar="8" Cut="1.4164736866950989e-01" cType="1" res="-9.9000000000000000e+01" rms="0.0000000000000000e+00" purity="5.9002059698104858e-01" nType="0">
          <Node pos="l" depth="2" NCoef="0" IVar="-1" Cut="2.9818572998046875e+01" cType="0" res="-9.9000000000000000e+01" rms="0.0000000000000000e+00" purity="6.3662195205688477e-01" nType="1"/>
          <Node pos="r" depth="2" NCoef="0" IVar="-1" Cut="6.2968689203262329e-01" cType="1" res="-9.9000000000000000e+01" rms="0.0000000000000000e+00" purity="3.8526841998100281e-01" nType="-1"/>
        </Node>
        <Node pos="r" depth="1" NCoef="0" IVar="-1" Cut="5.4775428771972656e-01" cType="0" res="-9.9000000000000000e+01" rms="0.0000000000000000e+00" purity="6.9196179509162903e-02" nType="-1"/>
      </Node>
    </BinaryTree>
    <BinaryTree type="DecisionTree" boostWeight="8.3144073710117644e-02" itree="14">
      <Node pos="s" depth="0" NCoef="0" IVar="2" Cut="1.1581304669380188e-01" cType="1" res="-9.9000000000000000e+01" rms="0.0000000000000000e+00" purity="4.4833976030349731e-01" nType="0">
        <Node pos="l" depth="1" NCoef="0" IVar="7" Cut="1.9960079807788134e-03" cType="0" res="-9.9000000000000000e+01" rms="0.0000000000000000e+00" purity="5.7681953907012939e-01" nType="0">
          <Node pos="l" depth="2" NCoef="0" IVar="-1" Cut="3.0490594863891602e+01" cType="0" res="-9.9000000000000000e+01" rms="0.0000000000000000e+00" purity="6.4475852251052856e-01" nType="1"/>
          <Node pos="r" depth="2" NCoef="0" IVar="3" Cut="1.8585622310638428e-01" cType="1" res="-9.9000000000000000e+01" rms="0.0000000000000000e+00" purity="4.3803054094314575e-01" nType="0">
            <Node pos="l" depth="3" NCoef="0" IVar="-1" Cut="0.0000000000000000e+00" cType="1" res="-9.9000000000000000e+01" rms="0.0000000000000000e+00" purity="5.0111335515975952e-01" nType="1"/>
            <Node pos="r" depth="3" NCoef="0" IVar="-1" Cut="0.0000000000000000e+00" cType="1" res="-9.9000000000000000e+01" rms="0.0000000000000000e+00" purity="2.3809193074703217e-01" nType="-1"/>
          </Node>
        </Node>
        <Node pos="r" depth="1" NCoef="0" IVar="-1" Cut="5.4775428771972656e-01" cType="0" res="-9.9000000000000000e+01" rms="0.0000000000000000e+00" purity="7.5208082795143127e-02" nType="-1"/>
      </Node>
    </BinaryTree>
    <BinaryTree type="DecisionTree" boostWeight="7.8696040761436381e-02" itree="15">
      <Node pos="s" depth="0" NCoef="0" IVar="10" Cut="5.2010172605514526e-01" cType="0" res="-9.9000000000000000e+01" rms="0.0000000000000000e+00" purity="4.3965753912925720e-01" nType="0">
        <Node pos="l" depth="1" NCoef="0" IVar="7" Cut="1.9960079807788134e-03" cType="0" res="-9.9000000000000000e+01" rms="0.0000000000000000e+00" purity="5.6339806318283081e-01" nType="0">
          <Node pos="l" depth="2" NCoef="0" IVar="-1" Cut="3.0490594863891602e+01" cType="0" res="-9.9000000000000000e+01" rms="0.0000000000000000e+00" purity="6.2858647108078003e-01" nType="1"/>
          <Node pos="r" depth="2" NCoef="0" IVar="-1" Cut="5.3898639678955078e+01" cType="1" res="-9.9000000000000000e+01" rms="0.0000000000000000e+00" purity="4.3392986059188843e-01" nType="-1"/>
        </Node>
        <Node pos="r" depth="1" NCoef="0" IVar="-1" Cut="7.7208697795867920e-02" cType="1" res="-9.9000000000000000e+01" rms="0.0000000000000000e+00" purity="8.4674768149852753e-02" nType="-1"/>
      </Node>
    </BinaryTree>
    <BinaryTree type="DecisionTree" boostWeight="8.1422701737946634e-02" itree="16">
      <Node pos="s" depth="0" NCoef="0" IVar="10" Cut="5.1184612512588501e-01" cType="0" res="-9.9000000000000000e+01" rms="0.0000000000000000e+00" purity="4.3902757763862610e-01" nType="0">
        <Node pos="l" depth="1" NCoef="0" IVar="0" Cut="6.1307613372802734e+01" cType="1" res="-9.9000000000000000e+01" rms="0.0000000000000000e+00" purity="5.5548715591430664e-01" nType="0">
          <Node pos="l" depth="2" NCoef="0" IVar="0" Cut="3.0528059005737305e+01" cType="0" res="-9.9000000000000000e+01" rms="0.0000000000000000e+00" purity="5.8118313550949097e-01" nType="0">
            <Node pos="l" depth="3" NCoef="0" IVar="-1" Cut="0.0000000000000000e+00" cType="1" res="-9.9000000000000000e+01" rms="0.0000000000000000e+00" purity="6.7956906557083130e-01" nType="1"/>
            <Node pos="r" depth="3" NCoef="0" IVar="-1" Cut="0.0000000000000000e+00" cType="1" res="-9.9000000000000000e+01" rms="0.0000000000000000e+00" purity="4.6762928366661072e-01" nType="-1"/>
          </Node>
          <Node pos="r" depth="2" NCoef="0" IVar="-1" Cut="1.9960079807788134e-03" cType="0" res="-9.9000000000000000e+01" rms="0.0000000000000000e+00" purity="2.9051449894905090e-01" nType="-1"/>
        </Node>
        <Node pos="r" depth="1" NCoef="0" IVar="-1" Cut="7.7208697795867920e-02" cType="1" res="-9.9000000000000000e+01" rms="0.0000000000000000e+00" purity="8.4496200084686279e-02" nType="-1"/>
      </Node>
    </BinaryTree>
    <BinaryTree type="DecisionTree" boostWeight="7.7796009770951691e-02" itree="17">
      <Node pos="s" depth="0" NCoef="0" IVar="2" Cut="1.5441739559173584e-01" cType="1" res="-9.9000000000000000e+01" rms="0.0000000000000000e+00" purity="4.4352570176124573e-01" nType="0">
        <Node pos="l" depth="1" NCoef="0" IVar="8" Cut="4.6883285045623779e-01" cType="1" res="-9.9000000000000000e+01" rms="0.0000000000000000e+00" purity="5.5261796712875366e-01" nType="0">
          <Node pos="l" depth="2" NCoef="0" IVar="0" Cut="2.2409296035766602e+01" cType="0" res="-9.9000000000000000e+01" rms="0.0000000000000000e+00" purity="5.7283794879913330e-01" nType="0">
            <Node pos="l" depth="3" NCoef="0" IVar="-1" Cut="0.0000000000000000e+00" cType="1" res="-9.9000000000000000e+01" rms="0.0000000000000000e+00" purity="6.1317515373229980e-01" nType="1"/>
            <Node pos="r" depth="3" NCoef="0" IVar="-1" Cut="0.0000000000000000e+00" cType="1" res="-9.9000000000000000e+01" rms="0.0000000000000000e+00" purity="4.3375638127326965e-01" nType="-1"/>
          </Node>
          <Node pos="r" depth="2" NCoef="0" IVar="-1" Cut="7.6019638776779175e-01" cType="1" res="-9.9000000000000000e+01" rms="0.0000000000000000e+00" purity="1.6952809691429138e-01" nType="-1"/>
        </Node>
        <Node pos="r" depth="1" NCoef="0" IVar="-1" Cut="5.4775428771972656e-01" cType="0" res="-9.9000000000000000e+01" rms="0.0000000000000000e+00" purity="7.2873204946517944e-02" nType="-1"/>
      </Node>
    </BinaryTree>
    <BinaryTree type="DecisionTree" boostWeight="7.2158578464196294e-02" itree="18">
      <Node pos="s" depth="0" NCoef="0" IVar="2" Cut="1.5441739559173584e-01" cType="1" res="-9.9000000000000000e+01" rms="0.0000000000000000e+00" purity="4.3998333811759949e-01" nType="0">
        <Node pos="l" depth="1" NCoef="0" IVar="8" Cut="5.2668881416320801e-01" cType="1" res="-9.9000000000000000e+01" rms="0.0000000000000000e+00" purity="5.4381895065307617e-01" nType="0">
          <Node pos="l" depth="2" NCoef="0" IVar="3" Cut="1.4868497848510742e-01" cType="1" res="-9.9000000000000000e+01" rms="0.0000000000000000e+00" purity="5.6134456396102905e-01" nType="0">
            <Node pos="l" depth="3" NCoef="0" IVar="-1" Cut="0.0000000000000000e+00" cType="1" res="-9.9000000000000000e+01" rms="0.0000000000000000e+00" purity="5.8386695384979248e-01" nType="1"/>
            <Node pos="r" depth="3" NCoef="0" IVar="-1" Cut="0.0000000000000000e+00" cType="1" res="-9.9000000000000000e+01" rms="0.0000000000000000e+00" purity="3.4645804762840271e-01" nType="-1"/>
          </Node>
          <Node pos="r" depth="2" NCoef="0" IVar="-1" Cut="1.9960079807788134e-03" cType="0" res="-9.9000000000000000e+01" rms="0.0000000000000000e+00" purity="1.4930687844753265e-01" nType="-1"/>
        </Node>
        <Node pos="r" depth="1" NCoef="0" IVar="-1" Cut="5.4775428771972656e-01" cType="0" res="-9.9000000000000000e+01" rms="0.0000000000000000e+00" purity="7.8307129442691803e-02" nType="-1"/>
      </Node>
    </BinaryTree>
    <BinaryTree type="DecisionTree" boostWeight="6.8523610461356854e-02" itree="19">
      <Node pos="s" depth="0" NCoef="0" IVar="10" Cut="5.0359052419662476e-01" cType="0" res="-9.9000000000000000e+01" rms="0.0000000000000000e+00" purity="4.3289548158645630e-01" nType="0">
        <Node pos="l" depth="1" NCoef="0" IVar="0" Cut="5.7603012084960938e+01" cType="1" res="-9.9000000000000000e+01" rms="0.0000000000000000e+00" purity="5.3398770093917847e-01" nType="0">
          <Node pos="l" depth="2" NCoef="0" IVar="0" Cut="3.2772472381591797e+01" cType="0" res="-9.9000000000000000e+01" rms="0.0000000000000000e+00" purity="5.6107449531555176e-01" nType="0">
            <Node pos="l" depth="3" NCoef="0" IVar="-1" Cut="0.0000000000000000e+00" cType="1" res="-9.9000000000000000e+01" rms="0.0000000000000000e+00" purity="6.5613698959350586e-01" nType="1"/>
            <Node pos="r" depth="3" NCoef="0" IVar="-1" Cut="0.0000000000000000e+00" cType="1" res="-9.9000000000000000e+01" rms="0.0000000000000000e+00" purity="4.8209789395332336e-01" nType="-1"/>
          </Node>
          <Node pos="r" depth="2" NCoef="0" IVar="-1" Cut="1.9960079807788134e-03" cType="0" res="-9.9000000000000000e+01" rms="0.0000000000000000e+00" purity="3.0365905165672302e-01" nType="-1"/>
        </Node>
        <Node pos="r" depth="1" NCoef="0" IVar="-1" Cut="7.7208697795867920e-02" cType="1" res="-9.9000000000000000e+01" rms="0.0000000000000000e+00" purity="9.1879628598690033e-02" nType="-1"/>
      </Node>
    </BinaryTree>
    <BinaryTree type="DecisionTree" boostWeight="7.0222049830755959e-02" itree="20">
      <Node pos="s" depth="0" NCoef="0" IVar="2" Cut="1.5441739559173584e-01" cType="1" res="-9.9000000000000000e+01" rms="0.0000000000000000e+00" purity="4.3859982490539551e-01" nType="0">
        <Node pos="l" depth="1" NCoef="0" IVar="4" Cut="-4.9829483032226562e+00" cType="1" res="-9.9000000000000000e+01" rms="0.0000000000000000e+00" purity="5.3524416685104370e-01" nType="0">
          <Node pos="l" depth="2" NCoef="0" IVar="3" Cut="2.4161309003829956e-01" cType="1" res="-9.9000000000000000e+01" rms="0.0000000000000000e+00" purity="5.7808005809783936e-01" nType="0">
            <Node pos="l" depth="3" NCoef="0" IVar="-1" Cut="0.0000000000000000e+00" cType="1" res="-9.9000000000000000e+01" rms="0.0000000000000000e+00" purity="5.9316384792327881e-01" nType="1"/>
            <Node pos="r" depth="3" NCoef="0" IVar="-1" Cut="0.0000000000000000e+00" cType="1" res="-9.9000000000000000e+01" rms="0.0000000000000000e+00" purity="3.1756883859634399e-01" nType="-1"/>
          </Node>
          <Node pos="r" depth="2" NCoef="0" IVar="-1" Cut="4.6484276652336121e-01" cType="1" res="-9.9000000000000000e+01" rms="0.0000000000000000e+00" purity="3.8636946678161621e-01" nType="-1"/>
        </Node>
        <Node pos="r" depth="1" NCoef="0" IVar="-1" Cut="5.4048007726669312e-01" cType="0" res="-9.9000000000000000e+01" rms="0.0000000000000000e+00" purity="8.7088763713836670e-02" nType="-1"/>
      </Node>
    </BinaryTree>
    <BinaryTree type="DecisionTree" boostWeight="6.0311880614717012e-02" itree="21">
      <Node pos="s" depth="0" NCoef="0" IVar="10" Cut="4.9533495306968689e-01" cType="0" res="-9.9000000000000000e+01" rms="0.0000000000000000e+00" purity="4.3517336249351501e-01" nType="0">
        <Node pos="l" depth="1" NCoef="0" IVar="0" Cut="5.3898410797119141e+01" cType="1" res="-9.9000000000000000e+01" rms="0.0000000000000000e+00" purity="5.2838933467864990e-01" nType="0">
          <Node pos="l" depth="2" NCoef="0" IVar="0" Cut="3.4332759857177734e+01" cType="0" res="-9.9000000000000000e+01" rms="0.0000000000000000e+00" purity="5.5676889419555664e-01" nType="0">
            <Node pos="l" depth="3" NCoef="0" IVar="-1" Cut="0.0000000000000000e+00" cType="1" res="-9.9000000000000000e+01" rms="0.0000000000000000e+00" purity="6.5184605121612549e-01" nType="1"/>
            <Node pos="r" depth="3" NCoef="0" IVar="-1" Cut="0.0000000000000000e+00" cType="1" res="-9.9000000000000000e+01" rms="0.0000000000000000e+00" purity="4.9567371606826782e-01" nType="-1"/>
          </Node>
          <Node pos="r" depth="2" NCoef="0" IVar="-1" Cut="1.9960079807788134e-03" cType="0" res="-9.9000000000000000e+01" rms="0.0000000000000000e+00" purity="3.3071210980415344e-01" nType="-1"/>
        </Node>
        <Node pos="r" depth="1" NCoef="0" IVar="-1" Cut="7.7208697795867920e-02" cType="1" res="-9.9000000000000000e+01" rms="0.0000000000000000e+00" purity="9.5040358603000641e-02" nType="-1"/>
      </Node>
    </BinaryTree>
    <BinaryTree type="DecisionTree" boostWeight="6.0772715848383285e-02" itree="22">
      <Node pos="s" depth="0" NCoef="0" IVar="2" Cut="1.9302174448966980e-01" cType="1" res="-9.9000000000000000e+01" rms="0.0000000000000000e+00" purity="4.4163715839385986e-01" nType="0">
        <Node pos="l" depth="1" NCoef="0" IVar="8" Cut="6.0250008106231689e-01" cType="1" res="-9.9000000000000000e+01" rms="0.0000000000000000e+00" purity="5.2948611974716187e-01" nType="0">
          <Node pos="l" depth="2" NCoef="0" IVar="0" Cut="6.6864517211914062e+01" cType="1" res="-9.9000000000000000e+01" rms="0.0000000000000000e+00" purity="5.4509407281875610e-01" nType="0">
            <Node pos="l" depth="3" NCoef="0" IVar="-1" Cut="0.0000000000000000e+00" cType="1" res="-9.9000000000000000e+01" rms="0.0000000000000000e+00" purity="5.6084793806076050e-01" nType="1"/>
            <Node pos="r" depth="3" NCoef="0" IVar="-1" Cut="0.0000000000000000e+00" cType="1" res="-9.9000000000000000e+01" rms="0.0000000000000000e+00" purity="3.0746978521347046e-01" nType="-1"/>
          </Node>
          <Node pos="r" depth="2" NCoef="0" IVar="-1" Cut="1.9960079807788134e-03" cType="0" res="-9.9000000000000000e+01" rms="0.0000000000000000e+00" purity="1.2071552872657776e-01" nType="-1"/>
        </Node>
        <Node pos="r" depth="1" NCoef="0" IVar="10" Cut="5.1138311624526978e-01" cType="0" res="-9.9000000000000000e+01" rms="0.0000000000000000e+00" purity="8.3288446068763733e-02" nType="0">
          <Node pos="l" depth="2" NCoef="0" IVar="5" Cut="-3.2595753669738770e+00" cType="0" res="-9.9000000000000000e+01" rms="0.0000000000000000e+00" purity="2.8564456105232239e-01" nType="0">
            <Node pos="l" depth="3" NCoef="0" IVar="-1" Cut="0.0000000000000000e+00" cType="1" res="-9.9000000000000000e+01" rms="0.0000000000000000e+00" purity="5.5112266540527344e-01" nType="1"/>
            <Node pos="r" depth="3" NCoef="0" IVar="-1" Cut="0.0000000000000000e+00" cType="1" res="-9.9000000000000000e+01" rms="0.0000000000000000e+00" purity="2.1726079285144806e-01" nType="-1"/>
          </Node>
          <Node pos="r" depth="2" NCoef="0" IVar="-1" Cut="-7.9951316118240356e-01" cType="0" res="-9.9000000000000000e+01" rms="0.0000000000000000e+00" purity="3.6732565611600876e-02" nType="-1"/>
        </Node>
      </Node>
    </BinaryTree>
    <BinaryTree type="DecisionTree" boostWeight="5.7776789479475177e-02" itree="23">
      <Node pos="s" depth="0" NCoef="0" IVar="10" Cut="4.7882378101348877e-01" cType="0" res="-9.9000000000000000e+01" rms="0.0000000000000000e+00" purity="4.3396714329719543e-01" nType="0">
        <Node pos="l" depth="1" NCoef="0" IVar="8" Cut="6.7432129383087158e-01" cType="1" res="-9.9000000000000000e+01" rms="0.0000000000000000e+00" purity="5.1913410425186157e-01" nType="0">
          <Node pos="l" depth="2" NCoef="0" IVar="0" Cut="5.3898410797119141e+01" cType="1" res="-9.9000000000000000e+01" rms="0.0000000000000000e+00" purity="5.3088951110839844e-01" nType="0">
            <Node pos="l" depth="3" NCoef="0" IVar="-1" Cut="0.0000000000000000e+00" cType="1" res="-9.9000000000000000e+01" rms="0.0000000000000000e+00" purity="5.5433952808380127e-01" nType="1"/>
            <Node pos="r" depth="3" NCoef="0" IVar="-1" Cut="0.0000000000000000e+00" cType="1" res="-9.9000000000000000e+01" rms="0.0000000000000000e+00" purity="3.6059293150901794e-01" nType="-1"/>
          </Node>
          <Node pos="r" depth="2" NCoef="0" IVar="-1" Cut="8.7636935710906982e-01" cType="1" res="-9.9000000000000000e+01" rms="0.0000000000000000e+00" purity="9.8625682294368744e-02" nType="-1"/>
        </Node>
        <Node pos="r" depth="1" NCoef="0" IVar="-1" Cut="7.7208697795867920e-02" cType="1" res="-9.9000000000000000e+01" rms="0.0000000000000000e+00" purity="8.9160099625587463e-02" nType="-1"/>
      </Node>
    </BinaryTree>
    <BinaryTree type="DecisionTree" boostWeight="5.4494893509863307e-02" itree="24">
      <Node pos="s" depth="0" NCoef="0" IVar="2" Cut="1.5441739559173584e-01" cType="1" res="-9.9000000000000000e+01" rms="0.0000000000000000e+00" purity="4.2801979184150696e-01" nType="0">
        <Node pos="l" depth="1" NCoef="0" IVar="8" Cut="6.5437096357345581e-01" cType="1" res="-9.9000000000000000e+01" rms="0.0000000000000000e+00" purity="5.1146155595779419e-01" nType="0">
          <Node pos="l" depth="2" NCoef="0" IVar="5" Cut="-5.8861279487609863e+00" cType="1" res="-9.9000000000000000e+01" rms="0.0000000000000000e+00" purity="5.2324849367141724e-01" nType="0">
            <Node pos="l" depth="3" NCoef="0" IVar="-1" Cut="0.0000000000000000e+00" cType="1" res="-9.9000000000000000e+01" rms="0.0000000000000000e+00" purity="5.9547483921051025e-01" nType="1"/>
            <Node pos="r" depth="3" NCoef="0" IVar="-1" Cut="0.0000000000000000e+00" cType="1" res="-9.9000000000000000e+01" rms="0.0000000000000000e+00" purity="4.7248849272727966e-01" nType="-1"/>
          </Node>
          <Node pos="r" depth="2" NCoef="0" IVar="-1" Cut="8.7634593248367310e-01" cType="1" res="-9.9000000000000000e+01" rms="0.0000000000000000e+00" purity="1.1765827238559723e-01" nType="-1"/>
        </Node>
        <Node pos="r" depth="1" NCoef="0" IVar="-1" Cut="5.4775428771972656e-01" cType="0" res="-9.9000000000000000e+01" rms="0.0000000000000000e+00" purity="1.0051940381526947e-01" nType="-1"/>
      </Node>
    </BinaryTree>
    <BinaryTree type="DecisionTree" boostWeight="5.4727290493143579e-02" itree="25">
      <Node pos="s" depth="0" NCoef="0" IVar="2" Cut="1.9302174448966980e-01" cType="1" res="-9.9000000000000000e+01" rms="0.0000000000000000e+00" purity="4.3245109915733337e-01" nType="0">
        <Node pos="l" depth="1" NCoef="0" IVar="8" Cut="6.3043051958084106e-01" cType="1" res="-9.9000000000000000e+01" rms="0.0000000000000000e+00" purity="5.1125359535217285e-01" nType="0">
          <Node pos="l" depth="2" NCoef="0" IVar="3" Cut="5.5756866931915283e-02" cType="1" res="-9.9000000000000000e+01" rms="0.0000000000000000e+00" purity="5.2439153194427490e-01" nType="0">
            <Node pos="l" depth="3" NCoef="0" IVar="-1" Cut="0.0000000000000000e+00" cType="1" res="-9.9000000000000000e+01" rms="0.0000000000000000e+00" purity="5.5048692226409912e-01" nType="1"/>
            <Node pos="r" depth="3" NCoef="0" IVar="-1" Cut="0.0000000000000000e+00" cType="1" res="-9.9000000000000000e+01" rms="0.0000000000000000e+00" purity="4.0423679351806641e-01" nType="-1"/>
          </Node>
          <Node pos="r" depth="2" NCoef="0" IVar="-1" Cut="8.7662762403488159e-01" cType="1" res="-9.9000000000000000e+01" rms="0.0000000000000000e+00" purity="1.2338788062334061e-01" nType="-1"/>
        </Node>
        <Node pos="r" depth="1" NCoef="0" IVar="10" Cut="5.4775428771972656e-01" cType="0" res="-9.9000000000000000e+01" rms="0.0000000000000000e+00" purity="9.2345029115676880e-02" nType="0">
          <Node pos="l" depth="2" NCoef="0" IVar="4" Cut="-4.0420007705688477e+00" cType="0" res="-9.9000000000000000e+01" rms="0.0000000000000000e+00" purity="3.3498024940490723e-01" nType="0">
            <Node pos="l" depth="3" NCoef="0" IVar="-1" Cut="0.0000000000000000e+00" cType="1" res="-9.9000000000000000e+01" rms="0.0000000000000000e+00" purity="5.5472785234451294e-01" nType="1"/>
            <Node pos="r" depth="3" NCoef="0" IVar="-1" Cut="0.0000000000000000e+00" cType="1" res="-9.9000000000000000e+01" rms="0.0000000000000000e+00" purity="2.5500109791755676e-01" nType="-1"/>
          </Node>
          <Node pos="r" depth="2" NCoef="0" IVar="-1" Cut="-6.9909787178039551e-01" cType="0" res="-9.9000000000000000e+01" rms="0.0000000000000000e+00" purity="5.0467643886804581e-02" nType="-1"/>
        </Node>
      </Node>
    </BinaryTree>
    <BinaryTree type="DecisionTree" boostWeight="5.2233684127967965e-02" itree="26">
      <Node pos="s" depth="0" NCoef="0" IVar="2" Cut="1.9302174448966980e-01" cType="1" res="-9.9000000000000000e+01" rms="0.0000000000000000e+00" purity="4.2774990200996399e-01" nType="0">
        <Node pos="l" depth="1" NCoef="0" IVar="8" Cut="6.7432129383087158e-01" cType="1" res="-9.9000000000000000e+01" rms="0.0000000000000000e+00" purity="5.0320494174957275e-01" nType="0">
          <Node pos="l" depth="2" NCoef="0" IVar="4" Cut="-5.4686470031738281e+00" cType="1" res="-9.9000000000000000e+01" rms="0.0000000000000000e+00" purity="5.1508903503417969e-01" nType="0">
            <Node pos="l" depth="3" NCoef="0" IVar="-1" Cut="0.0000000000000000e+00" cType="1" res="-9.9000000000000000e+01" rms="0.0000000000000000e+00" purity="5.5290794372558594e-01" nType="1"/>
            <Node pos="r" depth="3" NCoef="0" IVar="-1" Cut="0.0000000000000000e+00" cType="1" res="-9.9000000000000000e+01" rms="0.0000000000000000e+00" purity="4.4084087014198303e-01" nType="-1"/>
          </Node>
          <Node pos="r" depth="2" NCoef="0" IVar="-1" Cut="8.7636935710906982e-01" cType="1" res="-9.9000000000000000e+01" rms="0.0000000000000000e+00" purity="1.1030168086290359e-01" nType="-1"/>
        </Node>
        <Node pos="r" depth="1" NCoef="0" IVar="-1" Cut="5.1138311624526978e-01" cType="0" res="-9.9000000000000000e+01" rms="0.0000000000000000e+00" purity="9.5839388668537140e-02" nType="-1"/>
      </Node>
    </BinaryTree>
    <BinaryTree type="DecisionTree" boostWeight="4.5382447750967024e-02" itree="27">
      <Node pos="s" depth="0" NCoef="0" IVar="10" Cut="4.6231263875961304e-01" cType="0" res="-9.9000000000000000e+01" rms="0.0000000000000000e+00" purity="4.2663487792015076e-01" nType="0">
        <Node pos="l" depth="1" NCoef="0" IVar="8" Cut="7.4614250659942627e-01" cType="1" res="-9.9000000000000000e+01" rms="0.0000000000000000e+00" purity="4.9838036298751831e-01" nType="0">
          <Node pos="l" depth="2" NCoef="0" IVar="0" Cut="5.9455310821533203e+01" cType="1" res="-9.9000000000000000e+01" rms="0.0000000000000000e+00" purity="5.0848650932312012e-01" nType="0">
            <Node pos="l" depth="3" NCoef="0" IVar="-1" Cut="0.0000000000000000e+00" cType="1" res="-9.9000000000000000e+01" rms="0.0000000000000000e+00" purity="5.2610754966735840e-01" nType="1"/>
            <Node pos="r" depth="3" NCoef="0" IVar="-1" Cut="0.0000000000000000e+00" cType="1" res="-9.9000000000000000e+01" rms="0.0000000000000000e+00" purity="3.3246642351150513e-01" nType="-1"/>
          </Node>
          <Node pos="r" depth="2" NCoef="0" IVar="-1" Cut="8.8642537593841553e-01" cType="1" res="-9.9000000000000000e+01" rms="0.0000000000000000e+00" purity="8.0760374665260315e-02" nType="-1"/>
        </Node>
        <Node pos="r" depth="1" NCoef="0" IVar="-1" Cut="7.7208697795867920e-02" cType="1" res="-9.9000000000000000e+01" rms="0.0000000000000000e+00" purity="9.0880177915096283e-02" nType="-1"/>
      </Node>
    </BinaryTree>
    <BinaryTree type="DecisionTree" boostWeight="4.8624863706235921e-02" itree="28">
      <Node pos="s" depth="0" NCoef="0" IVar="2" Cut="1.9302174448966980e-01" cType="1" res="-9.9000000000000000e+01" rms="0.0000000000000000e+00" purity="4.2098820209503174e-01" nType="0">
        <Node pos="l" depth="1" NCoef="0" IVar="8" Cut="7.4614250659942627e-01" cType="1" res="-9.9000000000000000e+01" rms="0.0000000000000000e+00" purity="4.9149960279464722e-01" nType="0">
          <Node pos="l" depth="2" NCoef="0" IVar="8" Cut="6.7014411091804504e-02" cType="1" res="-9.9000000000000000e+01" rms="0.0000000000000000e+00" purity="5.0167137384414673e-01" nType="0">
            <Node pos="l" depth="3" NCoef="0" IVar="-1" Cut="0.0000000000000000e+00" cType="1" res="-9.9000000000000000e+01" rms="0.0000000000000000e+00" purity="5.4833382368087769e-01" nType="1"/>
            <Node pos="r" depth="3" NCoef="0" IVar="-1" Cut="0.0000000000000000e+00" cType="1" res="-9.9000000000000000e+01" rms="0.0000000000000000e+00" purity="4.5102116465568542e-01" nType="-1"/>
          </Node>
          <Node pos="r" depth="2" NCoef="0" IVar="-1" Cut="-5.2332420349121094e+00" cType="1" res="-9.9000000000000000e+01" rms="0.0000000000000000e+00" purity="8.8291861116886139e-02" nType="-1"/>
        </Node>
        <Node pos="r" depth="1" NCoef="0" IVar="-1" Cut="5.1138311624526978e-01" cType="0" res="-9.9000000000000000e+01" rms="0.0000000000000000e+00" purity="1.0119106620550156e-01" nType="-1"/>
      </Node>
    </BinaryTree>
    <BinaryTree type="DecisionTree" boostWeight="3.9925894123997205e-02" itree="29">
      <Node pos="s" depth="0" NCoef="0" IVar="10" Cut="4.6231263875961304e-01" cType="0" res="-9.9000000000000000e+01" rms="0.0000000000000000e+00" purity="4.2258211970329285e-01" nType="0">
        <Node pos="l" depth="1" NCoef="0" IVar="8" Cut="7.6010769605636597e-01" cType="1" res="-9.9000000000000000e+01" rms="0.0000000000000000e+00" purity="4.8992282152175903e-01" nType="0">
          <Node pos="l" depth="2" NCoef="0" IVar="0" Cut="6.3159915924072266e+01" cType="1" res="-9.9000000000000000e+01" rms="0.0000000000000000e+00" purity="4.9917632341384888e-01" nType="0">
            <Node pos="l" depth="3" NCoef="0" IVar="-1" Cut="0.0000000000000000e+00" cType="1" res="-9.9000000000000000e+01" rms="0.0000000000000000e+00" purity="5.1409745216369629e-01" nType="1"/>
            <Node pos="r" depth="3" NCoef="0" IVar="-1" Cut="0.0000000000000000e+00" cType="1" res="-9.9000000000000000e+01" rms="0.0000000000000000e+00" purity="3.1949833035469055e-01" nType="-1"/>
          </Node>
          <Node pos="r" depth="2" NCoef="0" IVar="-1" Cut="9.1641616821289062e-01" cType="1" res="-9.9000000000000000e+01" rms="0.0000000000000000e+00" purity="8.1114344298839569e-02" nType="-1"/>
        </Node>
        <Node pos="r" depth="1" NCoef="0" IVar="-1" Cut="7.7208697795867920e-02" cType="1" res="-9.9000000000000000e+01" rms="0.0000000000000000e+00" purity="9.7195044159889221e-02" nType="-1"/>
      </Node>
    </BinaryTree>
    <BinaryTree type="DecisionTree" boostWeight="3.7661117549170259e-02" itree="30">
      <Node pos="s" depth="0" NCoef="0" IVar="2" Cut="1.9302174448966980e-01" cType="1" res="-9.9000000000000000e+01" rms="0.0000000000000000e+00" purity="4.1730538010597229e-01" nType="0">
        <Node pos="l" depth="1" NCoef="0" IVar="8" Cut="7.4614250659942627e-01" cType="1" res="-9.9000000000000000e+01" rms="0.0000000000000000e+00" purity="4.8398074507713318e-01" nType="0">
          <Node pos="l" depth="2" NCoef="0" IVar="3" Cut="2.2302746772766113e-01" cType="1" res="-9.9000000000000000e+01" rms="0.0000000000000000e+00" purity="4.9347272515296936e-01" nType="0">
            <Node pos="l" depth="3" NCoef="0" IVar="-1" Cut="0.0000000000000000e+00" cType="1" res="-9.9000000000000000e+01" rms="0.0000000000000000e+00" purity="5.0698387622833252e-01" nType="1"/>
            <Node pos="r" depth="3" NCoef="0" IVar="-1" Cut="0.0000000000000000e+00" cType="1" res="-9.9000000000000000e+01" rms="0.0000000000000000e+00" purity="3.3192184567451477e-01" nType="-1"/>
          </Node>
          <Node pos="r" depth="2" NCoef="0" IVar="-1" Cut="-5.2332420349121094e+00" cType="1" res="-9.9000000000000000e+01" rms="0.0000000000000000e+00" purity="9.5304310321807861e-02" nType="-1"/>
        </Node>
        <Node pos="r" depth="1" NCoef="0" IVar="-1" Cut="5.4775428771972656e-01" cType="0" res="-9.9000000000000000e+01" rms="0.0000000000000000e+00" purity="1.0633456707000732e-01" nType="-1"/>
      </Node>
    </BinaryTree>
    <BinaryTree type="DecisionTree" boostWeight="3.8593972646139008e-02" itree="31">
      <Node pos="s" depth="0" NCoef="0" IVar="2" Cut="1.9302174448966980e-01" cType="1" res="-9.9000000000000000e+01" rms="0.0000000000000000e+00" purity="4.1244632005691528e-01" nType="0">
        <Node pos="l" depth="1" NCoef="0" IVar="8" Cut="7.6010769605636597e-01" cType="1" res="-9.9000000000000000e+01" rms="0.0000000000000000e+00" purity="4.7640851140022278e-01" nType="0">
          <Node pos="l" depth="2" NCoef="0" IVar="0" Cut="2.0556995391845703e+01" cType="0" res="-9.9000000000000000e+01" rms="0.0000000000000000e+00" purity="4.8535865545272827e-01" nType="0">
            <Node pos="l" depth="3" NCoef="0" IVar="-1" Cut="0.0000000000000000e+00" cType="1" res="-9.9000000000000000e+01" rms="0.0000000000000000e+00" purity="5.0587874650955200e-01" nType="1"/>
            <Node pos="r" depth="3" NCoef="0" IVar="-1" Cut="0.0000000000000000e+00" cType="1" res="-9.9000000000000000e+01" rms="0.0000000000000000e+00" purity="3.9357724785804749e-01" nType="-1"/>
          </Node>
          <Node pos="r" depth="2" NCoef="0" IVar="-1" Cut="-5.2332420349121094e+00" cType="1" res="-9.9000000000000000e+01" rms="0.0000000000000000e+00" purity="9.2274129390716553e-02" nType="-1"/>
        </Node>
        <Node pos="r" depth="1" NCoef="0" IVar="-1" Cut="5.1138311624526978e-01" cType="0" res="-9.9000000000000000e+01" rms="0.0000000000000000e+00" purity="1.0996682196855545e-01" nType="-1"/>
      </Node>
    </BinaryTree>
    <BinaryTree type="DecisionTree" boostWeight="3.6793983004183767e-02" itree="32">
      <Node pos="s" depth="0" NCoef="0" IVar="-1" Cut="4.6231263875961304e-01" cType="0" res="-9.9000000000000000e+01" rms="0.0000000000000000e+00" purity="4.0903893113136292e-01" nType="-1"/>
    </BinaryTree>
    <BinaryTree type="DecisionTree" boostWeight="3.6599909750700439e-02" itree="33">
      <Node pos="s" depth="0" NCoef="0" IVar="10" Cut="4.6231263875961304e-01" cType="0" res="-9.9000000000000000e+01" rms="0.0000000000000000e+00" purity="4.1796183586120605e-01" nType="0">
        <Node pos="l" depth="1" NCoef="0" IVar="8" Cut="7.6010769605636597e-01" cType="1" res="-9.9000000000000000e+01" rms="0.0000000000000000e+00" purity="4.7873106598854065e-01" nType="0">
          <Node pos="l" depth="2" NCoef="0" IVar="0" Cut="5.2046108245849609e+01" cType="1" res="-9.9000000000000000e+01" rms="0.0000000000000000e+00" purity="4.8695090413093567e-01" nType="0">
            <Node pos="l" depth="3" NCoef="0" IVar="-1" Cut="0.0000000000000000e+00" cType="1" res="-9.9000000000000000e+01" rms="0.0000000000000000e+00" purity="5.0595134496688843e-01" nType="1"/>
            <Node pos="r" depth="3" NCoef="0" IVar="-1" Cut="0.0000000000000000e+00" cType="1" res="-9.9000000000000000e+01" rms="0.0000000000000000e+00" purity="3.6234125494956970e-01" nType="-1"/>
          </Node>
          <Node pos="r" depth="2" NCoef="0" IVar="-1" Cut="9.1641616821289062e-01" cType="1" res="-9.9000000000000000e+01" rms="0.0000000000000000e+00" purity="9.3271635472774506e-02" nType="-1"/>
        </Node>
        <Node pos="r" depth="1" NCoef="0" IVar="-1" Cut="7.7208697795867920e-02" cType="1" res="-9.9000000000000000e+01" rms="0.0000000000000000e+00" purity="1.0822302848100662e-01" nType="-1"/>
      </Node>
    </BinaryTree>
    <BinaryTree type="DecisionTree" boostWeight="3.5315820044841933e-02" itree="34">
      <Node pos="s" depth="0" NCoef="0" IVar="2" Cut="2.3162609338760376e-01" cType="1" res="-9.9000000000000000e+01" rms="0.0000000000000000e+00" purity="4.1382968425750732e-01" nType="0">
        <Node pos="l" depth="1" NCoef="0" IVar="-1" Cut="7.4614250659942627e-01" cType="1" res="-9.9000000000000000e+01" rms="0.0000000000000000e+00" purity="4.7205209732055664e-01" nType="-1"/>
        <Node pos="r" depth="1" NCoef="0" IVar="10" Cut="5.1865732669830322e-01" cType="0" res="-9.9000000000000000e+01" rms="0.0000000000000000e+00" purity="1.0837782919406891e-01" nType="0">
          <Node pos="l" depth="2" NCoef="0" IVar="4" Cut="-3.9816136360168457e+00" cType="0" res="-9.9000000000000000e+01" rms="0.0000000000000000e+00" purity="3.3059611916542053e-01" nType="0">
            <Node pos="l" depth="3" NCoef="0" IVar="-1" Cut="0.0000000000000000e+00" cType="1" res="-9.9000000000000000e+01" rms="0.0000000000000000e+00" purity="5.7632887363433838e-01" nType="1"/>
            <Node pos="r" depth="3" NCoef="0" IVar="-1" Cut="0.0000000000000000e+00" cType="1" res="-9.9000000000000000e+01" rms="0.0000000000000000e+00" purity="2.3918747901916504e-01" nType="-1"/>
          </Node>
          <Node pos="r" depth="2" NCoef="0" IVar="-1" Cut="-1.0630882978439331e+00" cType="0" res="-9.9000000000000000e+01" rms="0.0000000000000000e+00" purity="5.8589607477188110e-02" nType="-1"/>
        </Node>
      </Node>
    </BinaryTree>
    <BinaryTree type="DecisionTree" boostWeight="3.6086805430240808e-02" itree="35">
      <Node pos="s" depth="0" NCoef="0" IVar="2" Cut="2.3162609338760376e-01" cType="1" res="-9.9000000000000000e+01" rms="0.0000000000000000e+00" purity="4.2227756977081299e-01" nType="0">
        <Node pos="l" depth="1" NCoef="0" IVar="8" Cut="7.4614250659942627e-01" cType="1" res="-9.9000000000000000e+01" rms="0.0000000000000000e+00" purity="4.8086121678352356e-01" nType="0">
          <Node pos="l" depth="2" NCoef="0" IVar="3" Cut="9.2928111553192139e-02" cType="1" res="-9.9000000000000000e+01" rms="0.0000000000000000e+00" purity="4.9021860957145691e-01" nType="0">
            <Node pos="l" depth="3" NCoef="0" IVar="-1" Cut="0.0000000000000000e+00" cType="1" res="-9.9000000000000000e+01" rms="0.0000000000000000e+00" purity="5.0737440586090088e-01" nType="1"/>
            <Node pos="r" depth="3" NCoef="0" IVar="-1" Cut="0.0000000000000000e+00" cType="1" res="-9.9000000000000000e+01" rms="0.0000000000000000e+00" purity="3.8227784633636475e-01" nType="-1"/>
          </Node>
          <Node pos="r" depth="2" NCoef="0" IVar="-1" Cut="-5.2332420349121094e+00" cType="1" res="-9.9000000000000000e+01" rms="0.0000000000000000e+00" purity="1.0333339869976044e-01" nType="-1"/>
        </Node>
        <Node pos="r" depth="1" NCoef="0" IVar="10" Cut="5.1865732669830322e-01" cType="0" res="-9.9000000000000000e+01" rms="0.0000000000000000e+00" purity="1.1084388196468353e-01" nType="0">
          <Node pos="l" depth="2" NCoef="0" IVar="4" Cut="-3.9816136360168457e+00" cType="0" res="-9.9000000000000000e+01" rms="0.0000000000000000e+00" purity="3.3339694142341614e-01" nType="0">
            <Node pos="l" depth="3" NCoef="0" IVar="-1" Cut="0.0000000000000000e+00" cType="1" res="-9.9000000000000000e+01" rms="0.0000000000000000e+00" purity="5.6768333911895752e-01" nType="1"/>
            <Node pos="r" depth="3" NCoef="0" IVar="-1" Cut="0.0000000000000000e+00" cType="1" res="-9.9000000000000000e+01" rms="0.0000000000000000e+00" purity="2.4567322432994843e-01" nType="-1"/>
          </Node>
          <Node pos="r" depth="2" NCoef="0" IVar="-1" Cut="-1.1626918315887451e+00" cType="0" res="-9.9000000000000000e+01" rms="0.0000000000000000e+00" purity="6.0568153858184814e-02" nType="-1"/>
        </Node>
      </Node>
    </BinaryTree>
    <BinaryTree type="DecisionTree" boostWeight="4.3169652815653561e-02" itree="36">
      <Node pos="s" depth="0" NCoef="0" IVar="2" Cut="2.3162609338760376e-01" cType="1" res="-9.9000000000000000e+01" rms="0.0000000000000000e+00" purity="4.1810557246208191e-01" nType="0">
        <Node pos="l" depth="1" NCoef="0" IVar="8" Cut="7.6010769605636597e-01" cType="1" res="-9.9000000000000000e+01" rms="0.0000000000000000e+00" purity="4.7466239333152771e-01" nType="0">
          <Node pos="l" depth="2" NCoef="0" IVar="5" Cut="-6.1989502906799316e+00" cType="1" res="-9.9000000000000000e+01" rms="0.0000000000000000e+00" purity="4.8351514339447021e-01" nType="0">
            <Node pos="l" depth="3" NCoef="0" IVar="-1" Cut="0.0000000000000000e+00" cType="1" res="-9.9000000000000000e+01" rms="0.0000000000000000e+00" purity="5.4254496097564697e-01" nType="1"/>
            <Node pos="r" depth="3" NCoef="0" IVar="-1" Cut="0.0000000000000000e+00" cType="1" res="-9.9000000000000000e+01" rms="0.0000000000000000e+00" purity="4.5390620827674866e-01" nType="-1"/>
          </Node>
          <Node pos="r" depth="2" NCoef="0" IVar="-1" Cut="-5.2332420349121094e+00" cType="1" res="-9.9000000000000000e+01" rms="0.0000000000000000e+00" purity="1.0059550404548645e-01" nType="-1"/>
        </Node>
        <Node pos="r" depth="1" NCoef="0" IVar="10" Cut="5.1138311624526978e-01" cType="0" res="-9.9000000000000000e+01" rms="0.0000000000000000e+00" purity="1.1343602091073990e-01" nType="0">
          <Node pos="l" depth="2" NCoef="0" IVar="5" Cut="-3.5044629573822021e+00" cType="0" res="-9.9000000000000000e+01" rms="0.0000000000000000e+00" purity="3.2893344759941101e-01" nType="0">
            <Node pos="l" depth="3" NCoef="0" IVar="-1" Cut="0.0000000000000000e+00" cType="1" res="-9.9000000000000000e+01" rms="0.0000000000000000e+00" purity="5.6467521190643311e-01" nType="1"/>
            <Node pos="r" depth="3" NCoef="0" IVar="-1" Cut="0.0000000000000000e+00" cType="1" res="-9.9000000000000000e+01" rms="0.0000000000000000e+00" purity="2.5326213240623474e-01" nType="-1"/>
          </Node>
          <Node pos="r" depth="2" NCoef="0" IVar="-1" Cut="2.8742516040802002e+00" cType="0" res="-9.9000000000000000e+01" rms="0.0000000000000000e+00" purity="6.0853522270917892e-02" nType="-1"/>
        </Node>
      </Node>
    </BinaryTree>
    <BinaryTree type="DecisionTree" boostWeight="3.1642075471350110e-02" itree="37">
      <Node pos="s" depth="0" NCoef="0" IVar="2" Cut="2.3162609338760376e-01" cType="1" res="-9.9000000000000000e+01" rms="0.0000000000000000e+00" purity="4.2243963479995728e-01" nType="0">
        <Node pos="l" depth="1" NCoef="0" IVar="-1" Cut="8.2993388175964355e-01" cType="1" res="-9.9000000000000000e+01" rms="0.0000000000000000e+00" purity="4.7836109995841980e-01" nType="-1"/>
        <Node pos="r" depth="1" NCoef="0" IVar="10" Cut="5.1138311624526978e-01" cType="0" res="-9.9000000000000000e+01" rms="0.0000000000000000e+00" purity="1.1670070886611938e-01" nType="0">
          <Node pos="l" depth="2" NCoef="0" IVar="4" Cut="-3.8079180717468262e+00" cType="0" res="-9.9000000000000000e+01" rms="0.0000000000000000e+00" purity="3.3302056789398193e-01" nType="0">
            <Node pos="l" depth="3" NCoef="0" IVar="-1" Cut="0.0000000000000000e+00" cType="1" res="-9.9000000000000000e+01" rms="0.0000000000000000e+00" purity="5.5893212556838989e-01" nType="1"/>
            <Node pos="r" depth="3" NCoef="0" IVar="-1" Cut="0.0000000000000000e+00" cType="1" res="-9.9000000000000000e+01" rms="0.0000000000000000e+00" purity="2.5879958271980286e-01" nType="-1"/>
          </Node>
          <Node pos="r" depth="2" NCoef="0" IVar="-1" Cut="2.8742516040802002e+00" cType="0" res="-9.9000000000000000e+01" rms="0.0000000000000000e+00" purity="6.3367962837219238e-02" nType="-1"/>
        </Node>
      </Node>
    </BinaryTree>
    <BinaryTree type="DecisionTree" boostWeight="3.0723291179937714e-02" itree="38">
      <Node pos="s" depth="0" NCoef="0" IVar="2" Cut="2.3162609338760376e-01" cType="1" res="-9.9000000000000000e+01" rms="0.0000000000000000e+00" purity="4.3005627393722534e-01" nType="0">
        <Node pos="l" depth="1" NCoef="0" IVar="8" Cut="8.2993388175964355e-01" cType="1" res="-9.9000000000000000e+01" rms="0.0000000000000000e+00" purity="4.8626151680946350e-01" nType="0">
          <Node pos="l" depth="2" NCoef="0" IVar="0" Cut="7.0569114685058594e+01" cType="1" res="-9.9000000000000000e+01" rms="0.0000000000000000e+00" purity="4.9430051445960999e-01" nType="0">
            <Node pos="l" depth="3" NCoef="0" IVar="-1" Cut="0.0000000000000000e+00" cType="1" res="-9.9000000000000000e+01" rms="0.0000000000000000e+00" purity="5.0398039817810059e-01" nType="1"/>
            <Node pos="r" depth="3" NCoef="0" IVar="-1" Cut="0.0000000000000000e+00" cType="1" res="-9.9000000000000000e+01" rms="0.0000000000000000e+00" purity="3.1957387924194336e-01" nType="-1"/>
          </Node>
          <Node pos="r" depth="2" NCoef="0" IVar="-1" Cut="-5.0485072135925293e+00" cType="1" res="-9.9000000000000000e+01" rms="0.0000000000000000e+00" purity="7.3959223926067352e-02" nType="-1"/>
        </Node>
        <Node pos="r" depth="1" NCoef="0" IVar="-1" Cut="5.1138311624526978e-01" cType="0" res="-9.9000000000000000e+01" rms="0.0000000000000000e+00" purity="1.1914862692356110e-01" nType="-1"/>
      </Node>
    </BinaryTree>
    <BinaryTree type="DecisionTree" boostWeight="4.4831037337903328e-02" itree="39">
      <Node pos="s" depth="0" NCoef="0" IVar="10" Cut="4.3754586577415466e-01" cType="0" res="-9.9000000000000000e+01" rms="0.0000000000000000e+00" purity="4.2547187209129333e-01" nType="0">
        <Node pos="l" depth="1" NCoef="0" IVar="2" Cut="3.4481741487979889e-02" cType="1" res="-9.9000000000000000e+01" rms="0.0000000000000000e+00" purity="4.7728428244590759e-01" nType="0">
          <Node pos="l" depth="2" NCoef="0" IVar="0" Cut="3.1670799255371094e+01" cType="0" res="-9.9000000000000000e+01" rms="0.0000000000000000e+00" purity="5.0310891866683960e-01" nType="0">
            <Node pos="l" depth="3" NCoef="0" IVar="-1" Cut="0.0000000000000000e+00" cType="1" res="-9.9000000000000000e+01" rms="0.0000000000000000e+00" purity="5.4862970113754272e-01" nType="1"/>
            <Node pos="r" depth="3" NCoef="0" IVar="-1" Cut="0.0000000000000000e+00" cType="1" res="-9.9000000000000000e+01" rms="0.0000000000000000e+00" purity="4.5474505424499512e-01" nType="-1"/>
          </Node>
          <Node pos="r" depth="2" NCoef="0" IVar="-1" Cut="4.3092721700668335e-01" cType="1" res="-9.9000000000000000e+01" rms="0.0000000000000000e+00" purity="3.5256135463714600e-01" nType="-1"/>
        </Node>
        <Node pos="r" depth="1" NCoef="0" IVar="-1" Cut="7.7208697795867920e-02" cType="1" res="-9.9000000000000000e+01" rms="0.0000000000000000e+00" purity="1.0639708489179611e-01" nType="-1"/>
      </Node>
    </BinaryTree>
    <BinaryTree type="DecisionTree" boostWeight="3.1178886899923361e-02" itree="40">
      <Node pos="s" depth="0" NCoef="0" IVar="10" Cut="4.3754586577415466e-01" cType="0" res="-9.9000000000000000e+01" rms="0.0000000000000000e+00" purity="4.2809382081031799e-01" nType="0">
        <Node pos="l" depth="1" NCoef="0" IVar="8" Cut="8.2993388175964355e-01" cType="1" res="-9.9000000000000000e+01" rms="0.0000000000000000e+00" purity="4.7886455059051514e-01" nType="0">
          <Node pos="l" depth="2" NCoef="0" IVar="0" Cut="5.2046024322509766e+01" cType="1" res="-9.9000000000000000e+01" rms="0.0000000000000000e+00" purity="4.8657417297363281e-01" nType="0">
            <Node pos="l" depth="3" NCoef="0" IVar="-1" Cut="0.0000000000000000e+00" cType="1" res="-9.9000000000000000e+01" rms="0.0000000000000000e+00" purity="5.0367677211761475e-01" nType="1"/>
            <Node pos="r" depth="3" NCoef="0" IVar="-1" Cut="0.0000000000000000e+00" cType="1" res="-9.9000000000000000e+01" rms="0.0000000000000000e+00" purity="3.7180072069168091e-01" nType="-1"/>
          </Node>
          <Node pos="r" depth="2" NCoef="0" IVar="-1" Cut="5.1483880728483200e-02" cType="1" res="-9.9000000000000000e+01" rms="0.0000000000000000e+00" purity="6.7828737199306488e-02" nType="-1"/>
        </Node>
        <Node pos="r" depth="1" NCoef="0" IVar="-1" Cut="7.7208697795867920e-02" cType="1" res="-9.9000000000000000e+01" rms="0.0000000000000000e+00" purity="1.1073529720306396e-01" nType="-1"/>
      </Node>
    </BinaryTree>
    <BinaryTree type="DecisionTree" boostWeight="3.0545284598366591e-02" itree="41">
      <Node pos="s" depth="0" NCoef="0" IVar="-1" Cut="2.3162609338760376e-01" cType="1" res="-9.9000000000000000e+01" rms="0.0000000000000000e+00" purity="4.2422503232955933e-01" nType="-1"/>
    </BinaryTree>
    <BinaryTree type="DecisionTree" boostWeight="2.8470717270187129e-02" itree="42">
      <Node pos="s" depth="0" NCoef="0" IVar="2" Cut="2.3162609338760376e-01" cType="1" res="-9.9000000000000000e+01" rms="0.0000000000000000e+00" purity="4.3170270323753357e-01" nType="0">
        <Node pos="l" depth="1" NCoef="0" IVar="8" Cut="8.2993388175964355e-01" cType="1" res="-9.9000000000000000e+01" rms="0.0000000000000000e+00" purity="4.8362967371940613e-01" nType="0">
          <Node pos="l" depth="2" NCoef="0" IVar="3" Cut="2.6019871234893799e-01" cType="1" res="-9.9000000000000000e+01" rms="0.0000000000000000e+00" purity="4.9107328057289124e-01" nType="0">
            <Node pos="l" depth="3" NCoef="0" IVar="-1" Cut="0.0000000000000000e+00" cType="1" res="-9.9000000000000000e+01" rms="0.0000000000000000e+00" purity="5.0154525041580200e-01" nType="1"/>
            <Node pos="r" depth="3" NCoef="0" IVar="-1" Cut="0.0000000000000000e+00" cType="1" res="-9.9000000000000000e+01" rms="0.0000000000000000e+00" purity="3.5460683703422546e-01" nType="-1"/>
          </Node>
          <Node pos="r" depth="2" NCoef="0" IVar="-1" Cut="-5.0485072135925293e+00" cType="1" res="-9.9000000000000000e+01" rms="0.0000000000000000e+00" purity="8.2494594156742096e-02" nType="-1"/>
        </Node>
        <Node pos="r" depth="1" NCoef="0" IVar="-1" Cut="5.1138311624526978e-01" cType="0" res="-9.9000000000000000e+01" rms="0.0000000000000000e+00" purity="1.3138225674629211e-01" nType="-1"/>
      </Node>
    </BinaryTree>
    <BinaryTree type="DecisionTree" boostWeight="2.9352474634379285e-02" itree="43">
      <Node pos="s" depth="0" NCoef="0" IVar="10" Cut="4.3754586577415466e-01" cType="0" res="-9.9000000000000000e+01" rms="0.0000000000000000e+00" purity="4.2760843038558960e-01" nType="0">
        <Node pos="l" depth="1" NCoef="0" IVar="8" Cut="8.7581962347030640e-01" cType="1" res="-9.9000000000000000e+01" rms="0.0000000000000000e+00" purity="4.7549054026603699e-01" nType="0">
          <Node pos="l" depth="2" NCoef="0" IVar="2" Cut="3.4481741487979889e-02" cType="1" res="-9.9000000000000000e+01" rms="0.0000000000000000e+00" purity="4.8235952854156494e-01" nType="0">
            <Node pos="l" depth="3" NCoef="0" IVar="-1" Cut="0.0000000000000000e+00" cType="1" res="-9.9000000000000000e+01" rms="0.0000000000000000e+00" purity="5.0032687187194824e-01" nType="1"/>
            <Node pos="r" depth="3" NCoef="0" IVar="-1" Cut="0.0000000000000000e+00" cType="1" res="-9.9000000000000000e+01" rms="0.0000000000000000e+00" purity="3.8890486955642700e-01" nType="-1"/>
          </Node>
          <Node pos="r" depth="2" NCoef="0" IVar="-1" Cut="7.2823226451873779e-02" cType="1" res="-9.9000000000000000e+01" rms="0.0000000000000000e+00" purity="4.8874258995056152e-02" nType="-1"/>
        </Node>
        <Node pos="r" depth="1" NCoef="0" IVar="-1" Cut="7.7208697795867920e-02" cType="1" res="-9.9000000000000000e+01" rms="0.0000000000000000e+00" purity="1.1853523552417755e-01" nType="-1"/>
      </Node>
    </BinaryTree>
    <BinaryTree type="DecisionTree" boostWeight="3.0516491890048937e-02" itree="44">
      <Node pos="s" depth="0" NCoef="0" IVar="-1" Cut="4.3754586577415466e-01" cType="0" res="-9.9000000000000000e+01" rms="0.0000000000000000e+00" purity="4.2429536581039429e-01" nType="-1"/>
    </BinaryTree>
    <BinaryTree type="DecisionTree" boostWeight="2.7464842700652411e-02" itree="45">
      <Node pos="s" depth="0" NCoef="0" IVar="-1" Cut="4.3754586577415466e-01" cType="0" res="-9.9000000000000000e+01" rms="0.0000000000000000e+00" purity="4.3176627159118652e-01" nType="-1"/>
    </BinaryTree>
    <BinaryTree type="DecisionTree" boostWeight="2.5694738029598901e-02" itree="46">
      <Node pos="s" depth="0" NCoef="0" IVar="10" Cut="4.3754586577415466e-01" cType="0" res="-9.9000000000000000e+01" rms="0.0000000000000000e+00" purity="4.3851682543754578e-01" nType="0">
        <Node pos="l" depth="1" NCoef="0" IVar="8" Cut="8.7581962347030640e-01" cType="1" res="-9.9000000000000000e+01" rms="0.0000000000000000e+00" purity="4.8515895009040833e-01" nType="0">
          <Node pos="l" depth="2" NCoef="0" IVar="0" Cut="7.0569030761718750e+01" cType="1" res="-9.9000000000000000e+01" rms="0.0000000000000000e+00" purity="4.9185687303543091e-01" nType="0">
            <Node pos="l" depth="3" NCoef="0" IVar="-1" Cut="0.0000000000000000e+00" cType="1" res="-9.9000000000000000e+01" rms="0.0000000000000000e+00" purity="5.0148344039916992e-01" nType="1"/>
            <Node pos="r" depth="3" NCoef="0" IVar="-1" Cut="0.0000000000000000e+00" cType="1" res="-9.9000000000000000e+01" rms="0.0000000000000000e+00" purity="3.2372874021530151e-01" nType="-1"/>
          </Node>
          <Node pos="r" depth="2" NCoef="0" IVar="-1" Cut="7.7374674379825592e-02" cType="1" res="-9.9000000000000000e+01" rms="0.0000000000000000e+00" purity="5.3097739815711975e-02" nType="-1"/>
        </Node>
        <Node pos="r" depth="1" NCoef="0" IVar="-1" Cut="7.7208697795867920e-02" cType="1" res="-9.9000000000000000e+01" rms="0.0000000000000000e+00" purity="1.2796854972839355e-01" nType="-1"/>
      </Node>
    </BinaryTree>
    <BinaryTree type="DecisionTree" boostWeight="2.7100549297517179e-02" itree="47">
      <Node pos="s" depth="0" NCoef="0" IVar="2" Cut="2.7023044228553772e-01" cType="1" res="-9.9000000000000000e+01" rms="0.0000000000000000e+00" purity="4.3442952632904053e-01" nType="0">
        <Node pos="l" depth="1" NCoef="0" IVar="-1" Cut="7.4414741992950439e-01" cType="1" res="-9.9000000000000000e+01" rms="0.0000000000000000e+00" purity="4.8071083426475525e-01" nType="-1"/>
        <Node pos="r" depth="1" NCoef="0" IVar="10" Cut="5.1364511251449585e-01" cType="0" res="-9.9000000000000000e+01" rms="0.0000000000000000e+00" purity="1.3577196002006531e-01" nType="0">
          <Node pos="l" depth="2" NCoef="0" IVar="4" Cut="-4.0858306884765625e+00" cType="0" res="-9.9000000000000000e+01" rms="0.0000000000000000e+00" purity="3.8127765059471130e-01" nType="0">
            <Node pos="l" depth="3" NCoef="0" IVar="-1" Cut="0.0000000000000000e+00" cType="1" res="-9.9000000000000000e+01" rms="0.0000000000000000e+00" purity="6.1127400398254395e-01" nType="1"/>
            <Node pos="r" depth="3" NCoef="0" IVar="-1" Cut="0.0000000000000000e+00" cType="1" res="-9.9000000000000000e+01" rms="0.0000000000000000e+00" purity="2.7938541769981384e-01" nType="-1"/>
          </Node>
          <Node pos="r" depth="2" NCoef="0" IVar="-1" Cut="2.8742516040802002e+00" cType="0" res="-9.9000000000000000e+01" rms="0.0000000000000000e+00" purity="7.7056549489498138e-02" nType="-1"/>
        </Node>
      </Node>
    </BinaryTree>
    <BinaryTree type="DecisionTree" boostWeight="2.6328173837697144e-02" itree="48">
      <Node pos="s" depth="0" NCoef="0" IVar="2" Cut="2.7023044228553772e-01" cType="1" res="-9.9000000000000000e+01" rms="0.0000000000000000e+00" purity="4.4098886847496033e-01" nType="0">
        <Node pos="l" depth="1" NCoef="0" IVar="8" Cut="7.4414741992950439e-01" cType="1" res="-9.9000000000000000e+01" rms="0.0000000000000000e+00" purity="4.8747897148132324e-01" nType="0">
          <Node pos="l" depth="2" NCoef="0" IVar="0" Cut="7.7978317260742188e+01" cType="1" res="-9.9000000000000000e+01" rms="0.0000000000000000e+00" purity="4.9578580260276794e-01" nType="0">
            <Node pos="l" depth="3" NCoef="0" IVar="-1" Cut="0.0000000000000000e+00" cType="1" res="-9.9000000000000000e+01" rms="0.0000000000000000e+00" purity="5.0294083356857300e-01" nType="1"/>
            <Node pos="r" depth="3" NCoef="0" IVar="-1" Cut="0.0000000000000000e+00" cType="1" res="-9.9000000000000000e+01" rms="0.0000000000000000e+00" purity="3.1919735670089722e-01" nType="-1"/>
          </Node>
          <Node pos="r" depth="2" NCoef="0" IVar="-1" Cut="-5.2332420349121094e+00" cType="1" res="-9.9000000000000000e+01" rms="0.0000000000000000e+00" purity="1.2837031483650208e-01" nType="-1"/>
        </Node>
        <Node pos="r" depth="1" NCoef="0" IVar="10" Cut="5.1364511251449585e-01" cType="0" res="-9.9000000000000000e+01" rms="0.0000000000000000e+00" purity="1.3804189860820770e-01" nType="0">
          <Node pos="l" depth="2" NCoef="0" IVar="4" Cut="-4.1553092002868652e+00" cType="0" res="-9.9000000000000000e+01" rms="0.0000000000000000e+00" purity="3.8330104947090149e-01" nType="0">
            <Node pos="l" depth="3" NCoef="0" IVar="-1" Cut="0.0000000000000000e+00" cType="1" res="-9.9000000000000000e+01" rms="0.0000000000000000e+00" purity="6.0052251815795898e-01" nType="1"/>
            <Node pos="r" depth="3" NCoef="0" IVar="-1" Cut="0.0000000000000000e+00" cType="1" res="-9.9000000000000000e+01" rms="0.0000000000000000e+00" purity="2.8276267647743225e-01" nType="-1"/>
          </Node>
          <Node pos="r" depth="2" NCoef="0" IVar="-1" Cut="2.8742516040802002e+00" cType="0" res="-9.9000000000000000e+01" rms="0.0000000000000000e+00" purity="7.9006135463714600e-02" nType="-1"/>
        </Node>
      </Node>
    </BinaryTree>
    <BinaryTree type="DecisionTree" boostWeight="2.9055454660322524e-02" itree="49">
      <Node pos="s" depth="0" NCoef="0" IVar="10" Cut="4.3754586577415466e-01" cType="0" res="-9.9000000000000000e+01" rms="0.0000000000000000e+00" purity="4.3663418292999268e-01" nType="0">
        <Node pos="l" depth="1" NCoef="0" IVar="8" Cut="8.7581962347030640e-01" cType="1" res="-9.9000000000000000e+01" rms="0.0000000000000000e+00" purity="4.8084518313407898e-01" nType="0">
          <Node pos="l" depth="2" NCoef="0" IVar="3" Cut="5.2549287676811218e-02" cType="1" res="-9.9000000000000000e+01" rms="0.0000000000000000e+00" purity="4.8721328377723694e-01" nType="0">
            <Node pos="l" depth="3" NCoef="0" IVar="-1" Cut="0.0000000000000000e+00" cType="1" res="-9.9000000000000000e+01" rms="0.0000000000000000e+00" purity="5.0631654262542725e-01" nType="1"/>
            <Node pos="r" depth="3" NCoef="0" IVar="-1" Cut="0.0000000000000000e+00" cType="1" res="-9.9000000000000000e+01" rms="0.0000000000000000e+00" purity="4.0712949633598328e-01" nType="-1"/>
          </Node>
          <Node pos="r" depth="2" NCoef="0" IVar="-1" Cut="8.1926129758358002e-02" cType="1" res="-9.9000000000000000e+01" rms="0.0000000000000000e+00" purity="5.7014476507902145e-02" nType="-1"/>
        </Node>
        <Node pos="r" depth="1" NCoef="0" IVar="-1" Cut="7.7208697795867920e-02" cType="1" res="-9.9000000000000000e+01" rms="0.0000000000000000e+00" purity="1.3453492522239685e-01" nType="-1"/>
      </Node>
    </BinaryTree>
    <BinaryTree type="DecisionTree" boostWeight="2.7318572467597425e-02" itree="50">
      <Node pos="s" depth="0" NCoef="0" IVar="2" Cut="2.7023044228553772e-01" cType="1" res="-9.9000000000000000e+01" rms="0.0000000000000000e+00" purity="4.3367844820022583e-01" nType="0">
        <Node pos="l" depth="1" NCoef="0" IVar="-1" Cut="3.9102652668952942e-01" cType="1" res="-9.9000000000000000e+01" rms="0.0000000000000000e+00" purity="4.7753661870956421e-01" nType="-1"/>
        <Node pos="r" depth="1" NCoef="0" IVar="10" Cut="5.1364511251449585e-01" cType="0" res="-9.9000000000000000e+01" rms="0.0000000000000000e+00" purity="1.4237751066684723e-01" nType="0">
          <Node pos="l" depth="2" NCoef="0" IVar="4" Cut="-4.1553092002868652e+00" cType="0" res="-9.9000000000000000e+01" rms="0.0000000000000000e+00" purity="3.8665071129798889e-01" nType="0">
            <Node pos="l" depth="3" NCoef="0" IVar="-1" Cut="0.0000000000000000e+00" cType="1" res="-9.9000000000000000e+01" rms="0.0000000000000000e+00" purity="5.9520143270492554e-01" nType="1"/>
            <Node pos="r" depth="3" NCoef="0" IVar="-1" Cut="0.0000000000000000e+00" cType="1" res="-9.9000000000000000e+01" rms="0.0000000000000000e+00" purity="2.8952437639236450e-01" nType="-1"/>
          </Node>
          <Node pos="r" depth="2" NCoef="0" IVar="-1" Cut="2.8742516040802002e+00" cType="0" res="-9.9000000000000000e+01" rms="0.0000000000000000e+00" purity="8.2752116024494171e-02" nType="-1"/>
        </Node>
      </Node>
    </BinaryTree>
    <BinaryTree type="DecisionTree" boostWeight="2.6888082993227803e-02" itree="51">
      <Node pos="s" depth="0" NCoef="0" IVar="2" Cut="2.7023044228553772e-01" cType="1" res="-9.9000000000000000e+01" rms="0.0000000000000000e+00" purity="4.4028553366661072e-01" nType="0">
        <Node pos="l" depth="1" NCoef="0" IVar="8" Cut="3.9102652668952942e-01" cType="1" res="-9.9000000000000000e+01" rms="0.0000000000000000e+00" purity="4.8435622453689575e-01" nType="0">
          <Node pos="l" depth="2" NCoef="0" IVar="0" Cut="7.4273719787597656e+01" cType="1" res="-9.9000000000000000e+01" rms="0.0000000000000000e+00" purity="4.9731820821762085e-01" nType="0">
            <Node pos="l" depth="3" NCoef="0" IVar="-1" Cut="0.0000000000000000e+00" cType="1" res="-9.9000000000000000e+01" rms="0.0000000000000000e+00" purity="5.0453460216522217e-01" nType="1"/>
            <Node pos="r" depth="3" NCoef="0" IVar="-1" Cut="0.0000000000000000e+00" cType="1" res="-9.9000000000000000e+01" rms="0.0000000000000000e+00" purity="3.4371116757392883e-01" nType="-1"/>
          </Node>
          <Node pos="r" depth="2" NCoef="0" IVar="-1" Cut="1.9960079807788134e-03" cType="0" res="-9.9000000000000000e+01" rms="0.0000000000000000e+00" purity="2.7240374684333801e-01" nType="-1"/>
        </Node>
        <Node pos="r" depth="1" NCoef="0" IVar="-1" Cut="5.1364511251449585e-01" cType="0" res="-9.9000000000000000e+01" rms="0.0000000000000000e+00" purity="1.4476975798606873e-01" nType="-1"/>
      </Node>
    </BinaryTree>
    <BinaryTree type="DecisionTree" boostWeight="2.5593556206289326e-02" itree="52">
      <Node pos="s" depth="0" NCoef="0" IVar="-1" Cut="4.2103472352027893e-01" cType="0" res="-9.9000000000000000e+01" rms="0.0000000000000000e+00" purity="4.3636310100555420e-01" nType="-1"/>
    </BinaryTree>
    <BinaryTree type="DecisionTree" boostWeight="2.3235822349173117e-02" itree="53">
      <Node pos="s" depth="0" NCoef="0" IVar="10" Cut="4.2103472352027893e-01" cType="0" res="-9.9000000000000000e+01" rms="0.0000000000000000e+00" purity="4.4266775250434875e-01" nType="0">
        <Node pos="l" depth="1" NCoef="0" IVar="8" Cut="8.7581962347030640e-01" cType="1" res="-9.9000000000000000e+01" rms="0.0000000000000000e+00" purity="4.8302295804023743e-01" nType="0">
          <Node pos="l" depth="2" NCoef="0" IVar="3" Cut="2.2070699930191040e-01" cType="1" res="-9.9000000000000000e+01" rms="0.0000000000000000e+00" purity="4.8961439728736877e-01" nType="0">
            <Node pos="l" depth="3" NCoef="0" IVar="-1" Cut="0.0000000000000000e+00" cType="1" res="-9.9000000000000000e+01" rms="0.0000000000000000e+00" purity="5.0031149387359619e-01" nType="1"/>
            <Node pos="r" depth="3" NCoef="0" IVar="-1" Cut="0.0000000000000000e+00" cType="1" res="-9.9000000000000000e+01" rms="0.0000000000000000e+00" purity="3.7241142988204956e-01" nType="-1"/>
          </Node>
          <Node pos="r" depth="2" NCoef="0" IVar="-1" Cut="7.7374674379825592e-02" cType="1" res="-9.9000000000000000e+01" rms="0.0000000000000000e+00" purity="6.1965219676494598e-02" nType="-1"/>
        </Node>
        <Node pos="r" depth="1" NCoef="0" IVar="-1" Cut="3.4743914008140564e-01" cType="1" res="-9.9000000000000000e+01" rms="0.0000000000000000e+00" purity="1.3222281634807587e-01" nType="-1"/>
      </Node>
    </BinaryTree>
    <BinaryTree type="DecisionTree" boostWeight="3.2914042015552848e-02" itree="54">
      <Node pos="s" depth="0" NCoef="0" IVar="2" Cut="2.7023044228553772e-01" cType="1" res="-9.9000000000000000e+01" rms="0.0000000000000000e+00" purity="4.3911880254745483e-01" nType="0">
        <Node pos="l" depth="1" NCoef="0" IVar="8" Cut="8.2993388175964355e-01" cType="1" res="-9.9000000000000000e+01" rms="0.0000000000000000e+00" purity="4.8079901933670044e-01" nType="0">
          <Node pos="l" depth="2" NCoef="0" IVar="8" Cut="5.7955376803874969e-02" cType="1" res="-9.9000000000000000e+01" rms="0.0000000000000000e+00" purity="4.8748019337654114e-01" nType="0">
            <Node pos="l" depth="3" NCoef="0" IVar="-1" Cut="0.0000000000000000e+00" cType="1" res="-9.9000000000000000e+01" rms="0.0000000000000000e+00" purity="5.2640223503112793e-01" nType="1"/>
            <Node pos="r" depth="3" NCoef="0" IVar="-1" Cut="0.0000000000000000e+00" cType="1" res="-9.9000000000000000e+01" rms="0.0000000000000000e+00" purity="4.5481973886489868e-01" nType="-1"/>
          </Node>
          <Node pos="r" depth="2" NCoef="0" IVar="-1" Cut="-5.0485072135925293e+00" cType="1" res="-9.9000000000000000e+01" rms="0.0000000000000000e+00" purity="1.0088261216878891e-01" nType="-1"/>
        </Node>
        <Node pos="r" depth="1" NCoef="0" IVar="-1" Cut="5.1364511251449585e-01" cType="0" res="-9.9000000000000000e+01" rms="0.0000000000000000e+00" purity="1.5266661345958710e-01" nType="-1"/>
      </Node>
    </BinaryTree>
    <BinaryTree type="DecisionTree" boostWeight="2.3813332905111118e-02" itree="55">
      <Node pos="s" depth="0" NCoef="0" IVar="-1" Cut="4.2103472352027893e-01" cType="0" res="-9.9000000000000000e+01" rms="0.0000000000000000e+00" purity="4.4074639678001404e-01" nType="-1"/>
    </BinaryTree>
    <BinaryTree type="DecisionTree" boostWeight="2.5076929519659043e-02" itree="56">
      <Node pos="s" depth="0" NCoef="0" IVar="10" Cut="4.2103472352027893e-01" cType="0" res="-9.9000000000000000e+01" rms="0.0000000000000000e+00" purity="4.4662413001060486e-01" nType="0">
        <Node pos="l" depth="1" NCoef="0" IVar="8" Cut="8.7581962347030640e-01" cType="1" res="-9.9000000000000000e+01" rms="0.0000000000000000e+00" purity="4.8542168736457825e-01" nType="0">
          <Node pos="l" depth="2" NCoef="0" IVar="0" Cut="5.2046024322509766e+01" cType="1" res="-9.9000000000000000e+01" rms="0.0000000000000000e+00" purity="4.9176153540611267e-01" nType="0">
            <Node pos="l" depth="3" NCoef="0" IVar="-1" Cut="0.0000000000000000e+00" cType="1" res="-9.9000000000000000e+01" rms="0.0000000000000000e+00" purity="5.0588583946228027e-01" nType="1"/>
            <Node pos="r" depth="3" NCoef="0" IVar="-1" Cut="0.0000000000000000e+00" cType="1" res="-9.9000000000000000e+01" rms="0.0000000000000000e+00" purity="3.9429271221160889e-01" nType="-1"/>
          </Node>
          <Node pos="r" depth="2" NCoef="0" IVar="-1" Cut="8.1926129758358002e-02" cType="1" res="-9.9000000000000000e+01" rms="0.0000000000000000e+00" purity="6.6779173910617828e-02" nType="-1"/>
        </Node>
        <Node pos="r" depth="1" NCoef="0" IVar="-1" Cut="3.4743914008140564e-01" cType="1" res="-9.9000000000000000e+01" rms="0.0000000000000000e+00" purity="1.4021649956703186e-01" nType="-1"/>
      </Node>
    </BinaryTree>
    <BinaryTree type="DecisionTree" boostWeight="2.6224677243098012e-02" itree="57">
      <Node pos="s" depth="0" NCoef="0" IVar="2" Cut="2.7023044228553772e-01" cType="1" res="-9.9000000000000000e+01" rms="0.0000000000000000e+00" purity="4.4322913885116577e-01" nType="0">
        <Node pos="l" depth="1" NCoef="0" IVar="8" Cut="8.7581962347030640e-01" cType="1" res="-9.9000000000000000e+01" rms="0.0000000000000000e+00" purity="4.8336261510848999e-01" nType="0">
          <Node pos="l" depth="2" NCoef="0" IVar="4" Cut="-4.8504848480224609e+00" cType="1" res="-9.9000000000000000e+01" rms="0.0000000000000000e+00" purity="4.8937171697616577e-01" nType="0">
            <Node pos="l" depth="3" NCoef="0" IVar="-1" Cut="0.0000000000000000e+00" cType="1" res="-9.9000000000000000e+01" rms="0.0000000000000000e+00" purity="5.0602990388870239e-01" nType="1"/>
            <Node pos="r" depth="3" NCoef="0" IVar="-1" Cut="0.0000000000000000e+00" cType="1" res="-9.9000000000000000e+01" rms="0.0000000000000000e+00" purity="4.1878071427345276e-01" nType="-1"/>
          </Node>
          <Node pos="r" depth="2" NCoef="0" IVar="-1" Cut="-4.7159848213195801e+00" cType="1" res="-9.9000000000000000e+01" rms="0.0000000000000000e+00" purity="8.2002289593219757e-02" nType="-1"/>
        </Node>
        <Node pos="r" depth="1" NCoef="0" IVar="-1" Cut="5.1364511251449585e-01" cType="0" res="-9.9000000000000000e+01" rms="0.0000000000000000e+00" purity="1.6068673133850098e-01" nType="-1"/>
      </Node>
    </BinaryTree>
    <BinaryTree type="DecisionTree" boostWeight="2.3900534006542493e-02" itree="58">
      <Node pos="s" depth="0" NCoef="0" IVar="-1" Cut="4.2103472352027893e-01" cType="0" res="-9.9000000000000000e+01" rms="0.0000000000000000e+00" purity="4.4053146243095398e-01" nType="-1"/>
    </BinaryTree>
    <BinaryTree type="DecisionTree" boostWeight="2.2726378194694516e-02" itree="59">
      <Node pos="s" depth="0" NCoef="0" IVar="10" Cut="4.2103472352027893e-01" cType="0" res="-9.9000000000000000e+01" rms="0.0000000000000000e+00" purity="4.4643017649650574e-01" nType="0">
        <Node pos="l" depth="1" NCoef="0" IVar="8" Cut="8.7581962347030640e-01" cType="1" res="-9.9000000000000000e+01" rms="0.0000000000000000e+00" purity="4.8334258794784546e-01" nType="0">
          <Node pos="l" depth="2" NCoef="0" IVar="0" Cut="5.2046024322509766e+01" cType="1" res="-9.9000000000000000e+01" rms="0.0000000000000000e+00" purity="4.8938658833503723e-01" nType="0">
            <Node pos="l" depth="3" NCoef="0" IVar="-1" Cut="0.0000000000000000e+00" cType="1" res="-9.9000000000000000e+01" rms="0.0000000000000000e+00" purity="5.0195872783660889e-01" nType="1"/>
            <Node pos="r" depth="3" NCoef="0" IVar="-1" Cut="0.0000000000000000e+00" cType="1" res="-9.9000000000000000e+01" rms="0.0000000000000000e+00" purity="4.0227693319320679e-01" nType="-1"/>
          </Node>
          <Node pos="r" depth="2" NCoef="0" IVar="-1" Cut="9.1029033064842224e-02" cType="1" res="-9.9000000000000000e+01" rms="0.0000000000000000e+00" purity="7.1621216833591461e-02" nType="-1"/>
        </Node>
        <Node pos="r" depth="1" NCoef="0" IVar="-1" Cut="3.4743914008140564e-01" cType="1" res="-9.9000000000000000e+01" rms="0.0000000000000000e+00" purity="1.4767575263977051e-01" nType="-1"/>
      </Node>
    </BinaryTree>
    <BinaryTree type="DecisionTree" boostWeight="2.9550347938302829e-02" itree="60">
      <Node pos="s" depth="0" NCoef="0" IVar="2" Cut="3.0883479118347168e-01" cType="1" res="-9.9000000000000000e+01" rms="0.0000000000000000e+00" purity="4.4332888722419739e-01" nType="0">
        <Node pos="l" depth="1" NCoef="0" IVar="8" Cut="8.2993388175964355e-01" cType="1" res="-9.9000000000000000e+01" rms="0.0000000000000000e+00" purity="4.8049744963645935e-01" nType="0">
          <Node pos="l" depth="2" NCoef="0" IVar="4" Cut="-5.7777276039123535e+00" cType="1" res="-9.9000000000000000e+01" rms="0.0000000000000000e+00" purity="4.8713582754135132e-01" nType="0">
            <Node pos="l" depth="3" NCoef="0" IVar="-1" Cut="0.0000000000000000e+00" cType="1" res="-9.9000000000000000e+01" rms="0.0000000000000000e+00" purity="5.1468664407730103e-01" nType="1"/>
            <Node pos="r" depth="3" NCoef="0" IVar="-1" Cut="0.0000000000000000e+00" cType="1" res="-9.9000000000000000e+01" rms="0.0000000000000000e+00" purity="4.5196998119354248e-01" nType="-1"/>
          </Node>
          <Node pos="r" depth="2" NCoef="0" IVar="-1" Cut="-5.0485072135925293e+00" cType="1" res="-9.9000000000000000e+01" rms="0.0000000000000000e+00" purity="1.0557102411985397e-01" nType="-1"/>
        </Node>
        <Node pos="r" depth="1" NCoef="0" IVar="10" Cut="5.4544740915298462e-01" cType="0" res="-9.9000000000000000e+01" rms="0.0000000000000000e+00" purity="1.5937225520610809e-01" nType="0">
          <Node pos="l" depth="2" NCoef="0" IVar="4" Cut="-4.8682546615600586e+00" cType="0" res="-9.9000000000000000e+01" rms="0.0000000000000000e+00" purity="4.6882903575897217e-01" nType="0">
            <Node pos="l" depth="3" NCoef="0" IVar="-1" Cut="0.0000000000000000e+00" cType="1" res="-9.9000000000000000e+01" rms="0.0000000000000000e+00" purity="6.5226179361343384e-01" nType="1"/>
            <Node pos="r" depth="3" NCoef="0" IVar="-1" Cut="0.0000000000000000e+00" cType="1" res="-9.9000000000000000e+01" rms="0.0000000000000000e+00" purity="3.2358071208000183e-01" nType="-1"/>
          </Node>
          <Node pos="r" depth="2" NCoef="0" IVar="-1" Cut="-1.3897649049758911e+00" cType="0" res="-9.9000000000000000e+01" rms="0.0000000000000000e+00" purity="1.0406877100467682e-01" nType="-1"/>
        </Node>
      </Node>
    </BinaryTree>
    <BinaryTree type="DecisionTree" boostWeight="2.3146031418193280e-02" itree="61">
      <Node pos="s" depth="0" NCoef="0" IVar="10" Cut="4.1277912259101868e-01" cType="0" res="-9.9000000000000000e+01" rms="0.0000000000000000e+00" purity="4.4328069686889648e-01" nType="0">
        <Node pos="l" depth="1" NCoef="0" IVar="8" Cut="8.7581962347030640e-01" cType="1" res="-9.9000000000000000e+01" rms="0.0000000000000000e+00" purity="4.7784164547920227e-01" nType="0">
          <Node pos="l" depth="2" NCoef="0" IVar="2" Cut="2.0928801968693733e-02" cType="1" res="-9.9000000000000000e+01" rms="0.0000000000000000e+00" purity="4.8391053080558777e-01" nType="0">
            <Node pos="l" depth="3" NCoef="0" IVar="-1" Cut="0.0000000000000000e+00" cType="1" res="-9.9000000000000000e+01" rms="0.0000000000000000e+00" purity="5.0063550472259521e-01" nType="1"/>
            <Node pos="r" depth="3" NCoef="0" IVar="-1" Cut="0.0000000000000000e+00" cType="1" res="-9.9000000000000000e+01" rms="0.0000000000000000e+00" purity="4.2007750272750854e-01" nType="-1"/>
          </Node>
          <Node pos="r" depth="2" NCoef="0" IVar="-1" Cut="9.1029033064842224e-02" cType="1" res="-9.9000000000000000e+01" rms="0.0000000000000000e+00" purity="7.1948081254959106e-02" nType="-1"/>
        </Node>
        <Node pos="r" depth="1" NCoef="0" IVar="-1" Cut="3.4743914008140564e-01" cType="1" res="-9.9000000000000000e+01" rms="0.0000000000000000e+00" purity="1.4633084833621979e-01" nType="-1"/>
      </Node>
    </BinaryTree>
    <BinaryTree type="DecisionTree" boostWeight="2.3752946879227157e-02" itree="62">
      <Node pos="s" depth="0" NCoef="0" IVar="-1" Cut="4.1277912259101868e-01" cType="0" res="-9.9000000000000000e+01" rms="0.0000000000000000e+00" purity="4.4089525938034058e-01" nType="-1"/>
    </BinaryTree>
    <BinaryTree type="DecisionTree" boostWeight="2.1377652190804553e-02" itree="63">
      <Node pos="s" depth="0" NCoef="0" IVar="-1" Cut="4.1277912259101868e-01" cType="0" res="-9.9000000000000000e+01" rms="0.0000000000000000e+00" purity="4.4675847887992859e-01" nType="-1"/>
    </BinaryTree>
    <BinaryTree type="DecisionTree" boostWeight="1.9239886971451254e-02" itree="64">
      <Node pos="s" depth="0" NCoef="0" IVar="-1" Cut="4.1277912259101868e-01" cType="0" res="-9.9000000000000000e+01" rms="0.0000000000000000e+00" purity="4.5204812288284302e-01" nType="-1"/>
    </BinaryTree>
    <BinaryTree type="DecisionTree" boostWeight="1.7315898274851235e-02" itree="65">
      <Node pos="s" depth="0" NCoef="0" IVar="-1" Cut="4.1277912259101868e-01" cType="0" res="-9.9000000000000000e+01" rms="0.0000000000000000e+00" purity="4.5681810379028320e-01" nType="-1"/>
    </BinaryTree>
