<?xml version="1.0"?>
<MethodSetup Method="BDT::BDTG">
  <GeneralInfo>
    <Info name="TMVA Release" value="4.2.1 [262657]"/>
    <Info name="ROOT Release" value="6.12/07 [396295]"/>
    <Info name="Creator" value="srudrabh"/>
    <Info name="Date" value="Wed Oct  7 06:46:01 2020"/>
    <Info name="Host" value="Linux cmsbuild66.cern.ch 2.6.32-696.30.1.el6.x86_64 #1 SMP Tue May 22 06:09:36 CEST 2018 x86_64 x86_64 x86_64 GNU/Linux"/>
    <Info name="Dir" value="/afs/cern.ch/work/s/srudrabh/ZH3l/CMSSW_10_2_0/src/LeptonMVA"/>
    <Info name="Training events" value="1121377"/>
    <Info name="TrainingTime" value="4.22105202e+02"/>
    <Info name="AnalysisType" value="Classification"/>
  </GeneralInfo>
  <Options>
    <Option name="V" modified="Yes">False</Option>
    <Option name="VerbosityLevel" modified="No">Default</Option>
    <Option name="VarTransform" modified="No">None</Option>
    <Option name="H" modified="Yes">False</Option>
    <Option name="CreateMVAPdfs" modified="No">False</Option>
    <Option name="IgnoreNegWeightsInTraining" modified="No">False</Option>
    <Option name="NTrees" modified="Yes">500</Option>
    <Option name="MaxDepth" modified="Yes">3</Option>
    <Option name="MinNodeSize" modified="Yes">0.5%</Option>
    <Option name="nCuts" modified="Yes">500</Option>
    <Option name="BoostType" modified="Yes">Grad</Option>
    <Option name="AdaBoostR2Loss" modified="No">quadratic</Option>
    <Option name="UseBaggedBoost" modified="Yes">True</Option>
    <Option name="Shrinkage" modified="Yes">5.000000e-02</Option>
    <Option name="AdaBoostBeta" modified="No">5.000000e-01</Option>
    <Option name="UseRandomisedTrees" modified="No">False</Option>
    <Option name="UseNvars" modified="No">3</Option>
    <Option name="UsePoissonNvars" modified="No">True</Option>
    <Option name="BaggedSampleFraction" modified="No">5.000000e-01</Option>
    <Option name="UseYesNoLeaf" modified="No">True</Option>
    <Option name="NegWeightTreatment" modified="No">pray</Option>
    <Option name="Css" modified="No">1.000000e+00</Option>
    <Option name="Cts_sb" modified="No">1.000000e+00</Option>
    <Option name="Ctb_ss" modified="No">1.000000e+00</Option>
    <Option name="Cbb" modified="No">1.000000e+00</Option>
    <Option name="NodePurityLimit" modified="No">5.000000e-01</Option>
    <Option name="SeparationType" modified="No">giniindex</Option>
    <Option name="RegressionLossFunctionBDTG" modified="No">huber</Option>
    <Option name="HuberQuantile" modified="No">7.000000e-01</Option>
    <Option name="DoBoostMonitor" modified="No">False</Option>
    <Option name="UseFisherCuts" modified="No">False</Option>
    <Option name="MinLinCorrForFisher" modified="No">8.000000e-01</Option>
    <Option name="UseExclusiveVars" modified="No">False</Option>
    <Option name="DoPreselection" modified="No">False</Option>
    <Option name="SigToBkgFraction" modified="No">1.000000e+00</Option>
    <Option name="PruneMethod" modified="No">nopruning</Option>
    <Option name="PruneStrength" modified="No">0.000000e+00</Option>
    <Option name="PruningValFraction" modified="No">5.000000e-01</Option>
    <Option name="SkipNormalization" modified="No">False</Option>
    <Option name="nEventsMin" modified="No">0</Option>
    <Option name="UseBaggedGrad" modified="No">False</Option>
    <Option name="GradBaggingFraction" modified="Yes">5.000000e-01</Option>
    <Option name="UseNTrainEvents" modified="No">0</Option>
    <Option name="NNodesMax" modified="No">0</Option>
  </Options>
  <Variables NVar="11">
    <Variable VarIndex="0" Expression="Electron_pt" Label="Electron_pt" Title="Electron_pt" Unit="F" Internal="Electron_pt" Type="F" Min="1.50000029e+01" Max="9.43002808e+02"/>
    <Variable VarIndex="1" Expression="Electron_eta" Label="Electron_eta" Title="Electron_eta" Unit="F" Internal="Electron_eta" Type="F" Min="-3.09716797e+00" Max="2.93896484e+00"/>
    <Variable VarIndex="2" Expression="Electron_miniPFRelIso_chg" Label="Electron_miniPFRelIso_chg" Title="Electron_miniPFRelIso_chg" Unit="F" Internal="Electron_miniPFRelIso_chg" Type="F" Min="0.00000000e+00" Max="1.93407784e+01"/>
    <Variable VarIndex="3" Expression="Electron_miniPFRelIso_all-Electron_miniPFRelIso_chg" Label="Electron_miniPFRelIso_neu" Title="Electron_miniPFRelIso_neu" Unit="F" Internal="Electron_miniPFRelIso_neu" Type="F" Min="0.00000000e+00" Max="2.10277233e+01"/>
    <Variable VarIndex="4" Expression="log(abs(Electron_dxy))" Label="Electron_dxy" Title="Electron_dxy" Unit="F" Internal="Electron_dxy" Type="F" Min="-1.87149734e+01" Max="3.65228033e+00"/>
    <Variable VarIndex="5" Expression="log(abs(Electron_dz))" Label="Electron_dz" Title="Electron_dz" Unit="F" Internal="Electron_dz" Type="F" Min="-2.10834007e+01" Max="5.16120815e+00"/>
    <Variable VarIndex="6" Expression="Electron_sip3d" Label="Electron_sip3d" Title="Electron_sip3d" Unit="F" Internal="Electron_sip3d" Type="F" Min="1.40666962e-03" Max="1.34320000e+04"/>
    <Variable VarIndex="7" Expression="Electron_mvaFall17V1Iso_WP90" Label="Electron_mvaFall17V1Iso_WP90" Title="Electron_mvaFall17V1Iso_WP90" Unit="F" Internal="Electron_mvaFall17V1Iso_WP90" Type="F" Min="0.00000000e+00" Max="1.00000000e+00"/>
    <Variable VarIndex="8" Expression="(Electron_jetIdx&gt;=0)*(Jet_btagDeepFlavB[max(Electron_jetIdx,0)])" Label="Jet_btagDeepFlavB" Title="Jet_btagDeepFlavB" Unit="F" Internal="Jet_btagDeepFlavB" Type="F" Min="0.00000000e+00" Max="9.99511719e-01"/>
    <Variable VarIndex="9" Expression="(Electron_jetIdx&gt;=0)*(Electron_jetPtRelv2)" Label="Electron_jetPtRelv2" Title="Electron_jetPtRelv2" Unit="F" Internal="Electron_jetPtRelv2" Type="F" Min="0.00000000e+00" Max="1.55200000e+03"/>
    <Variable VarIndex="10" Expression="(Electron_jetIdx==-1)*((1)/(1+(Electron_miniPFRelIso_all)))+(Electron_jetIdx&gt;=0)*((Electron_pt)/(Jet_pt[max(Electron_jetIdx,0)]))" Label="Electron_jetPtRatio" Title="Electron_jetPtRatio" Unit="F" Internal="Electron_jetPtRatio" Type="F" Min="0.00000000e+00" Max="7.51784325e+00"/>
  </Variables>
  <Spectators NSpec="0"/>
  <Classes NClass="2">
    <Class Name="Signal" Index="0"/>
    <Class Name="Background" Index="1"/>
  </Classes>
  <Transformations NTransformations="0"/>
  <MVAPdfs/>
  <Weights NTrees="500" AnalysisType="1">
    <BinaryTree type="DecisionTree" boostWeight="1.0000000000000000e+00" itree="0">
      <Node pos="s" depth="0" NCoef="0" IVar="7" Cut="1.9960079807788134e-03" cType="1" res="-1.9042566418647766e-04" rms="4.9999997019767761e-01" purity="4.9980956315994263e-01" nType="0">
        <Node pos="l" depth="1" NCoef="0" IVar="10" Cut="6.4691668748855591e-01" cType="1" res="-3.6121436953544617e-01" rms="3.4572267532348633e-01" purity="1.3878561556339264e-01" nType="0">
          <Node pos="l" depth="2" NCoef="0" IVar="2" Cut="3.7878174334764481e-02" cType="1" res="-4.6251031756401062e-01" rms="1.8995843827724457e-01" purity="3.7489686161279678e-02" nType="0">
            <Node pos="l" depth="3" NCoef="0" IVar="-1" Cut="0.0000000000000000e+00" cType="1" res="-2.9964920133352280e-02" rms="4.0026286244392395e-01" purity="2.0035079121589661e-01" nType="-99"/>
            <Node pos="r" depth="3" NCoef="0" IVar="-1" Cut="0.0000000000000000e+00" cType="1" res="-4.8810295760631561e-02" rms="1.0842273384332657e-01" purity="1.1897029355168343e-02" nType="-99"/>
          </Node>
          <Node pos="r" depth="2" NCoef="0" IVar="2" Cut="5.0112023949623108e-02" cType="1" res="3.2283201813697815e-02" rms="4.9895671010017395e-01" purity="5.3228318691253662e-01" nType="0">
            <Node pos="l" depth="3" NCoef="0" IVar="-1" Cut="0.0000000000000000e+00" cType="1" res="1.2590888887643814e-02" rms="4.8388734459877014e-01" purity="6.2590891122817993e-01" nType="-99"/>
            <Node pos="r" depth="3" NCoef="0" IVar="-1" Cut="0.0000000000000000e+00" cType="1" res="-3.0425194650888443e-02" rms="3.9677545428276062e-01" purity="1.9574806094169617e-01" nType="-99"/>
          </Node>
        </Node>
        <Node pos="r" depth="1" NCoef="0" IVar="8" Cut="2.1546360850334167e-01" cType="1" res="3.8830575346946716e-01" rms="3.1498989462852478e-01" purity="8.8830578327178955e-01" nType="0">
          <Node pos="l" depth="2" NCoef="0" IVar="0" Cut="2.5269466400146484e+01" cType="1" res="4.1368213295936584e-01" rms="2.8083288669586182e-01" purity="9.1368210315704346e-01" nType="0">
            <Node pos="l" depth="3" NCoef="0" IVar="-1" Cut="0.0000000000000000e+00" cType="1" res="2.8084250167012215e-02" rms="4.1367557644844055e-01" purity="7.8084254264831543e-01" nType="-99"/>
            <Node pos="r" depth="3" NCoef="0" IVar="-1" Cut="0.0000000000000000e+00" cType="1" res="4.4237315654754639e-02" rms="2.3303644359111786e-01" purity="9.4237315654754639e-01" nType="-99"/>
          </Node>
          <Node pos="r" depth="2" NCoef="0" IVar="8" Cut="5.5512511730194092e-01" cType="1" res="-6.4305117120966315e-04" rms="4.9999958276748657e-01" purity="4.9935698509216309e-01" nType="0">
            <Node pos="l" depth="3" NCoef="0" IVar="-1" Cut="0.0000000000000000e+00" cType="1" res="1.0191062465310097e-02" rms="4.8950406908988953e-01" purity="6.0191059112548828e-01" nType="-99"/>
            <Node pos="r" depth="3" NCoef="0" IVar="-1" Cut="0.0000000000000000e+00" cType="1" res="-3.1883575022220612e-02" rms="3.8515421748161316e-01" purity="1.8116426467895508e-01" nType="-99"/>
          </Node>
        </Node>
      </Node>
    </BinaryTree>
    <BinaryTree type="DecisionTree" boostWeight="1.0000000000000000e+00" itree="1">
      <Node pos="s" depth="0" NCoef="0" IVar="7" Cut="1.9960079807788134e-03" cType="1" res="-6.5561104565858841e-04" rms="4.8279100656509399e-01" purity="4.9928349256515503e-01" nType="0">
        <Node pos="l" depth="1" NCoef="0" IVar="10" Cut="6.4568722248077393e-01" cType="1" res="-3.4442979097366333e-01" rms="3.3737108111381531e-01" purity="1.3746744394302368e-01" nType="0">
          <Node pos="l" depth="2" NCoef="0" IVar="2" Cut="3.7878174334764481e-02" cType="1" res="-4.3897244334220886e-01" rms="1.8992078304290771e-01" purity="3.7919171154499054e-02" nType="0">
            <Node pos="l" depth="3" NCoef="0" IVar="-1" Cut="0.0000000000000000e+00" cType="1" res="-2.8225939720869064e-02" rms="4.0224426984786987e-01" purity="2.0301590859889984e-01" nType="-99"/>
            <Node pos="r" depth="3" NCoef="0" IVar="-1" Cut="0.0000000000000000e+00" cType="1" res="-4.6473942697048187e-02" rms="1.0879669338464737e-01" purity="1.1980244889855385e-02" nType="-99"/>
          </Node>
          <Node pos="r" depth="2" NCoef="0" IVar="0" Cut="5.6827297210693359e+01" cType="1" res="2.6327714323997498e-02" rms="4.9619230628013611e-01" purity="5.2785497903823853e-01" nType="0">
            <Node pos="l" depth="3" NCoef="0" IVar="-1" Cut="0.0000000000000000e+00" cType="1" res="1.0923264548182487e-02" rms="4.8510372638702393e-01" purity="6.1178326606750488e-01" nType="-99"/>
            <Node pos="r" depth="3" NCoef="0" IVar="-1" Cut="0.0000000000000000e+00" cType="1" res="-3.1864006072282791e-02" rms="3.7948626279830933e-01" purity="1.7865233123302460e-01" nType="-99"/>
          </Node>
        </Node>
        <Node pos="r" depth="1" NCoef="0" IVar="8" Cut="2.4339407682418823e-01" cType="1" res="3.6938953399658203e-01" rms="3.1196805834770203e-01" purity="8.8874930143356323e-01" nType="0">
          <Node pos="l" depth="2" NCoef="0" IVar="0" Cut="2.3618597030639648e+01" cType="1" res="3.9245322346687317e-01" rms="2.8113716840744019e-01" purity="9.1296923160552979e-01" nType="0">
            <Node pos="l" depth="3" NCoef="0" IVar="-1" Cut="0.0000000000000000e+00" cType="1" res="2.4676835164427757e-02" rms="4.2681217193603516e-01" purity="7.6034933328628540e-01" nType="-99"/>
            <Node pos="r" depth="3" NCoef="0" IVar="-1" Cut="0.0000000000000000e+00" cType="1" res="4.1843902319669724e-02" rms="2.3857517540454865e-01" purity="9.3932634592056274e-01" nType="-99"/>
          </Node>
          <Node pos="r" depth="2" NCoef="0" IVar="8" Cut="6.0712265968322754e-01" cType="1" res="-4.0193069726228714e-02" rms="4.9482873082160950e-01" purity="4.5863416790962219e-01" nType="0">
            <Node pos="l" depth="3" NCoef="0" IVar="-1" Cut="0.0000000000000000e+00" cType="1" res="6.2551810406148434e-03" rms="4.9512290954589844e-01" purity="5.6645739078521729e-01" nType="-99"/>
            <Node pos="r" depth="3" NCoef="0" IVar="-1" Cut="0.0000000000000000e+00" cType="1" res="-3.3863846212625504e-02" rms="3.5287463665008545e-01" purity="1.4576917886734009e-01" nType="-99"/>
          </Node>
        </Node>
      </Node>
    </BinaryTree>
    <BinaryTree type="DecisionTree" boostWeight="1.0000000000000000e+00" itree="2">
      <Node pos="s" depth="0" NCoef="0" IVar="7" Cut="1.9960079807788134e-03" cType="1" res="-6.9835613248869777e-04" rms="4.6681448817253113e-01" purity="4.9931034445762634e-01" nType="0">
        <Node pos="l" depth="1" NCoef="0" IVar="10" Cut="6.5470868349075317e-01" cType="1" res="-3.2662254571914673e-01" rms="3.3162200450897217e-01" purity="1.3819196820259094e-01" nType="0">
          <Node pos="l" depth="2" NCoef="0" IVar="2" Cut="7.7208697795867920e-02" cType="1" res="-4.1582673788070679e-01" rms="1.9244153797626495e-01" purity="3.9608791470527649e-02" nType="0">
            <Node pos="l" depth="3" NCoef="0" IVar="-1" Cut="0.0000000000000000e+00" cType="1" res="-2.8290659189224243e-02" rms="3.8868647813796997e-01" purity="1.8732190132141113e-01" nType="-99"/>
            <Node pos="r" depth="3" NCoef="0" IVar="-1" Cut="0.0000000000000000e+00" cType="1" res="-4.4740621000528336e-02" rms="9.5636777579784393e-02" purity="9.2591866850852966e-03" nType="-99"/>
          </Node>
          <Node pos="r" depth="2" NCoef="0" IVar="2" Cut="5.5123228579759598e-02" cType="1" res="3.6876216530799866e-02" rms="4.9258247017860413e-01" purity="5.3990918397903442e-01" nType="0">
            <Node pos="l" depth="3" NCoef="0" IVar="-1" Cut="0.0000000000000000e+00" cType="1" res="1.2051191180944443e-02" rms="4.8100727796554565e-01" purity="6.2882983684539795e-01" nType="-99"/>
            <Node pos="r" depth="3" NCoef="0" IVar="-1" Cut="0.0000000000000000e+00" cType="1" res="-2.9134994372725487e-02" rms="3.8992136716842651e-01" purity="1.9120602309703827e-01" nType="-99"/>
          </Node>
        </Node>
        <Node pos="r" depth="1" NCoef="0" IVar="8" Cut="1.5760762989521027e-01" cType="1" res="3.4930676221847534e-01" rms="3.1185734272003174e-01" purity="8.8710993528366089e-01" nType="0">
          <Node pos="l" depth="2" NCoef="0" IVar="0" Cut="2.4858140945434570e+01" cType="1" res="3.7820225954055786e-01" rms="2.7216577529907227e-01" purity="9.1865211725234985e-01" nType="0">
            <Node pos="l" depth="3" NCoef="0" IVar="-1" Cut="0.0000000000000000e+00" cType="1" res="2.5695055723190308e-02" rms="4.1137459874153137e-01" purity="7.8388774394989014e-01" nType="-99"/>
            <Node pos="r" depth="3" NCoef="0" IVar="-1" Cut="0.0000000000000000e+00" cType="1" res="4.0426202118396759e-02" rms="2.2961349785327911e-01" purity="9.4414591789245605e-01" nType="-99"/>
          </Node>
          <Node pos="r" depth="2" NCoef="0" IVar="8" Cut="5.5929058790206909e-01" cType="1" res="7.0101253688335419e-02" rms="4.8499298095703125e-01" purity="5.8232957124710083e-01" nType="0">
            <Node pos="l" depth="3" NCoef="0" IVar="-1" Cut="0.0000000000000000e+00" cType="1" res="1.3753718696534634e-02" rms="4.7227576375007629e-01" purity="6.5734910964965820e-01" nType="-99"/>
            <Node pos="r" depth="3" NCoef="0" IVar="-1" Cut="0.0000000000000000e+00" cType="1" res="-2.8964867815375328e-02" rms="3.8415449857711792e-01" purity="1.8142896890640259e-01" nType="-99"/>
          </Node>
        </Node>
      </Node>
    </BinaryTree>
    <BinaryTree type="DecisionTree" boostWeight="1.0000000000000000e+00" itree="3">
      <Node pos="s" depth="0" NCoef="0" IVar="7" Cut="1.9960079807788134e-03" cType="1" res="4.3842758168466389e-04" rms="4.5178449153900146e-01" purity="5.0036609172821045e-01" nType="0">
        <Node pos="l" depth="1" NCoef="0" IVar="10" Cut="6.3567984104156494e-01" cType="1" res="-3.0844968557357788e-01" rms="3.2726272940635681e-01" purity="1.3998849689960480e-01" nType="0">
          <Node pos="l" depth="2" NCoef="0" IVar="2" Cut="3.8604348897933960e-02" cType="1" res="-3.9917597174644470e-01" rms="1.8066021800041199e-01" purity="3.4894697368144989e-02" nType="0">
            <Node pos="l" depth="3" NCoef="0" IVar="-1" Cut="0.0000000000000000e+00" cType="1" res="-2.6324845850467682e-02" rms="3.9658856391906738e-01" purity="1.9550062716007233e-01" nType="-99"/>
            <Node pos="r" depth="3" NCoef="0" IVar="-1" Cut="0.0000000000000000e+00" cType="1" res="-4.2778830975294113e-02" rms="1.0476667433977127e-01" purity="1.1142328381538391e-02" nType="-99"/>
          </Node>
          <Node pos="r" depth="2" NCoef="0" IVar="2" Cut="5.4273348301649094e-02" cType="1" res="2.5464339181780815e-02" rms="4.8924887180328369e-01" purity="5.2678155899047852e-01" nType="0">
            <Node pos="l" depth="3" NCoef="0" IVar="-1" Cut="0.0000000000000000e+00" cType="1" res="1.1400128714740276e-02" rms="4.8104143142700195e-01" purity="6.2580877542495728e-01" nType="-99"/>
            <Node pos="r" depth="3" NCoef="0" IVar="-1" Cut="0.0000000000000000e+00" cType="1" res="-2.9078008607029915e-02" rms="3.7554061412811279e-01" purity="1.7450229823589325e-01" nType="-99"/>
          </Node>
        </Node>
        <Node pos="r" depth="1" NCoef="0" IVar="8" Cut="1.7356790602207184e-01" cType="1" res="3.3233138918876648e-01" rms="3.0930835008621216e-01" purity="8.8758325576782227e-01" nType="0">
          <Node pos="l" depth="2" NCoef="0" IVar="0" Cut="2.7312149047851562e+01" cType="1" res="3.5813593864440918e-01" rms="2.7376663684844971e-01" purity="9.1722506284713745e-01" nType="0">
            <Node pos="l" depth="3" NCoef="0" IVar="-1" Cut="0.0000000000000000e+00" cType="1" res="2.6353674009442329e-02" rms="3.9374211430549622e-01" purity="8.0679947137832642e-01" nType="-99"/>
            <Node pos="r" depth="3" NCoef="0" IVar="-1" Cut="0.0000000000000000e+00" cType="1" res="3.9116352796554565e-02" rms="2.2233957052230835e-01" purity="9.4782388210296631e-01" nType="-99"/>
          </Node>
          <Node pos="r" depth="2" NCoef="0" IVar="8" Cut="6.0220915079116821e-01" cType="1" res="4.2015664279460907e-02" rms="4.8687556385993958e-01" purity="5.5409616231918335e-01" nType="0">
            <Node pos="l" depth="3" NCoef="0" IVar="-1" Cut="0.0000000000000000e+00" cType="1" res="1.0430305264890194e-02" rms="4.8103326559066772e-01" purity="6.2721955776214600e-01" nType="-99"/>
            <Node pos="r" depth="3" NCoef="0" IVar="-1" Cut="0.0000000000000000e+00" cType="1" res="-2.8833772987127304e-02" rms="3.7308642268180847e-01" purity="1.6726435720920563e-01" nType="-99"/>
          </Node>
        </Node>
      </Node>
    </BinaryTree>
    <BinaryTree type="DecisionTree" boostWeight="1.0000000000000000e+00" itree="4">
      <Node pos="s" depth="0" NCoef="0" IVar="7" Cut="1.9960079807788134e-03" cType="1" res="1.7892992764245719e-04" rms="4.3787169456481934e-01" purity="5.0036847591400146e-01" nType="0">
        <Node pos="l" depth="1" NCoef="0" IVar="10" Cut="6.5768808126449585e-01" cType="1" res="-2.9449626803398132e-01" rms="3.2050579786300659e-01" purity="1.3888134062290192e-01" nType="0">
          <Node pos="l" depth="2" NCoef="0" IVar="2" Cut="6.4061887562274933e-02" cType="1" res="-3.7503901124000549e-01" rms="1.9206130504608154e-01" purity="4.0517877787351608e-02" nType="0">
            <Node pos="l" depth="3" NCoef="0" IVar="-1" Cut="0.0000000000000000e+00" cType="1" res="-2.5086434558033943e-02" rms="3.9486998319625854e-01" purity="1.9682693481445312e-01" nType="-99"/>
            <Node pos="r" depth="3" NCoef="0" IVar="-1" Cut="0.0000000000000000e+00" cType="1" res="-4.1302759200334549e-02" rms="1.0099302232265472e-01" purity="1.0386556386947632e-02" nType="-99"/>
          </Node>
          <Node pos="r" depth="2" NCoef="0" IVar="0" Cut="6.3296493530273438e+01" cType="1" res="3.8685038685798645e-02" rms="4.8705694079399109e-01" purity="5.4578161239624023e-01" nType="0">
            <Node pos="l" depth="3" NCoef="0" IVar="-1" Cut="0.0000000000000000e+00" cType="1" res="1.0810709558427334e-02" rms="4.7876021265983582e-01" purity="6.2082064151763916e-01" nType="-99"/>
            <Node pos="r" depth="3" NCoef="0" IVar="-1" Cut="0.0000000000000000e+00" cType="1" res="-3.2542686909437180e-02" rms="3.5074195265769958e-01" purity="1.5261068940162659e-01" nType="-99"/>
          </Node>
        </Node>
        <Node pos="r" depth="1" NCoef="0" IVar="8" Cut="2.1147353947162628e-01" cType="1" res="3.1636711955070496e-01" rms="3.0674019455909729e-01" purity="8.8824623823165894e-01" nType="0">
          <Node pos="l" depth="2" NCoef="0" IVar="0" Cut="2.3985807418823242e+01" cType="1" res="3.3708316087722778e-01" rms="2.7870294451713562e-01" purity="9.1341876983642578e-01" nType="0">
            <Node pos="l" depth="3" NCoef="0" IVar="-1" Cut="0.0000000000000000e+00" cType="1" res="2.1548587828874588e-02" rms="4.2390531301498413e-01" purity="7.6469445228576660e-01" nType="-99"/>
            <Node pos="r" depth="3" NCoef="0" IVar="-1" Cut="0.0000000000000000e+00" cType="1" res="3.6861088126897812e-02" rms="2.3761850595474243e-01" purity="9.3969106674194336e-01" nType="-99"/>
          </Node>
          <Node pos="r" depth="2" NCoef="0" IVar="8" Cut="4.6162021160125732e-01" cType="1" res="2.0943251438438892e-03" rms="4.8767143487930298e-01" purity="5.0636595487594604e-01" nType="0">
            <Node pos="l" depth="3" NCoef="0" IVar="-1" Cut="0.0000000000000000e+00" cType="1" res="1.0865136049687862e-02" rms="4.8162963986396790e-01" purity="6.3240367174148560e-01" nType="-99"/>
            <Node pos="r" depth="3" NCoef="0" IVar="-1" Cut="0.0000000000000000e+00" cType="1" res="-2.2141456604003906e-02" rms="4.2139142751693726e-01" purity="2.4404643476009369e-01" nType="-99"/>
          </Node>
        </Node>
      </Node>
    </BinaryTree>
    <BinaryTree type="DecisionTree" boostWeight="1.0000000000000000e+00" itree="5">
      <Node pos="s" depth="0" NCoef="0" IVar="7" Cut="1.9960079807788134e-03" cType="1" res="4.6554458094760776e-05" rms="4.2468386888504028e-01" purity="4.9992477893829346e-01" nType="0">
        <Node pos="l" depth="1" NCoef="0" IVar="10" Cut="6.8185812234878540e-01" cType="1" res="-2.8016605973243713e-01" rms="3.1490391492843628e-01" purity="1.3833810389041901e-01" nType="0">
          <Node pos="l" depth="2" NCoef="0" IVar="2" Cut="3.8604348897933960e-02" cType="1" res="-3.5080009698867798e-01" rms="2.0616933703422546e-01" purity="4.8734944313764572e-02" nType="0">
            <Node pos="l" depth="3" NCoef="0" IVar="-1" Cut="0.0000000000000000e+00" cType="1" res="-2.0694311708211899e-02" rms="4.2076569795608521e-01" purity="2.4018926918506622e-01" nType="-99"/>
            <Node pos="r" depth="3" NCoef="0" IVar="-1" Cut="0.0000000000000000e+00" cType="1" res="-3.9595622569322586e-02" rms="1.1748754233121872e-01" purity="1.4408857561647892e-02" nType="-99"/>
          </Node>
          <Node pos="r" depth="2" NCoef="0" IVar="0" Cut="5.9856925964355469e+01" cType="1" res="6.3628666102886200e-02" rms="4.8213997483253479e-01" purity="5.7446056604385376e-01" nType="0">
            <Node pos="l" depth="3" NCoef="0" IVar="-1" Cut="0.0000000000000000e+00" cType="1" res="1.3308675959706306e-02" rms="4.7094032168388367e-01" purity="6.5280061960220337e-01" nType="-99"/>
            <Node pos="r" depth="3" NCoef="0" IVar="-1" Cut="0.0000000000000000e+00" cType="1" res="-2.7323819696903229e-02" rms="3.8626676797866821e-01" purity="1.9461429119110107e-01" nType="-99"/>
          </Node>
        </Node>
        <Node pos="r" depth="1" NCoef="0" IVar="8" Cut="2.5336924195289612e-01" cType="1" res="3.0169937014579773e-01" rms="3.0370920896530151e-01" purity="8.8917797803878784e-01" nType="0">
          <Node pos="l" depth="2" NCoef="0" IVar="0" Cut="2.6265911102294922e+01" cType="1" res="3.2027390599250793e-01" rms="2.7904802560806274e-01" purity="9.1260582208633423e-01" nType="0">
            <Node pos="l" depth="3" NCoef="0" IVar="-1" Cut="0.0000000000000000e+00" cType="1" res="2.2486547008156776e-02" rms="4.0740773081779480e-01" purity="7.8757333755493164e-01" nType="-99"/>
            <Node pos="r" depth="3" NCoef="0" IVar="-1" Cut="0.0000000000000000e+00" cType="1" res="3.6034602671861649e-02" rms="2.2735115885734558e-01" purity="9.4513964653015137e-01" nType="-99"/>
          </Node>
          <Node pos="r" depth="2" NCoef="0" IVar="8" Cut="5.8104395866394043e-01" cType="1" res="-4.7449957579374313e-02" rms="4.8372739553451538e-01" purity="4.4880008697509766e-01" nType="0">
            <Node pos="l" depth="3" NCoef="0" IVar="-1" Cut="0.0000000000000000e+00" cType="1" res="3.4838013816624880e-03" rms="4.9582681059837341e-01" purity="5.5588835477828979e-01" nType="-99"/>
            <Node pos="r" depth="3" NCoef="0" IVar="-1" Cut="0.0000000000000000e+00" cType="1" res="-2.6996573433279991e-02" rms="3.7101259827613831e-01" purity="1.6586337983608246e-01" nType="-99"/>
          </Node>
        </Node>
      </Node>
    </BinaryTree>
    <BinaryTree type="DecisionTree" boostWeight="1.0000000000000000e+00" itree="6">
      <Node pos="s" depth="0" NCoef="0" IVar="7" Cut="1.9960079807788134e-03" cType="1" res="4.9259851220995188e-04" rms="4.1247609257698059e-01" purity="5.0066924095153809e-01" nType="0">
        <Node pos="l" depth="1" NCoef="0" IVar="10" Cut="6.2845748662948608e-01" cType="1" res="-2.6652085781097412e-01" rms="3.0993986129760742e-01" purity="1.3826851546764374e-01" nType="0">
          <Node pos="l" depth="2" NCoef="0" IVar="10" Cut="5.4313492774963379e-01" cType="1" res="-3.4562057256698608e-01" rms="1.7198912799358368e-01" purity="3.2276257872581482e-02" nType="0">
            <Node pos="l" depth="3" NCoef="0" IVar="-1" Cut="0.0000000000000000e+00" cType="1" res="-3.8474738597869873e-02" rms="1.2029441446065903e-01" purity="1.5381041914224625e-02" nType="-99"/>
            <Node pos="r" depth="3" NCoef="0" IVar="-1" Cut="0.0000000000000000e+00" cType="1" res="-2.4705996736884117e-02" rms="3.5478800535202026e-01" purity="1.5562206506729126e-01" nType="-99"/>
          </Node>
          <Node pos="r" depth="2" NCoef="0" IVar="2" Cut="3.8894873112440109e-02" cType="1" res="9.7152795642614365e-03" rms="4.7966617345809937e-01" purity="5.0842022895812988e-01" nType="0">
            <Node pos="l" depth="3" NCoef="0" IVar="-1" Cut="0.0000000000000000e+00" cType="1" res="1.0206615552306175e-02" rms="4.7791570425033569e-01" purity="6.2124019861221313e-01" nType="-99"/>
            <Node pos="r" depth="3" NCoef="0" IVar="-1" Cut="0.0000000000000000e+00" cType="1" res="-2.5163715705275536e-02" rms="3.8182947039604187e-01" purity="1.9410209357738495e-01" nType="-99"/>
          </Node>
        </Node>
        <Node pos="r" depth="1" NCoef="0" IVar="8" Cut="2.6533943414688110e-01" cType="1" res="2.8704527020454407e-01" rms="3.0167028307914734e-01" purity="8.8958930969238281e-01" nType="0">
          <Node pos="l" depth="2" NCoef="0" IVar="0" Cut="2.3449457168579102e+01" cType="1" res="3.0386400222778320e-01" rms="2.7952706813812256e-01" purity="9.1189748048782349e-01" nType="0">
            <Node pos="l" depth="3" NCoef="0" IVar="-1" Cut="0.0000000000000000e+00" cType="1" res="1.8954642117023468e-02" rms="4.2835694551467896e-01" purity="7.5667399168014526e-01" nType="-99"/>
            <Node pos="r" depth="3" NCoef="0" IVar="-1" Cut="0.0000000000000000e+00" cType="1" res="3.4184060990810394e-02" rms="2.3989969491958618e-01" purity="9.3815398216247559e-01" nType="-99"/>
          </Node>
          <Node pos="r" depth="2" NCoef="0" IVar="8" Cut="6.3610959053039551e-01" cType="1" res="-5.5918052792549133e-02" rms="4.7963085770606995e-01" purity="4.3468672037124634e-01" nType="0">
            <Node pos="l" depth="3" NCoef="0" IVar="-1" Cut="0.0000000000000000e+00" cType="1" res="2.0892419852316380e-03" rms="4.9585756659507751e-01" purity="5.3803724050521851e-01" nType="-99"/>
            <Node pos="r" depth="3" NCoef="0" IVar="-1" Cut="0.0000000000000000e+00" cType="1" res="-2.8357874602079391e-02" rms="3.4617415070533752e-01" purity="1.3921828567981720e-01" nType="-99"/>
          </Node>
        </Node>
      </Node>
    </BinaryTree>
    <BinaryTree type="DecisionTree" boostWeight="1.0000000000000000e+00" itree="7">
      <Node pos="s" depth="0" NCoef="0" IVar="7" Cut="1.9960079807788134e-03" cType="1" res="-4.9203084927285090e-05" rms="4.0132135152816772e-01" purity="4.9991372227668762e-01" nType="0">
        <Node pos="l" depth="1" NCoef="0" IVar="10" Cut="6.8521332740783691e-01" cType="1" res="-2.5247025489807129e-01" rms="3.0618667602539062e-01" purity="1.3902400434017181e-01" nType="0">
          <Node pos="l" depth="2" NCoef="0" IVar="2" Cut="7.7208697795867920e-02" cType="1" res="-3.1617641448974609e-01" rms="2.0635110139846802e-01" purity="5.0227444618940353e-02" nType="0">
            <Node pos="l" depth="3" NCoef="0" IVar="-1" Cut="0.0000000000000000e+00" cType="1" res="-1.9907103851437569e-02" rms="4.0623062849044800e-01" purity="2.2348262369632721e-01" nType="-99"/>
            <Node pos="r" depth="3" NCoef="0" IVar="-1" Cut="0.0000000000000000e+00" cType="1" res="-3.7634611129760742e-02" rms="1.0085999220609665e-01" purity="1.0515698231756687e-02" nType="-99"/>
          </Node>
          <Node pos="r" depth="2" NCoef="0" IVar="0" Cut="6.3296493530273438e+01" cType="1" res="6.3460633158683777e-02" rms="4.7704344987869263e-01" purity="5.7938295602798462e-01" nType="0">
            <Node pos="l" depth="3" NCoef="0" IVar="-1" Cut="0.0000000000000000e+00" cType="1" res="1.2688592076301575e-02" rms="4.6853655576705933e-01" purity="6.5469437837600708e-01" nType="-99"/>
            <Node pos="r" depth="3" NCoef="0" IVar="-1" Cut="0.0000000000000000e+00" cType="1" res="-2.7672732248902321e-02" rms="3.7015086412429810e-01" purity="1.7571841180324554e-01" nType="-99"/>
          </Node>
        </Node>
        <Node pos="r" depth="1" NCoef="0" IVar="8" Cut="1.8753314018249512e-01" cType="1" res="2.7140334248542786e-01" rms="3.0205187201499939e-01" purity="8.8801300525665283e-01" nType="0">
          <Node pos="l" depth="2" NCoef="0" IVar="0" Cut="2.6265985488891602e+01" cType="1" res="2.9192492365837097e-01" rms="2.7322983741760254e-01" purity="9.1638922691345215e-01" nType="0">
            <Node pos="l" depth="3" NCoef="0" IVar="-1" Cut="0.0000000000000000e+00" cType="1" res="2.1209476515650749e-02" rms="4.0167984366416931e-01" purity="7.9594480991363525e-01" nType="-99"/>
            <Node pos="r" depth="3" NCoef="0" IVar="-1" Cut="0.0000000000000000e+00" cType="1" res="3.3709593117237091e-02" rms="2.2581112384796143e-01" purity="9.4603812694549561e-01" nType="-99"/>
          </Node>
          <Node pos="r" depth="2" NCoef="0" IVar="8" Cut="4.6797516942024231e-01" cType="1" res="1.2144564650952816e-02" rms="4.7767427563667297e-01" purity="5.2952247858047485e-01" nType="0">
            <Node pos="l" depth="3" NCoef="0" IVar="-1" Cut="0.0000000000000000e+00" cType="1" res="9.1759795323014259e-03" rms="4.7652706503868103e-01" purity="6.3986063003540039e-01" nType="-99"/>
            <Node pos="r" depth="3" NCoef="0" IVar="-1" Cut="0.0000000000000000e+00" cType="1" res="-2.0080573856830597e-02" rms="4.1433313488960266e-01" purity="2.3760622739791870e-01" nType="-99"/>
          </Node>
        </Node>
      </Node>
    </BinaryTree>
    <BinaryTree type="DecisionTree" boostWeight="1.0000000000000000e+00" itree="8">
      <Node pos="s" depth="0" NCoef="0" IVar="7" Cut="1.9960079807788134e-03" cType="1" res="4.7148586600087583e-04" rms="3.9078432321548462e-01" purity="5.0092232227325439e-01" nType="0">
        <Node pos="l" depth="1" NCoef="0" IVar="10" Cut="7.0285743474960327e-01" cType="1" res="-2.4002185463905334e-01" rms="3.0175551772117615e-01" purity="1.3906002044677734e-01" nType="0">
          <Node pos="l" depth="2" NCoef="0" IVar="2" Cut="3.8604348897933960e-02" cType="1" res="-2.9784807562828064e-01" rms="2.1319046616554260e-01" purity="5.5635672062635422e-02" nType="0">
            <Node pos="l" depth="3" NCoef="0" IVar="-1" Cut="0.0000000000000000e+00" cType="1" res="-1.6527028754353523e-02" rms="4.2672657966613770e-01" purity="2.6286089420318604e-01" nType="-99"/>
            <Node pos="r" depth="3" NCoef="0" IVar="-1" Cut="0.0000000000000000e+00" cType="1" res="-3.6189105361700058e-02" rms="1.2103739380836487e-01" purity="1.5600350685417652e-02" nType="-99"/>
          </Node>
          <Node pos="r" depth="2" NCoef="0" IVar="0" Cut="6.1307941436767578e+01" cType="1" res="8.0369934439659119e-02" rms="4.7176712751388550e-01" purity="6.0128062963485718e-01" nType="0">
            <Node pos="l" depth="3" NCoef="0" IVar="-1" Cut="0.0000000000000000e+00" cType="1" res="1.4373369514942169e-02" rms="4.6103188395500183e-01" purity="6.7928373813629150e-01" nType="-99"/>
            <Node pos="r" depth="3" NCoef="0" IVar="-1" Cut="0.0000000000000000e+00" cType="1" res="-2.4286733940243721e-02" rms="3.9070501923561096e-01" purity="2.0208519697189331e-01" nType="-99"/>
          </Node>
        </Node>
        <Node pos="r" depth="1" NCoef="0" IVar="8" Cut="1.4164736866950989e-01" cType="1" res="2.5763779878616333e-01" rms="3.0110064148902893e-01" purity="8.8787198066711426e-01" nType="0">
          <Node pos="l" depth="2" NCoef="0" IVar="0" Cut="2.9773960113525391e+01" cType="1" res="2.8252577781677246e-01" rms="2.6369905471801758e-01" purity="9.2263108491897583e-01" nType="0">
            <Node pos="l" depth="3" NCoef="0" IVar="-1" Cut="0.0000000000000000e+00" cType="1" res="2.3145407438278198e-02" rms="3.6857128143310547e-01" purity="8.3471953868865967e-01" nType="-99"/>
            <Node pos="r" depth="3" NCoef="0" IVar="-1" Cut="0.0000000000000000e+00" cType="1" res="3.3496171236038208e-02" rms="2.0955793559551239e-01" purity="9.5396637916564941e-01" nType="-99"/>
          </Node>
          <Node pos="r" depth="2" NCoef="0" IVar="8" Cut="6.0229247808456421e-01" cType="1" res="5.7900078594684601e-02" rms="4.6403521299362183e-01" purity="6.0891425609588623e-01" nType="0">
            <Node pos="l" depth="3" NCoef="0" IVar="-1" Cut="0.0000000000000000e+00" cType="1" res="1.0197700932621956e-02" rms="4.6194013953208923e-01" purity="6.7135226726531982e-01" nType="-99"/>
            <Node pos="r" depth="3" NCoef="0" IVar="-1" Cut="0.0000000000000000e+00" cType="1" res="-2.5972347706556320e-02" rms="3.5170483589172363e-01" purity="1.4523504674434662e-01" nType="-99"/>
          </Node>
        </Node>
      </Node>
    </BinaryTree>
    <BinaryTree type="DecisionTree" boostWeight="1.0000000000000000e+00" itree="9">
      <Node pos="s" depth="0" NCoef="0" IVar="7" Cut="1.9960079807788134e-03" cType="1" res="-4.9132033018395305e-04" rms="3.8124418258666992e-01" purity="4.9980157613754272e-01" nType="0">
        <Node pos="l" depth="1" NCoef="0" IVar="10" Cut="6.1091309785842896e-01" cType="1" res="-2.2935743629932404e-01" rms="2.9719328880310059e-01" purity="1.3772547245025635e-01" nType="0">
          <Node pos="l" depth="2" NCoef="0" IVar="10" Cut="5.1945722103118896e-01" cType="1" res="-3.0112832784652710e-01" rms="1.6003556549549103e-01" purity="2.8259422630071640e-02" nType="0">
            <Node pos="l" depth="3" NCoef="0" IVar="-1" Cut="0.0000000000000000e+00" cType="1" res="-3.5720460116863251e-02" rms="1.0992448031902313e-01" purity="1.2795449234545231e-02" nType="-99"/>
            <Node pos="r" depth="3" NCoef="0" IVar="-1" Cut="0.0000000000000000e+00" cType="1" res="-2.4556679651141167e-02" rms="3.2184419035911560e-01" purity="1.2572194635868073e-01" nType="-99"/>
          </Node>
          <Node pos="r" depth="2" NCoef="0" IVar="2" Cut="6.6996604204177856e-02" cType="1" res="-7.5324426870793104e-04" rms="4.6841034293174744e-01" purity="4.8639610409736633e-01" nType="0">
            <Node pos="l" depth="3" NCoef="0" IVar="-1" Cut="0.0000000000000000e+00" cType="1" res="7.6532792299985886e-03" rms="4.7731018066406250e-01" purity="5.9294784069061279e-01" nType="-99"/>
            <Node pos="r" depth="3" NCoef="0" IVar="-1" Cut="0.0000000000000000e+00" cType="1" res="-2.6641111820936203e-02" rms="3.3294627070426941e-01" purity="1.3848650455474854e-01" nType="-99"/>
          </Node>
        </Node>
        <Node pos="r" depth="1" NCoef="0" IVar="8" Cut="1.1571193486452103e-01" cType="1" res="2.4461764097213745e-01" rms="3.0040282011032104e-01" purity="8.8757449388504028e-01" nType="0">
          <Node pos="l" depth="2" NCoef="0" IVar="0" Cut="2.1950305938720703e+01" cType="1" res="2.7409628033638000e-01" rms="2.5301739573478699e-01" purity="9.2945802211761475e-01" nType="0">
            <Node pos="l" depth="3" NCoef="0" IVar="-1" Cut="0.0000000000000000e+00" cType="1" res="1.7799235880374908e-02" rms="4.1776046156883240e-01" purity="7.7472931146621704e-01" nType="-99"/>
            <Node pos="r" depth="3" NCoef="0" IVar="-1" Cut="0.0000000000000000e+00" cType="1" res="3.1533546745777130e-02" rms="2.3144666850566864e-01" purity="9.4268780946731567e-01" nType="-99"/>
          </Node>
          <Node pos="r" depth="2" NCoef="0" IVar="8" Cut="4.5265620946884155e-01" cType="1" res="9.2390947043895721e-02" rms="4.4497358798980713e-01" purity="6.7128998041152954e-01" nType="0">
            <Node pos="l" depth="3" NCoef="0" IVar="-1" Cut="0.0000000000000000e+00" cType="1" res="1.3684794306755066e-02" rms="4.3549147248268127e-01" purity="7.3172718286514282e-01" nType="-99"/>
            <Node pos="r" depth="3" NCoef="0" IVar="-1" Cut="0.0000000000000000e+00" cType="1" res="-1.7264878377318382e-02" rms="4.2235493659973145e-01" purity="2.5813487172126770e-01" nType="-99"/>
          </Node>
        </Node>
      </Node>
    </BinaryTree>
    <BinaryTree type="DecisionTree" boostWeight="1.0000000000000000e+00" itree="10">
      <Node pos="s" depth="0" NCoef="0" IVar="7" Cut="1.9960079807788134e-03" cType="1" res="4.8130445065908134e-04" rms="3.7215638160705566e-01" purity="5.0066739320755005e-01" nType="0">
        <Node pos="l" depth="1" NCoef="0" IVar="10" Cut="6.1560440063476562e-01" cType="1" res="-2.1604901552200317e-01" rms="2.9522913694381714e-01" purity="1.3985757529735565e-01" nType="0">
          <Node pos="l" depth="2" NCoef="0" IVar="10" Cut="5.1399976015090942e-01" cType="1" res="-2.8531503677368164e-01" rms="1.6268685460090637e-01" purity="2.9444999992847443e-02" nType="0">
            <Node pos="l" depth="3" NCoef="0" IVar="-1" Cut="0.0000000000000000e+00" cType="1" res="-3.4925777465105057e-02" rms="1.0659993439912796e-01" purity="1.2068876065313816e-02" nType="-99"/>
            <Node pos="r" depth="3" NCoef="0" IVar="-1" Cut="0.0000000000000000e+00" cType="1" res="-2.3473292589187622e-02" rms="3.2389339804649353e-01" purity="1.2763805687427521e-01" nType="-99"/>
          </Node>
          <Node pos="r" depth="2" NCoef="0" IVar="2" Cut="7.1782074868679047e-02" cType="1" res="9.2710042372345924e-03" rms="4.6713715791702271e-01" purity="4.9902588129043579e-01" nType="0">
            <Node pos="l" depth="3" NCoef="0" IVar="-1" Cut="0.0000000000000000e+00" cType="1" res="7.8348815441131592e-03" rms="4.7546863555908203e-01" purity="5.9791952371597290e-01" nType="-99"/>
            <Node pos="r" depth="3" NCoef="0" IVar="-1" Cut="0.0000000000000000e+00" cType="1" res="-2.5663925334811211e-02" rms="3.3404794335365295e-01" purity="1.3919757306575775e-01" nType="-99"/>
          </Node>
        </Node>
        <Node pos="r" depth="1" NCoef="0" IVar="8" Cut="1.5960267186164856e-01" cType="1" res="2.3264202475547791e-01" rms="2.9896169900894165e-01" purity="8.8752263784408569e-01" nType="0">
          <Node pos="l" depth="2" NCoef="0" IVar="0" Cut="2.9774339675903320e+01" cType="1" res="2.5359606742858887e-01" rms="2.6703807711601257e-01" purity="9.2003256082534790e-01" nType="0">
            <Node pos="l" depth="3" NCoef="0" IVar="-1" Cut="0.0000000000000000e+00" cType="1" res="2.1064475178718567e-02" rms="3.7097129225730896e-01" purity="8.3176529407501221e-01" nType="-99"/>
            <Node pos="r" depth="3" NCoef="0" IVar="-1" Cut="0.0000000000000000e+00" cType="1" res="3.1564798206090927e-02" rms="2.1103443205356598e-01" purity="9.5323467254638672e-01" nType="-99"/>
          </Node>
          <Node pos="r" depth="2" NCoef="0" IVar="8" Cut="4.0273651480674744e-01" cType="1" res="2.8167024254798889e-02" rms="4.6861815452575684e-01" purity="5.7028263807296753e-01" nType="0">
            <Node pos="l" depth="3" NCoef="0" IVar="-1" Cut="0.0000000000000000e+00" cType="1" res="9.6975611522793770e-03" rms="4.6357929706573486e-01" purity="6.7547029256820679e-01" nType="-99"/>
            <Node pos="r" depth="3" NCoef="0" IVar="-1" Cut="0.0000000000000000e+00" cType="1" res="-1.5152255073189735e-02" rms="4.3614697456359863e-01" purity="2.9181110858917236e-01" nType="-99"/>
          </Node>
        </Node>
      </Node>
    </BinaryTree>
    <BinaryTree type="DecisionTree" boostWeight="1.0000000000000000e+00" itree="11">
      <Node pos="s" depth="0" NCoef="0" IVar="10" Cut="6.0653454065322876e-01" cType="1" res="5.3457869216799736e-04" rms="3.6395922303199768e-01" purity="5.0085240602493286e-01" nType="0">
        <Node pos="l" depth="1" NCoef="0" IVar="7" Cut="1.9960079807788134e-03" cType="1" res="-2.5190398097038269e-01" rms="2.0315214991569519e-01" purity="6.6866189241409302e-02" nType="0">
          <Node pos="l" depth="2" NCoef="0" IVar="2" Cut="7.7208697795867920e-02" cType="1" res="-2.7296644449234009e-01" rms="1.5717287361621857e-01" purity="2.7308829128742218e-02" nType="0">
            <Node pos="l" depth="3" NCoef="0" IVar="-1" Cut="0.0000000000000000e+00" cType="1" res="-2.2946871817111969e-02" rms="3.4540930390357971e-01" purity="1.4113466441631317e-01" nType="-99"/>
            <Node pos="r" depth="3" NCoef="0" IVar="-1" Cut="0.0000000000000000e+00" cType="1" res="-3.4384589642286301e-02" rms="8.6307026445865631e-02" purity="7.5709843076765537e-03" nType="-99"/>
          </Node>
          <Node pos="r" depth="2" NCoef="0" IVar="8" Cut="2.6683151721954346e-01" cType="1" res="6.2283322215080261e-02" rms="4.2787331342697144e-01" purity="6.5694051980972290e-01" nType="0">
            <Node pos="l" depth="3" NCoef="0" IVar="-1" Cut="0.0000000000000000e+00" cType="1" res="1.5228711999952793e-02" rms="4.0631756186485291e-01" purity="7.8163015842437744e-01" nType="-99"/>
            <Node pos="r" depth="3" NCoef="0" IVar="-1" Cut="0.0000000000000000e+00" cType="1" res="-1.9547848030924797e-02" rms="4.0003249049186707e-01" purity="2.5263723731040955e-01" nType="-99"/>
          </Node>
        </Node>
        <Node pos="r" depth="1" NCoef="0" IVar="7" Cut="1.9960079807788134e-03" cType="1" res="1.8094371259212494e-01" rms="3.4576138854026794e-01" purity="8.1100738048553467e-01" nType="0">
          <Node pos="l" depth="2" NCoef="0" IVar="3" Cut="7.9716667532920837e-02" cType="1" res="3.2547018490731716e-03" rms="4.6342459321022034e-01" purity="4.8735380172729492e-01" nType="0">
            <Node pos="l" depth="3" NCoef="0" IVar="-1" Cut="0.0000000000000000e+00" cType="1" res="8.8599054142832756e-03" rms="4.5960938930511475e-01" purity="5.8493304252624512e-01" nType="-99"/>
            <Node pos="r" depth="3" NCoef="0" IVar="-1" Cut="0.0000000000000000e+00" cType="1" res="-2.1178819239139557e-02" rms="4.0538024902343750e-01" purity="2.4594093859195709e-01" nType="-99"/>
          </Node>
          <Node pos="r" depth="2" NCoef="0" IVar="8" Cut="1.2568710744380951e-01" cType="1" res="2.3044566810131073e-01" rms="2.8597170114517212e-01" purity="9.0117329359054565e-01" nType="0">
            <Node pos="l" depth="3" NCoef="0" IVar="-1" Cut="0.0000000000000000e+00" cType="1" res="2.8692871332168579e-02" rms="2.5133070349693298e-01" purity="9.3029218912124634e-01" nType="-99"/>
            <Node pos="r" depth="3" NCoef="0" IVar="-1" Cut="0.0000000000000000e+00" cType="1" res="1.0588291101157665e-02" rms="4.4376984238624573e-01" purity="6.9072836637496948e-01" nType="-99"/>
          </Node>
        </Node>
      </Node>
    </BinaryTree>
    <BinaryTree type="DecisionTree" boostWeight="1.0000000000000000e+00" itree="12">
      <Node pos="s" depth="0" NCoef="0" IVar="7" Cut="1.9960079807788134e-03" cType="1" res="-8.9442916214466095e-04" rms="3.5612246394157410e-01" purity="4.9897113442420959e-01" nType="0">
        <Node pos="l" depth="1" NCoef="0" IVar="10" Cut="6.9095337390899658e-01" cType="1" res="-1.9637222588062286e-01" rms="2.8770703077316284e-01" purity="1.3847325742244720e-01" nType="0">
          <Node pos="l" depth="2" NCoef="0" IVar="2" Cut="3.7878174334764481e-02" cType="1" res="-2.4631296098232269e-01" rms="2.0256599783897400e-01" purity="5.1298622041940689e-02" nType="0">
            <Node pos="l" depth="3" NCoef="0" IVar="-1" Cut="0.0000000000000000e+00" cType="1" res="-1.4608241617679596e-02" rms="4.1588413715362549e-01" purity="2.4766299128532410e-01" nType="-99"/>
            <Node pos="r" depth="3" NCoef="0" IVar="-1" Cut="0.0000000000000000e+00" cType="1" res="-3.2965589314699173e-02" rms="1.1948604881763458e-01" purity="1.5395984053611755e-02" nType="-99"/>
          </Node>
          <Node pos="r" depth="2" NCoef="0" IVar="3" Cut="7.4116498231887817e-02" cType="1" res="5.9609882533550262e-02" rms="4.6735867857933044e-01" purity="5.8530592918395996e-01" nType="0">
            <Node pos="l" depth="3" NCoef="0" IVar="-1" Cut="0.0000000000000000e+00" cType="1" res="1.3441328890621662e-02" rms="4.5021376013755798e-01" purity="6.6791874170303345e-01" nType="-99"/>
            <Node pos="r" depth="3" NCoef="0" IVar="-1" Cut="0.0000000000000000e+00" cType="1" res="-1.8309012055397034e-02" rms="4.4270434975624084e-01" purity="3.1363436579704285e-01" nType="-99"/>
          </Node>
        </Node>
        <Node pos="r" depth="1" NCoef="0" IVar="8" Cut="1.3765729963779449e-01" cType="1" res="2.0986416935920715e-01" rms="2.9781964421272278e-01" purity="8.8764959573745728e-01" nType="0">
          <Node pos="l" depth="2" NCoef="0" IVar="0" Cut="2.2833042144775391e+01" cType="1" res="2.3071776330471039e-01" rms="2.6307165622711182e-01" purity="9.2266488075256348e-01" nType="0">
            <Node pos="l" depth="3" NCoef="0" IVar="-1" Cut="0.0000000000000000e+00" cType="1" res="1.4902289956808090e-02" rms="4.1841685771942139e-01" purity="7.7330404520034790e-01" nType="-99"/>
            <Node pos="r" depth="3" NCoef="0" IVar="-1" Cut="0.0000000000000000e+00" cType="1" res="2.8761416673660278e-02" rms="2.3490518331527710e-01" purity="9.4080603122711182e-01" nType="-99"/>
          </Node>
          <Node pos="r" depth="2" NCoef="0" IVar="8" Cut="6.0214728116989136e-01" cType="1" res="5.0971042364835739e-02" rms="4.5676922798156738e-01" purity="6.2085223197937012e-01" nType="0">
            <Node pos="l" depth="3" NCoef="0" IVar="-1" Cut="0.0000000000000000e+00" cType="1" res="8.7338117882609367e-03" rms="4.5743107795715332e-01" purity="6.7829543352127075e-01" nType="-99"/>
            <Node pos="r" depth="3" NCoef="0" IVar="-1" Cut="0.0000000000000000e+00" cType="1" res="-2.3207504302263260e-02" rms="3.5296300053596497e-01" purity="1.4842985570430756e-01" nType="-99"/>
          </Node>
        </Node>
      </Node>
    </BinaryTree>
    <BinaryTree type="DecisionTree" boostWeight="1.0000000000000000e+00" itree="13">
      <Node pos="s" depth="0" NCoef="0" IVar="7" Cut="1.9960079807788134e-03" cType="1" res="8.7788468226790428e-04" rms="3.4844177961349487e-01" purity="5.0105178356170654e-01" nType="0">
        <Node pos="l" depth="1" NCoef="0" IVar="10" Cut="6.1511641740798950e-01" cType="1" res="-1.8615911900997162e-01" rms="2.8583046793937683e-01" purity="1.3946555554866791e-01" nType="0">
          <Node pos="l" depth="2" NCoef="0" IVar="10" Cut="5.5658239126205444e-01" cType="1" res="-2.4558939039707184e-01" rms="1.6185168921947479e-01" purity="2.9422154650092125e-02" nType="0">
            <Node pos="l" depth="3" NCoef="0" IVar="-1" Cut="0.0000000000000000e+00" cType="1" res="-3.2173302024602890e-02" rms="1.2821164727210999e-01" purity="1.7838615924119949e-02" nType="-99"/>
            <Node pos="r" depth="3" NCoef="0" IVar="-1" Cut="0.0000000000000000e+00" cType="1" res="-1.7479356378316879e-02" rms="3.5505351424217224e-01" purity="1.6021966934204102e-01" nType="-99"/>
          </Node>
          <Node pos="r" depth="2" NCoef="0" IVar="0" Cut="5.5752674102783203e+01" cType="1" res="6.1906860210001469e-03" rms="4.6141996979713440e-01" purity="4.9562785029411316e-01" nType="0">
            <Node pos="l" depth="3" NCoef="0" IVar="-1" Cut="0.0000000000000000e+00" cType="1" res="6.8942727521061897e-03" rms="4.6584779024124146e-01" purity="5.7609283924102783e-01" nType="-99"/>
            <Node pos="r" depth="3" NCoef="0" IVar="-1" Cut="0.0000000000000000e+00" cType="1" res="-2.5259317830204964e-02" rms="3.4909465909004211e-01" purity="1.7201034724712372e-01" nType="-99"/>
          </Node>
        </Node>
        <Node pos="r" depth="1" NCoef="0" IVar="8" Cut="2.1147353947162628e-01" cType="1" res="2.0214891433715820e-01" rms="2.9324287176132202e-01" purity="8.9015567302703857e-01" nType="0">
          <Node pos="l" depth="2" NCoef="0" IVar="0" Cut="2.2491569519042969e+01" cType="1" res="2.1688823401927948e-01" rms="2.7078625559806824e-01" purity="9.1659128665924072e-01" nType="0">
            <Node pos="l" depth="3" NCoef="0" IVar="-1" Cut="0.0000000000000000e+00" cType="1" res="1.3023831881582737e-02" rms="4.2806625366210938e-01" purity="7.5684744119644165e-01" nType="-99"/>
            <Node pos="r" depth="3" NCoef="0" IVar="-1" Cut="0.0000000000000000e+00" cType="1" res="2.7868987992405891e-02" rms="2.3863106966018677e-01" purity="9.3831092119216919e-01" nType="-99"/>
          </Node>
          <Node pos="r" depth="2" NCoef="0" IVar="4" Cut="-5.0323648452758789e+00" cType="1" res="-1.5517146326601505e-02" rms="4.7165128588676453e-01" purity="4.9976098537445068e-01" nType="0">
            <Node pos="l" depth="3" NCoef="0" IVar="-1" Cut="0.0000000000000000e+00" cType="1" res="8.2855382934212685e-03" rms="4.6980437636375427e-01" purity="6.0938274860382080e-01" nType="-99"/>
            <Node pos="r" depth="3" NCoef="0" IVar="-1" Cut="0.0000000000000000e+00" cType="1" res="-1.4933186583220959e-02" rms="4.4270732998847961e-01" purity="3.5319259762763977e-01" nType="-99"/>
          </Node>
        </Node>
      </Node>
    </BinaryTree>
    <BinaryTree type="DecisionTree" boostWeight="1.0000000000000000e+00" itree="14">
      <Node pos="s" depth="0" NCoef="0" IVar="10" Cut="6.0056751966476440e-01" cType="1" res="6.7807472078129649e-05" rms="3.4204503893852234e-01" purity="5.0012761354446411e-01" nType="0">
        <Node pos="l" depth="1" NCoef="0" IVar="7" Cut="1.9960079807788134e-03" cType="1" res="-2.1968622505664825e-01" rms="1.9124867022037506e-01" purity="6.2599107623100281e-02" nType="0">
          <Node pos="l" depth="2" NCoef="0" IVar="10" Cut="4.9684864282608032e-01" cType="1" res="-2.3613454401493073e-01" rms="1.5228033065795898e-01" purity="2.5847084820270538e-02" nType="0">
            <Node pos="l" depth="3" NCoef="0" IVar="-1" Cut="0.0000000000000000e+00" cType="1" res="-3.2407008111476898e-02" rms="9.7756095230579376e-02" purity="1.0079234838485718e-02" nType="-99"/>
            <Node pos="r" depth="3" NCoef="0" IVar="-1" Cut="0.0000000000000000e+00" cType="1" res="-2.2063285112380981e-02" rms="2.9869261384010315e-01" purity="1.0670833289623260e-01" nType="-99"/>
          </Node>
          <Node pos="r" depth="2" NCoef="0" IVar="8" Cut="2.5534412264823914e-01" cType="1" res="4.3987069278955460e-02" rms="4.2108258605003357e-01" purity="6.5174889564514160e-01" nType="0">
            <Node pos="l" depth="3" NCoef="0" IVar="-1" Cut="0.0000000000000000e+00" cType="1" res="1.3332429341971874e-02" rms="4.0428906679153442e-01" purity="7.8422564268112183e-01" nType="-99"/>
            <Node pos="r" depth="3" NCoef="0" IVar="-1" Cut="0.0000000000000000e+00" cType="1" res="-1.9678266718983650e-02" rms="3.8844841718673706e-01" purity="2.3973166942596436e-01" nType="-99"/>
          </Node>
        </Node>
        <Node pos="r" depth="1" NCoef="0" IVar="2" Cut="8.0179244279861450e-02" cType="1" res="1.5373349189758301e-01" rms="3.4036272764205933e-01" purity="8.0607479810714722e-01" nType="0">
          <Node pos="l" depth="2" NCoef="0" IVar="8" Cut="2.5935435295104980e-01" cType="1" res="1.7502294480800629e-01" rms="3.2928425073623657e-01" purity="8.4437578916549683e-01" nType="0">
            <Node pos="l" depth="3" NCoef="0" IVar="-1" Cut="0.0000000000000000e+00" cType="1" res="2.2247219458222389e-02" rms="3.1473127007484436e-01" purity="8.6614668369293213e-01" nType="-99"/>
            <Node pos="r" depth="3" NCoef="0" IVar="-1" Cut="0.0000000000000000e+00" cType="1" res="-9.4849346205592155e-03" rms="4.7086200118064880e-01" purity="4.0683528780937195e-01" nType="-99"/>
          </Node>
          <Node pos="r" depth="2" NCoef="0" IVar="0" Cut="4.7720252990722656e+01" cType="1" res="-1.8952228128910065e-01" rms="3.3215668797492981e-01" purity="1.8853822350502014e-01" nType="0">
            <Node pos="l" depth="3" NCoef="0" IVar="-1" Cut="0.0000000000000000e+00" cType="1" res="-1.3666314072906971e-02" rms="3.9475733041763306e-01" purity="2.9351776838302612e-01" nType="-99"/>
            <Node pos="r" depth="3" NCoef="0" IVar="-1" Cut="0.0000000000000000e+00" cType="1" res="-3.3331573009490967e-02" rms="1.6819468140602112e-01" purity="3.6521907895803452e-02" nType="-99"/>
          </Node>
        </Node>
      </Node>
    </BinaryTree>
    <BinaryTree type="DecisionTree" boostWeight="1.0000000000000000e+00" itree="15">
      <Node pos="s" depth="0" NCoef="0" IVar="7" Cut="1.9960079807788134e-03" cType="1" res="-1.7286943329963833e-04" rms="3.3602815866470337e-01" purity="4.9967953562736511e-01" nType="0">
        <Node pos="l" depth="1" NCoef="0" IVar="2" Cut="2.9927598312497139e-02" cType="1" res="-1.7004753649234772e-01" rms="2.7858960628509521e-01" purity="1.3823698461055756e-01" nType="0">
          <Node pos="l" depth="2" NCoef="0" IVar="3" Cut="1.1400116980075836e-01" cType="1" res="-4.2660702019929886e-03" rms="4.5067954063415527e-01" purity="4.6080237627029419e-01" nType="0">
            <Node pos="l" depth="3" NCoef="0" IVar="-1" Cut="0.0000000000000000e+00" cType="1" res="9.0545937418937683e-03" rms="4.5697540044784546e-01" purity="5.8774572610855103e-01" nType="-99"/>
            <Node pos="r" depth="3" NCoef="0" IVar="-1" Cut="0.0000000000000000e+00" cType="1" res="-2.2017858922481537e-02" rms="3.6702921986579895e-01" purity="1.8688943982124329e-01" nType="-99"/>
          </Node>
          <Node pos="r" depth="2" NCoef="0" IVar="2" Cut="1.1953514814376831e-01" cType="1" res="-2.2585846483707428e-01" rms="1.5164071321487427e-01" purity="2.9644206166267395e-02" nType="0">
            <Node pos="l" depth="3" NCoef="0" IVar="-1" Cut="0.0000000000000000e+00" cType="1" res="-1.8161196261644363e-02" rms="3.4451279044151306e-01" purity="1.7730334401130676e-01" nType="-99"/>
            <Node pos="r" depth="3" NCoef="0" IVar="-1" Cut="0.0000000000000000e+00" cType="1" res="-3.1717870384454727e-02" rms="1.0328918695449829e-01" purity="1.1736198328435421e-02" nType="-99"/>
          </Node>
        </Node>
        <Node pos="r" depth="1" NCoef="0" IVar="8" Cut="1.4164736866950989e-01" cType="1" res="1.8248432874679565e-01" rms="2.9407757520675659e-01" purity="8.8831949234008789e-01" nType="0">
          <Node pos="l" depth="2" NCoef="0" IVar="0" Cut="3.1536611557006836e+01" cType="1" res="2.0107086002826691e-01" rms="2.6104235649108887e-01" purity="9.2363274097442627e-01" nType="0">
            <Node pos="l" depth="3" NCoef="0" IVar="-1" Cut="0.0000000000000000e+00" cType="1" res="1.8367845565080643e-02" rms="3.5277083516120911e-01" purity="8.5014790296554565e-01" nType="-99"/>
            <Node pos="r" depth="3" NCoef="0" IVar="-1" Cut="0.0000000000000000e+00" cType="1" res="2.8444061055779457e-02" rms="2.0390626788139343e-01" purity="9.5650488138198853e-01" nType="-99"/>
          </Node>
          <Node pos="r" depth="2" NCoef="0" IVar="8" Cut="4.9100261926651001e-01" cType="1" res="3.5203069448471069e-02" rms="4.5537704229354858e-01" purity="6.0849434137344360e-01" nType="0">
            <Node pos="l" depth="3" NCoef="0" IVar="-1" Cut="0.0000000000000000e+00" cType="1" res="7.8710773959755898e-03" rms="4.5568037033081055e-01" purity="6.8492519855499268e-01" nType="-99"/>
            <Node pos="r" depth="3" NCoef="0" IVar="-1" Cut="0.0000000000000000e+00" cType="1" res="-1.7292441800236702e-02" rms="4.0001145005226135e-01" purity="2.2152857482433319e-01" nType="-99"/>
          </Node>
        </Node>
      </Node>
    </BinaryTree>
    <BinaryTree type="DecisionTree" boostWeight="1.0000000000000000e+00" itree="16">
      <Node pos="s" depth="0" NCoef="0" IVar="10" Cut="5.9410715103149414e-01" cType="1" res="-9.6338096773251891e-04" rms="3.3101925253868103e-01" purity="4.9883097410202026e-01" nType="0">
        <Node pos="l" depth="1" NCoef="0" IVar="7" Cut="1.9960079807788134e-03" cType="1" res="-2.0197160542011261e-01" rms="1.8298307061195374e-01" purity="5.7827644050121307e-02" nType="0">
          <Node pos="l" depth="2" NCoef="0" IVar="10" Cut="4.8619419336318970e-01" cType="1" res="-2.1480831503868103e-01" rms="1.4881220459938049e-01" purity="2.4847479537129402e-02" nType="0">
            <Node pos="l" depth="3" NCoef="0" IVar="-1" Cut="0.0000000000000000e+00" cType="1" res="-3.1356763094663620e-02" rms="9.6127443015575409e-02" purity="9.7306519746780396e-03" nType="-99"/>
            <Node pos="r" depth="3" NCoef="0" IVar="-1" Cut="0.0000000000000000e+00" cType="1" res="-2.1963503211736679e-02" rms="2.8255856037139893e-01" purity="9.5288716256618500e-02" nType="-99"/>
          </Node>
          <Node pos="r" depth="2" NCoef="0" IVar="8" Cut="2.4692171812057495e-01" cType="1" res="2.0915530622005463e-02" rms="4.2166700959205627e-01" purity="6.3047099113464355e-01" nType="0">
            <Node pos="l" depth="3" NCoef="0" IVar="-1" Cut="0.0000000000000000e+00" cType="1" res="1.1056238785386086e-02" rms="4.1087314486503601e-01" purity="7.7517008781433105e-01" nType="-99"/>
            <Node pos="r" depth="3" NCoef="0" IVar="-1" Cut="0.0000000000000000e+00" cType="1" res="-1.9852280616760254e-02" rms="3.8060230016708374e-01" purity="2.3205202817916870e-01" nType="-99"/>
          </Node>
        </Node>
        <Node pos="r" depth="1" NCoef="0" IVar="7" Cut="1.9960079807788134e-03" cType="1" res="1.3727158308029175e-01" rms="3.3912655711174011e-01" purity="8.0211251974105835e-01" nType="0">
          <Node pos="l" depth="2" NCoef="0" IVar="0" Cut="5.5750938415527344e+01" cType="1" res="-5.5359285324811935e-03" rms="4.4951084256172180e-01" purity="4.7062075138092041e-01" nType="0">
            <Node pos="l" depth="3" NCoef="0" IVar="-1" Cut="0.0000000000000000e+00" cType="1" res="5.5185682140290737e-03" rms="4.5842996239662170e-01" purity="5.5284214019775391e-01" nType="-99"/>
            <Node pos="r" depth="3" NCoef="0" IVar="-1" Cut="0.0000000000000000e+00" cType="1" res="-2.5114605203270912e-02" rms="3.2929095625877380e-01" purity="1.5528866648674011e-01" nType="-99"/>
          </Node>
          <Node pos="r" depth="2" NCoef="0" IVar="0" Cut="2.6237251281738281e+01" cType="1" res="1.7915502190589905e-01" rms="2.8590178489685059e-01" purity="8.9933443069458008e-01" nType="0">
            <Node pos="l" depth="3" NCoef="0" IVar="-1" Cut="0.0000000000000000e+00" cType="1" res="1.0004785843193531e-02" rms="4.2079848051071167e-01" purity="7.4358463287353516e-01" nType="-99"/>
            <Node pos="r" depth="3" NCoef="0" IVar="-1" Cut="0.0000000000000000e+00" cType="1" res="2.6239782571792603e-02" rms="2.3463712632656097e-01" purity="9.3870639801025391e-01" nType="-99"/>
          </Node>
        </Node>
      </Node>
    </BinaryTree>
    <BinaryTree type="DecisionTree" boostWeight="1.0000000000000000e+00" itree="17">
      <Node pos="s" depth="0" NCoef="0" IVar="7" Cut="1.9960079807788134e-03" cType="1" res="-2.9738791636191308e-04" rms="3.2517334818840027e-01" purity="4.9960765242576599e-01" nType="0">
        <Node pos="l" depth="1" NCoef="0" IVar="10" Cut="7.2173017263412476e-01" cType="1" res="-1.5439608693122864e-01" rms="2.7468678355216980e-01" purity="1.3843947649002075e-01" nType="0">
          <Node pos="l" depth="2" NCoef="0" IVar="2" Cut="7.5756348669528961e-02" cType="1" res="-1.8946336209774017e-01" rms="2.1263940632343292e-01" purity="6.3580021262168884e-02" nType="0">
            <Node pos="l" depth="3" NCoef="0" IVar="-1" Cut="0.0000000000000000e+00" cType="1" res="-1.1842961423099041e-02" rms="4.0608099102973938e-01" purity="2.5968077778816223e-01" nType="-99"/>
            <Node pos="r" depth="3" NCoef="0" IVar="-1" Cut="0.0000000000000000e+00" cType="1" res="-3.0453883111476898e-02" rms="1.0999975353479385e-01" purity="1.3152462430298328e-02" nType="-99"/>
          </Node>
          <Node pos="r" depth="2" NCoef="0" IVar="0" Cut="6.6865051269531250e+01" cType="1" res="6.5352275967597961e-02" rms="4.5709851384162903e-01" purity="6.0754466056823730e-01" nType="0">
            <Node pos="l" depth="3" NCoef="0" IVar="-1" Cut="0.0000000000000000e+00" cType="1" res="1.1479175649583340e-02" rms="4.5319157838821411e-01" purity="6.7606681585311890e-01" nType="-99"/>
            <Node pos="r" depth="3" NCoef="0" IVar="-1" Cut="0.0000000000000000e+00" cType="1" res="-2.3681467399001122e-02" rms="3.6660519242286682e-01" purity="1.7990192770957947e-01" nType="-99"/>
          </Node>
        </Node>
        <Node pos="r" depth="1" NCoef="0" IVar="8" Cut="1.0573676973581314e-01" cType="1" res="1.6603761911392212e-01" rms="2.9176709055900574e-01" purity="8.8945466279983521e-01" nType="0">
          <Node pos="l" depth="2" NCoef="0" IVar="0" Cut="3.0491479873657227e+01" cType="1" res="1.8865862488746643e-01" rms="2.4588993191719055e-01" purity="9.3321186304092407e-01" nType="0">
            <Node pos="l" depth="3" NCoef="0" IVar="-1" Cut="0.0000000000000000e+00" cType="1" res="1.8169041723012924e-02" rms="3.4473770856857300e-01" purity="8.5872417688369751e-01" nType="-99"/>
            <Node pos="r" depth="3" NCoef="0" IVar="-1" Cut="0.0000000000000000e+00" cType="1" res="2.7248118072748184e-02" rms="2.0312006771564484e-01" purity="9.5687174797058105e-01" nType="-99"/>
          </Node>
          <Node pos="r" depth="2" NCoef="0" IVar="8" Cut="4.0725433826446533e-01" cType="1" res="6.9090247154235840e-02" rms="4.2337760329246521e-01" purity="7.0192366838455200e-01" nType="0">
            <Node pos="l" depth="3" NCoef="0" IVar="-1" Cut="0.0000000000000000e+00" cType="1" res="1.1089560575783253e-02" rms="4.1505101323127747e-01" purity="7.6348394155502319e-01" nType="-99"/>
            <Node pos="r" depth="3" NCoef="0" IVar="-1" Cut="0.0000000000000000e+00" cType="1" res="-1.2032072059810162e-02" rms="4.3198886513710022e-01" purity="3.0030614137649536e-01" nType="-99"/>
          </Node>
        </Node>
      </Node>
    </BinaryTree>
    <BinaryTree type="DecisionTree" boostWeight="1.0000000000000000e+00" itree="18">
      <Node pos="s" depth="0" NCoef="0" IVar="10" Cut="5.8740240335464478e-01" cType="1" res="5.2251567831262946e-04" rms="3.2008635997772217e-01" purity="5.0120186805725098e-01" nType="0">
        <Node pos="l" depth="1" NCoef="0" IVar="7" Cut="1.9960079807788134e-03" cType="1" res="-1.8510875105857849e-01" rms="1.7525540292263031e-01" purity="5.4197516292333603e-02" nType="0">
          <Node pos="l" depth="2" NCoef="0" IVar="10" Cut="4.8104393482208252e-01" cType="1" res="-1.9607633352279663e-01" rms="1.4333957433700562e-01" purity="2.3027418181300163e-02" nType="0">
            <Node pos="l" depth="3" NCoef="0" IVar="-1" Cut="0.0000000000000000e+00" cType="1" res="-3.0507225543260574e-02" rms="9.2970117926597595e-02" purity="9.0846279636025429e-03" nType="-99"/>
            <Node pos="r" depth="3" NCoef="0" IVar="-1" Cut="0.0000000000000000e+00" cType="1" res="-2.1575048565864563e-02" rms="2.7062106132507324e-01" purity="8.6766853928565979e-02" nType="-99"/>
          </Node>
          <Node pos="r" depth="2" NCoef="0" IVar="8" Cut="2.4891270697116852e-01" cType="1" res="1.7256472259759903e-02" rms="4.1852048039436340e-01" purity="6.2932384014129639e-01" nType="0">
            <Node pos="l" depth="3" NCoef="0" IVar="-1" Cut="0.0000000000000000e+00" cType="1" res="9.7648939117789268e-03" rms="4.1211813688278198e-01" purity="7.7364593744277954e-01" nType="-99"/>
            <Node pos="r" depth="3" NCoef="0" IVar="-1" Cut="0.0000000000000000e+00" cType="1" res="-1.7217446118593216e-02" rms="3.8356912136077881e-01" purity="2.4323067069053650e-01" nType="-99"/>
          </Node>
        </Node>
        <Node pos="r" depth="1" NCoef="0" IVar="2" Cut="7.1782074868679047e-02" cType="1" res="1.2476386874914169e-01" rms="3.3462184667587280e-01" purity="8.0037790536880493e-01" nType="0">
          <Node pos="l" depth="2" NCoef="0" IVar="3" Cut="1.4008559286594391e-01" cType="1" res="1.4408740401268005e-01" rms="3.2617732882499695e-01" purity="8.4286832809448242e-01" nType="0">
            <Node pos="l" depth="3" NCoef="0" IVar="-1" Cut="0.0000000000000000e+00" cType="1" res="1.9567692652344704e-02" rms="3.1567317247390747e-01" purity="8.6134451627731323e-01" nType="-99"/>
            <Node pos="r" depth="3" NCoef="0" IVar="-1" Cut="0.0000000000000000e+00" cType="1" res="-1.3113976456224918e-02" rms="4.4376382231712341e-01" purity="3.9235267043113708e-01" nType="-99"/>
          </Node>
          <Node pos="r" depth="2" NCoef="0" IVar="7" Cut="1.9960079807788134e-03" cType="1" res="-1.4421650767326355e-01" rms="3.3481067419052124e-01" purity="2.0891909301280975e-01" nType="0">
            <Node pos="l" depth="3" NCoef="0" IVar="-1" Cut="0.0000000000000000e+00" cType="1" res="-2.1770434454083443e-02" rms="3.1086394190788269e-01" purity="1.2285365909337997e-01" nType="-99"/>
            <Node pos="r" depth="3" NCoef="0" IVar="-1" Cut="0.0000000000000000e+00" cType="1" res="7.9937512055039406e-03" rms="3.9252662658691406e-01" purity="7.3248714208602905e-01" nType="-99"/>
          </Node>
        </Node>
      </Node>
    </BinaryTree>
    <BinaryTree type="DecisionTree" boostWeight="1.0000000000000000e+00" itree="19">
      <Node pos="s" depth="0" NCoef="0" IVar="7" Cut="1.9960079807788134e-03" cType="1" res="-1.2409458868205547e-03" rms="3.1618809700012207e-01" purity="4.9839085340499878e-01" nType="0">
        <Node pos="l" depth="1" NCoef="0" IVar="2" Cut="3.2030943781137466e-02" cType="1" res="-1.4014571905136108e-01" rms="2.6980999112129211e-01" purity="1.3870848715305328e-01" nType="0">
          <Node pos="l" depth="2" NCoef="0" IVar="3" Cut="9.2928111553192139e-02" cType="1" res="-2.2265496663749218e-03" rms="4.4304373860359192e-01" purity="4.5965105295181274e-01" nType="0">
            <Node pos="l" depth="3" NCoef="0" IVar="-1" Cut="0.0000000000000000e+00" cType="1" res="8.5394671186804771e-03" rms="4.5312395691871643e-01" purity="5.9301853179931641e-01" nType="-99"/>
            <Node pos="r" depth="3" NCoef="0" IVar="-1" Cut="0.0000000000000000e+00" cType="1" res="-1.8282761797308922e-02" rms="3.7569218873977661e-01" purity="2.0486260950565338e-01" nType="-99"/>
          </Node>
          <Node pos="r" depth="2" NCoef="0" IVar="6" Cut="9.4664627075195312e+01" cType="1" res="-1.8733915686607361e-01" rms="1.4766582846641541e-01" purity="2.8887767344713211e-02" nType="0">
            <Node pos="l" depth="3" NCoef="0" IVar="-1" Cut="0.0000000000000000e+00" cType="1" res="-2.8676252812147141e-02" rms="1.3671731948852539e-01" purity="2.4853512644767761e-02" nType="-99"/>
            <Node pos="r" depth="3" NCoef="0" IVar="-1" Cut="0.0000000000000000e+00" cType="1" res="-6.6590835340321064e-03" rms="3.8046494126319885e-01" purity="2.1367427706718445e-01" nType="-99"/>
          </Node>
        </Node>
        <Node pos="r" depth="1" NCoef="0" IVar="8" Cut="1.4164736866950989e-01" cType="1" res="1.4887207746505737e-01" rms="2.9318937659263611e-01" purity="8.8709598779678345e-01" nType="0">
          <Node pos="l" depth="2" NCoef="0" IVar="0" Cut="2.3936553955078125e+01" cType="1" res="1.6603338718414307e-01" rms="2.6139241456985474e-01" purity="9.2312306165695190e-01" nType="0">
            <Node pos="l" depth="3" NCoef="0" IVar="-1" Cut="0.0000000000000000e+00" cType="1" res="1.1247858405113220e-02" rms="4.1031599044799805e-01" purity="7.8456348180770874e-01" nType="-99"/>
            <Node pos="r" depth="3" NCoef="0" IVar="-1" Cut="0.0000000000000000e+00" cType="1" res="2.4765240028500557e-02" rms="2.2866597771644592e-01" purity="9.4416636228561401e-01" nType="-99"/>
          </Node>
          <Node pos="r" depth="2" NCoef="0" IVar="0" Cut="2.3128141403198242e+01" cType="1" res="1.3455968350172043e-02" rms="4.5215576887130737e-01" purity="6.0281425714492798e-01" nType="0">
            <Node pos="l" depth="3" NCoef="0" IVar="-1" Cut="0.0000000000000000e+00" cType="1" res="-7.5709479860961437e-03" rms="4.6562972664833069e-01" purity="4.9602431058883667e-01" nType="-99"/>
            <Node pos="r" depth="3" NCoef="0" IVar="-1" Cut="0.0000000000000000e+00" cType="1" res="9.7365649417042732e-03" rms="4.2642304301261902e-01" purity="6.9690811634063721e-01" nType="-99"/>
          </Node>
        </Node>
      </Node>
    </BinaryTree>
    <BinaryTree type="DecisionTree" boostWeight="1.0000000000000000e+00" itree="20">
      <Node pos="s" depth="0" NCoef="0" IVar="10" Cut="6.0056751966476440e-01" cType="1" res="-3.3250873093493283e-04" rms="3.1157121062278748e-01" purity="4.9957844614982605e-01" nType="0">
        <Node pos="l" depth="1" NCoef="0" IVar="7" Cut="1.9960079807788134e-03" cType="1" res="-1.6441617906093597e-01" rms="1.8372811377048492e-01" purity="6.2582880258560181e-02" nType="0">
          <Node pos="l" depth="2" NCoef="0" IVar="10" Cut="5.2481448650360107e-01" cType="1" res="-1.7605213820934296e-01" rms="1.5151597559452057e-01" purity="2.6285976171493530e-02" nType="0">
            <Node pos="l" depth="3" NCoef="0" IVar="-1" Cut="0.0000000000000000e+00" cType="1" res="-2.9124831780791283e-02" rms="1.1100124567747116e-01" purity="1.3334355317056179e-02" nType="-99"/>
            <Node pos="r" depth="3" NCoef="0" IVar="-1" Cut="0.0000000000000000e+00" cType="1" res="-1.6207937151193619e-02" rms="3.1811067461967468e-01" purity="1.2612372636795044e-01" nType="-99"/>
          </Node>
          <Node pos="r" depth="2" NCoef="0" IVar="8" Cut="2.8076836466789246e-01" cType="1" res="2.3647338151931763e-02" rms="4.1320121288299561e-01" purity="6.4922398328781128e-01" nType="0">
            <Node pos="l" depth="3" NCoef="0" IVar="-1" Cut="0.0000000000000000e+00" cType="1" res="9.4512896612286568e-03" rms="4.0740120410919189e-01" purity="7.7684795856475830e-01" nType="-99"/>
            <Node pos="r" depth="3" NCoef="0" IVar="-1" Cut="0.0000000000000000e+00" cType="1" res="-1.7366863787174225e-02" rms="3.7872850894927979e-01" purity="2.2795467078685760e-01" nType="-99"/>
          </Node>
        </Node>
        <Node pos="r" depth="1" NCoef="0" IVar="3" Cut="1.1117473989725113e-01" cType="1" res="1.1510685831308365e-01" rms="3.3069202303886414e-01" purity="8.0702209472656250e-01" nType="0">
          <Node pos="l" depth="2" NCoef="0" IVar="8" Cut="2.0748347043991089e-01" cType="1" res="1.3203817605972290e-01" rms="3.1913927197456360e-01" purity="8.4181493520736694e-01" nType="0">
            <Node pos="l" depth="3" NCoef="0" IVar="-1" Cut="0.0000000000000000e+00" cType="1" res="1.9548853859305382e-02" rms="3.0147588253021240e-01" purity="8.7237107753753662e-01" nType="-99"/>
            <Node pos="r" depth="3" NCoef="0" IVar="-1" Cut="0.0000000000000000e+00" cType="1" res="-8.3157168701291084e-03" rms="4.5127540826797485e-01" purity="4.2626887559890747e-01" nType="-99"/>
          </Node>
          <Node pos="r" depth="2" NCoef="0" IVar="7" Cut="1.9960079807788134e-03" cType="1" res="-1.2097050249576569e-01" rms="3.9281550049781799e-01" purity="3.2189714908599854e-01" nType="0">
            <Node pos="l" depth="3" NCoef="0" IVar="-1" Cut="0.0000000000000000e+00" cType="1" res="-1.8819324672222137e-02" rms="3.8488093018531799e-01" purity="2.1773245930671692e-01" nType="-99"/>
            <Node pos="r" depth="3" NCoef="0" IVar="-1" Cut="0.0000000000000000e+00" cType="1" res="1.3091016560792923e-02" rms="3.5201501846313477e-01" purity="8.2122611999511719e-01" nType="-99"/>
          </Node>
        </Node>
      </Node>
    </BinaryTree>
    <BinaryTree type="DecisionTree" boostWeight="1.0000000000000000e+00" itree="21">
      <Node pos="s" depth="0" NCoef="0" IVar="2" Cut="5.9855196624994278e-02" cType="1" res="-1.0782678145915270e-03" rms="3.0740106105804443e-01" purity="4.9823552370071411e-01" nType="0">
        <Node pos="l" depth="1" NCoef="0" IVar="3" Cut="1.1326563358306885e-01" cType="1" res="1.0329491645097733e-01" rms="3.3419042825698853e-01" purity="7.8470796346664429e-01" nType="0">
          <Node pos="l" depth="2" NCoef="0" IVar="0" Cut="2.2409399032592773e+01" cType="1" res="1.2769350409507751e-01" rms="3.2159328460693359e-01" purity="8.4044879674911499e-01" nType="0">
            <Node pos="l" depth="3" NCoef="0" IVar="-1" Cut="0.0000000000000000e+00" cType="1" res="-2.3744002101011574e-04" rms="4.4871419668197632e-01" purity="5.9149831533432007e-01" nType="-99"/>
            <Node pos="r" depth="3" NCoef="0" IVar="-1" Cut="0.0000000000000000e+00" cType="1" res="2.0447131246328354e-02" rms="2.8810167312622070e-01" purity="8.8364362716674805e-01" nType="-99"/>
          </Node>
          <Node pos="r" depth="2" NCoef="0" IVar="7" Cut="1.9960079807788134e-03" cType="1" res="-1.2273487448692322e-01" rms="3.6277997493743896e-01" purity="2.6832249760627747e-01" nType="0">
            <Node pos="l" depth="3" NCoef="0" IVar="-1" Cut="0.0000000000000000e+00" cType="1" res="-1.9486106932163239e-02" rms="3.4930410981178284e-01" purity="1.6677279770374298e-01" nType="-99"/>
            <Node pos="r" depth="3" NCoef="0" IVar="-1" Cut="0.0000000000000000e+00" cType="1" res="8.4743686020374298e-03" rms="3.6551988124847412e-01" purity="7.5217694044113159e-01" nType="-99"/>
          </Node>
        </Node>
        <Node pos="r" depth="1" NCoef="0" IVar="7" Cut="1.9960079807788134e-03" cType="1" res="-1.6916193068027496e-01" rms="1.4498421549797058e-01" purity="3.6897391080856323e-02" nType="0">
          <Node pos="l" depth="2" NCoef="0" IVar="6" Cut="1.0271344757080078e+02" cType="1" res="-1.7377495765686035e-01" rms="1.2654367089271545e-01" purity="1.9224049523472786e-02" nType="0">
            <Node pos="l" depth="3" NCoef="0" IVar="-1" Cut="0.0000000000000000e+00" cType="1" res="-2.8558414429426193e-02" rms="1.1815478652715683e-01" purity="1.6726197674870491e-02" nType="-99"/>
            <Node pos="r" depth="3" NCoef="0" IVar="-1" Cut="0.0000000000000000e+00" cType="1" res="-9.5497965812683105e-03" rms="3.4835198521614075e-01" purity="1.6210900247097015e-01" nType="-99"/>
          </Node>
          <Node pos="r" depth="2" NCoef="0" IVar="8" Cut="9.9751666188240051e-02" cType="1" res="-1.5173071995377541e-02" rms="4.0464964509010315e-01" purity="6.2685531377792358e-01" nType="0">
            <Node pos="l" depth="3" NCoef="0" IVar="-1" Cut="0.0000000000000000e+00" cType="1" res="1.2803732417523861e-02" rms="3.5975962877273560e-01" purity="8.3827811479568481e-01" nType="-99"/>
            <Node pos="r" depth="3" NCoef="0" IVar="-1" Cut="0.0000000000000000e+00" cType="1" res="-1.5990026295185089e-02" rms="4.1477891802787781e-01" purity="3.9026796817779541e-01" nType="-99"/>
          </Node>
        </Node>
      </Node>
    </BinaryTree>
    <BinaryTree type="DecisionTree" boostWeight="1.0000000000000000e+00" itree="22">
      <Node pos="s" depth="0" NCoef="0" IVar="7" Cut="1.9960079807788134e-03" cType="1" res="-1.2860228889621794e-04" rms="3.0436486005783081e-01" purity="5.0019294023513794e-01" nType="0">
        <Node pos="l" depth="1" NCoef="0" IVar="10" Cut="7.2384208440780640e-01" cType="1" res="-1.2170892953872681e-01" rms="2.6360765099525452e-01" purity="1.3907359540462494e-01" nType="0">
          <Node pos="l" depth="2" NCoef="0" IVar="2" Cut="3.2030943781137466e-02" cType="1" res="-1.4945754408836365e-01" rms="2.0901502668857574e-01" purity="6.4642518758773804e-02" nType="0">
            <Node pos="l" depth="3" NCoef="0" IVar="-1" Cut="0.0000000000000000e+00" cType="1" res="-8.3842808380723000e-03" rms="4.1657939553260803e-01" purity="2.9214426875114441e-01" nType="-99"/>
            <Node pos="r" depth="3" NCoef="0" IVar="-1" Cut="0.0000000000000000e+00" cType="1" res="-2.7749374508857727e-02" rms="1.2724943459033966e-01" purity="1.8984006717801094e-02" nType="-99"/>
          </Node>
          <Node pos="r" depth="2" NCoef="0" IVar="0" Cut="6.6864845275878906e+01" cType="1" res="5.6262347847223282e-02" rms="4.4537752866744995e-01" purity="6.1645197868347168e-01" nType="0">
            <Node pos="l" depth="3" NCoef="0" IVar="-1" Cut="0.0000000000000000e+00" cType="1" res="1.0514489375054836e-02" rms="4.4209313392639160e-01" purity="6.8630659580230713e-01" nType="-99"/>
            <Node pos="r" depth="3" NCoef="0" IVar="-1" Cut="0.0000000000000000e+00" cType="1" res="-2.3459266871213913e-02" rms="3.6175021529197693e-01" purity="1.8015708029270172e-01" nType="-99"/>
          </Node>
        </Node>
        <Node pos="r" depth="1" NCoef="0" IVar="8" Cut="3.2519042491912842e-01" cType="1" res="1.3064602017402649e-01" rms="2.9075062274932861e-01" purity="8.8862133026123047e-01" nType="0">
          <Node pos="l" depth="2" NCoef="0" IVar="0" Cut="2.8734350204467773e+01" cType="1" res="1.3850755989551544e-01" rms="2.8040355443954468e-01" purity="9.0742021799087524e-01" nType="0">
            <Node pos="l" depth="3" NCoef="0" IVar="-1" Cut="0.0000000000000000e+00" cType="1" res="1.0745553299784660e-02" rms="3.9161473512649536e-01" purity="8.0088376998901367e-01" nType="-99"/>
            <Node pos="r" depth="3" NCoef="0" IVar="-1" Cut="0.0000000000000000e+00" cType="1" res="2.3823793977499008e-02" rms="2.2187754511833191e-01" purity="9.4734710454940796e-01" nType="-99"/>
          </Node>
          <Node pos="r" depth="2" NCoef="0" IVar="4" Cut="-5.1507921218872070e+00" cType="1" res="-8.7780088186264038e-02" rms="4.4643792510032654e-01" purity="3.6631229519844055e-01" nType="0">
            <Node pos="l" depth="3" NCoef="0" IVar="-1" Cut="0.0000000000000000e+00" cType="1" res="4.6378001570701599e-03" rms="4.7128459811210632e-01" purity="5.2097594738006592e-01" nType="-99"/>
            <Node pos="r" depth="3" NCoef="0" IVar="-1" Cut="0.0000000000000000e+00" cType="1" res="-2.2441994398832321e-02" rms="3.8426101207733154e-01" purity="2.2423212230205536e-01" nType="-99"/>
          </Node>
        </Node>
      </Node>
    </BinaryTree>
    <BinaryTree type="DecisionTree" boostWeight="1.0000000000000000e+00" itree="23">
      <Node pos="s" depth="0" NCoef="0" IVar="10" Cut="5.8608150482177734e-01" cType="1" res="-6.2110467115417123e-04" rms="3.0101099610328674e-01" purity="4.9947535991668701e-01" nType="0">
        <Node pos="l" depth="1" NCoef="0" IVar="7" Cut="1.9960079807788134e-03" cType="1" res="-1.4689815044403076e-01" rms="1.6963896155357361e-01" purity="5.2535790950059891e-02" nType="0">
          <Node pos="l" depth="2" NCoef="0" IVar="3" Cut="2.9358843341469765e-02" cType="1" res="-1.5433529019355774e-01" rms="1.4155581593513489e-01" purity="2.2869070991873741e-02" nType="0">
            <Node pos="l" depth="3" NCoef="0" IVar="-1" Cut="0.0000000000000000e+00" cType="1" res="-1.8837079405784607e-02" rms="2.5440895557403564e-01" purity="7.8761778771877289e-02" nType="-99"/>
            <Node pos="r" depth="3" NCoef="0" IVar="-1" Cut="0.0000000000000000e+00" cType="1" res="-2.7993271127343178e-02" rms="1.1252225190401077e-01" purity="1.3970813713967800e-02" nType="-99"/>
          </Node>
          <Node pos="r" depth="2" NCoef="0" IVar="8" Cut="2.3099389672279358e-01" cType="1" res="-4.5718606561422348e-03" rms="4.1798144578933716e-01" purity="6.2027418613433838e-01" nType="0">
            <Node pos="l" depth="3" NCoef="0" IVar="-1" Cut="0.0000000000000000e+00" cType="1" res="6.3352044671773911e-03" rms="4.1620945930480957e-01" purity="7.6538997888565063e-01" nType="-99"/>
            <Node pos="r" depth="3" NCoef="0" IVar="-1" Cut="0.0000000000000000e+00" cType="1" res="-1.6214303672313690e-02" rms="3.8792183995246887e-01" purity="2.5182864069938660e-01" nType="-99"/>
          </Node>
        </Node>
        <Node pos="r" depth="1" NCoef="0" IVar="8" Cut="2.8329473733901978e-01" cType="1" res="9.7237393260002136e-02" rms="3.2875666022300720e-01" purity="7.9847538471221924e-01" nType="0">
          <Node pos="l" depth="2" NCoef="0" IVar="3" Cut="1.8678079545497894e-01" cType="1" res="1.1133605986833572e-01" rms="3.1872150301933289e-01" purity="8.2915014028549194e-01" nType="0">
            <Node pos="l" depth="3" NCoef="0" IVar="-1" Cut="0.0000000000000000e+00" cType="1" res="1.6947720199823380e-02" rms="3.1066089868545532e-01" purity="8.5584414005279541e-01" nType="-99"/>
            <Node pos="r" depth="3" NCoef="0" IVar="-1" Cut="0.0000000000000000e+00" cType="1" res="-1.4665725640952587e-02" rms="3.8810542225837708e-01" purity="2.6547789573669434e-01" nType="-99"/>
          </Node>
          <Node pos="r" depth="2" NCoef="0" IVar="7" Cut="1.9960079807788134e-03" cType="1" res="-1.4071156084537506e-01" rms="3.9720058441162109e-01" purity="2.8076478838920593e-01" nType="0">
            <Node pos="l" depth="3" NCoef="0" IVar="-1" Cut="0.0000000000000000e+00" cType="1" res="-2.9494469985365868e-02" rms="2.7363729476928711e-01" purity="9.8924256861209869e-02" nType="-99"/>
            <Node pos="r" depth="3" NCoef="0" IVar="-1" Cut="0.0000000000000000e+00" cType="1" res="-2.4877137038856745e-03" rms="4.7535121440887451e-01" purity="4.8667567968368530e-01" nType="-99"/>
          </Node>
        </Node>
      </Node>
    </BinaryTree>
    <BinaryTree type="DecisionTree" boostWeight="1.0000000000000000e+00" itree="24">
      <Node pos="s" depth="0" NCoef="0" IVar="7" Cut="1.9960079807788134e-03" cType="1" res="6.9676933344453573e-04" rms="2.9658931493759155e-01" purity="5.0028777122497559e-01" nType="0">
        <Node pos="l" depth="1" NCoef="0" IVar="10" Cut="7.5125801563262939e-01" cType="1" res="-1.1037948727607727e-01" rms="2.5886550545692444e-01" purity="1.3861611485481262e-01" nType="0">
          <Node pos="l" depth="2" NCoef="0" IVar="2" Cut="3.7878174334764481e-02" cType="1" res="-1.3346032798290253e-01" rms="2.1651831269264221e-01" purity="7.5135417282581329e-02" nType="0">
            <Node pos="l" depth="3" NCoef="0" IVar="-1" Cut="0.0000000000000000e+00" cType="1" res="-7.0305513218045235e-03" rms="4.1702800989151001e-01" purity="3.1799325346946716e-01" nType="-99"/>
            <Node pos="r" depth="3" NCoef="0" IVar="-1" Cut="0.0000000000000000e+00" cType="1" res="-2.7018416672945023e-02" rms="1.2711997330188751e-01" purity="1.9317373633384705e-02" nType="-99"/>
          </Node>
          <Node pos="r" depth="2" NCoef="0" IVar="0" Cut="2.4261833190917969e+01" cType="1" res="7.4676848948001862e-02" rms="4.3577623367309570e-01" purity="6.4758843183517456e-01" nType="0">
            <Node pos="l" depth="3" NCoef="0" IVar="-1" Cut="0.0000000000000000e+00" cType="1" res="-1.6375260427594185e-02" rms="4.7487163543701172e-01" purity="4.3145468831062317e-01" nType="-99"/>
            <Node pos="r" depth="3" NCoef="0" IVar="-1" Cut="0.0000000000000000e+00" cType="1" res="1.2805278412997723e-02" rms="4.1308379173278809e-01" purity="6.8967705965042114e-01" nType="-99"/>
          </Node>
        </Node>
        <Node pos="r" depth="1" NCoef="0" IVar="0" Cut="2.0134803771972656e+01" cType="1" res="1.2042739242315292e-01" rms="2.8795316815376282e-01" purity="8.9013862609863281e-01" nType="0">
          <Node pos="l" depth="2" NCoef="0" IVar="4" Cut="-5.1344661712646484e+00" cType="1" res="-1.2472288683056831e-02" rms="4.5082426071166992e-01" purity="6.4029514789581299e-01" nType="0">
            <Node pos="l" depth="3" NCoef="0" IVar="-1" Cut="0.0000000000000000e+00" cType="1" res="3.4670843742787838e-03" rms="4.4323670864105225e-01" purity="7.0555979013442993e-01" nType="-99"/>
            <Node pos="r" depth="3" NCoef="0" IVar="-1" Cut="0.0000000000000000e+00" cType="1" res="-1.9524270668625832e-02" rms="4.4295144081115723e-01" purity="3.8900125026702881e-01" nType="-99"/>
          </Node>
          <Node pos="r" depth="2" NCoef="0" IVar="8" Cut="4.8878318071365356e-01" cType="1" res="1.3434284925460815e-01" rms="2.6129516959190369e-01" purity="9.1629874706268311e-01" nType="0">
            <Node pos="l" depth="3" NCoef="0" IVar="-1" Cut="0.0000000000000000e+00" cType="1" res="2.0726606249809265e-02" rms="2.5732168555259705e-01" purity="9.2447739839553833e-01" nType="-99"/>
            <Node pos="r" depth="3" NCoef="0" IVar="-1" Cut="0.0000000000000000e+00" cType="1" res="-8.8109187781810760e-03" rms="4.2409080266952515e-01" purity="2.8873491287231445e-01" nType="-99"/>
          </Node>
        </Node>
      </Node>
    </BinaryTree>
    <BinaryTree type="DecisionTree" boostWeight="1.0000000000000000e+00" itree="25">
      <Node pos="s" depth="0" NCoef="0" IVar="7" Cut="1.9960079807788134e-03" cType="1" res="-7.1440343162976205e-05" rms="2.9545930027961731e-01" purity="5.0134915113449097e-01" nType="0">
        <Node pos="l" depth="1" NCoef="0" IVar="10" Cut="7.4300241470336914e-01" cType="1" res="-1.0513868182897568e-01" rms="2.5957772135734558e-01" purity="1.4017727971076965e-01" nType="0">
          <Node pos="l" depth="2" NCoef="0" IVar="2" Cut="9.6092827618122101e-02" cType="1" res="-1.2781919538974762e-01" rms="2.1467100083827972e-01" purity="7.2829261422157288e-02" nType="0">
            <Node pos="l" depth="3" NCoef="0" IVar="-1" Cut="0.0000000000000000e+00" cType="1" res="-8.5757859051227570e-03" rms="3.9645510911941528e-01" purity="2.7192181348800659e-01" nType="-99"/>
            <Node pos="r" depth="3" NCoef="0" IVar="-1" Cut="0.0000000000000000e+00" cType="1" res="-2.7641611173748970e-02" rms="1.0250612348318100e-01" purity="1.1504516005516052e-02" nType="-99"/>
          </Node>
          <Node pos="r" depth="2" NCoef="0" IVar="0" Cut="7.4633415222167969e+01" cType="1" res="6.2023192644119263e-02" rms="4.3887436389923096e-01" purity="6.3655126094818115e-01" nType="0">
            <Node pos="l" depth="3" NCoef="0" IVar="-1" Cut="0.0000000000000000e+00" cType="1" res="1.0233559645712376e-02" rms="4.3512535095214844e-01" purity="6.9255602359771729e-01" nType="-99"/>
            <Node pos="r" depth="3" NCoef="0" IVar="-1" Cut="0.0000000000000000e+00" cType="1" res="-2.2385399788618088e-02" rms="3.7151592969894409e-01" purity="1.9264176487922668e-01" nType="-99"/>
          </Node>
        </Node>
        <Node pos="r" depth="1" NCoef="0" IVar="0" Cut="2.4857685089111328e+01" cType="1" res="1.1247704923152924e-01" rms="2.9006475210189819e-01" purity="8.8823813199996948e-01" nType="0">
          <Node pos="l" depth="2" NCoef="0" IVar="4" Cut="-5.0726957321166992e+00" cType="1" res="3.0350256711244583e-02" rms="4.2606136202812195e-01" purity="7.0773708820343018e-01" nType="0">
            <Node pos="l" depth="3" NCoef="0" IVar="-1" Cut="0.0000000000000000e+00" cType="1" res="7.6762554235756397e-03" rms="4.1406932473182678e-01" purity="7.6013988256454468e-01" nType="-99"/>
            <Node pos="r" depth="3" NCoef="0" IVar="-1" Cut="0.0000000000000000e+00" cType="1" res="-1.4750623144209385e-02" rms="4.4680538773536682e-01" purity="4.5275306701660156e-01" nType="-99"/>
          </Node>
          <Node pos="r" depth="2" NCoef="0" IVar="0" Cut="5.8184112548828125e+01" cType="1" res="1.3219256699085236e-01" rms="2.4238371849060059e-01" purity="9.3156951665878296e-01" nType="0">
            <Node pos="l" depth="3" NCoef="0" IVar="-1" Cut="0.0000000000000000e+00" cType="1" res="2.1916221827268600e-02" rms="2.3208472132682800e-01" purity="9.3706881999969482e-01" nType="-99"/>
            <Node pos="r" depth="3" NCoef="0" IVar="-1" Cut="0.0000000000000000e+00" cType="1" res="9.8171634599566460e-03" rms="3.3043071627616882e-01" purity="8.6847156286239624e-01" nType="-99"/>
          </Node>
        </Node>
      </Node>
    </BinaryTree>
    <BinaryTree type="DecisionTree" boostWeight="1.0000000000000000e+00" itree="26">
      <Node pos="s" depth="0" NCoef="0" IVar="10" Cut="5.9440195560455322e-01" cType="1" res="6.9230614462867379e-04" rms="2.9160884022712708e-01" purity="5.0110441446304321e-01" nType="0">
        <Node pos="l" depth="1" NCoef="0" IVar="7" Cut="1.9960079807788134e-03" cType="1" res="-1.2572015821933746e-01" rms="1.7283882200717926e-01" purity="5.7539068162441254e-02" nType="0">
          <Node pos="l" depth="2" NCoef="0" IVar="10" Cut="4.6863386034965515e-01" cType="1" res="-1.3324451446533203e-01" rms="1.4538984000682831e-01" purity="2.4327313527464867e-02" nType="0">
            <Node pos="l" depth="3" NCoef="0" IVar="-1" Cut="0.0000000000000000e+00" cType="1" res="-2.7922034263610840e-02" rms="8.8434636592864990e-02" purity="8.1967553123831749e-03" nType="-99"/>
            <Node pos="r" depth="3" NCoef="0" IVar="-1" Cut="0.0000000000000000e+00" cType="1" res="-1.7048181965947151e-02" rms="2.6471933722496033e-01" purity="8.5095778107643127e-02" nType="-99"/>
          </Node>
          <Node pos="r" depth="2" NCoef="0" IVar="8" Cut="2.6728263497352600e-01" cType="1" res="5.9182117693126202e-03" rms="4.0542978048324585e-01" purity="6.3857692480087280e-01" nType="0">
            <Node pos="l" depth="3" NCoef="0" IVar="-1" Cut="0.0000000000000000e+00" cType="1" res="7.4634128250181675e-03" rms="4.0340554714202881e-01" purity="7.8185218572616577e-01" nType="-99"/>
            <Node pos="r" depth="3" NCoef="0" IVar="-1" Cut="0.0000000000000000e+00" cType="1" res="-1.6590593382716179e-02" rms="3.7091732025146484e-01" purity="2.2456414997577667e-01" nType="-99"/>
          </Node>
        </Node>
        <Node pos="r" depth="1" NCoef="0" IVar="8" Cut="2.7730962634086609e-01" cType="1" res="8.7156772613525391e-02" rms="3.2304769754409790e-01" purity="8.0449724197387695e-01" nType="0">
          <Node pos="l" depth="2" NCoef="0" IVar="3" Cut="2.1479791402816772e-01" cType="1" res="9.9663674831390381e-02" rms="3.1354999542236328e-01" purity="8.3419698476791382e-01" nType="0">
            <Node pos="l" depth="3" NCoef="0" IVar="-1" Cut="0.0000000000000000e+00" cType="1" res="1.5963915735483170e-02" rms="3.0653020739555359e-01" purity="8.5953074693679810e-01" nType="-99"/>
            <Node pos="r" depth="3" NCoef="0" IVar="-1" Cut="0.0000000000000000e+00" cType="1" res="-1.6335180029273033e-02" rms="3.7804222106933594e-01" purity="2.3871678113937378e-01" nType="-99"/>
          </Node>
          <Node pos="r" depth="2" NCoef="0" IVar="7" Cut="1.9960079807788134e-03" cType="1" res="-1.2743656337261200e-01" rms="3.9920756220817566e-01" purity="2.9490914940834045e-01" nType="0">
            <Node pos="l" depth="3" NCoef="0" IVar="-1" Cut="0.0000000000000000e+00" cType="1" res="-2.8028292581439018e-02" rms="2.8135800361633301e-01" purity="1.0503643006086349e-01" nType="-99"/>
            <Node pos="r" depth="3" NCoef="0" IVar="-1" Cut="0.0000000000000000e+00" cType="1" res="-2.2535934112966061e-03" rms="4.7317054867744446e-01" purity="4.9888828396797180e-01" nType="-99"/>
          </Node>
        </Node>
      </Node>
    </BinaryTree>
    <BinaryTree type="DecisionTree" boostWeight="1.0000000000000000e+00" itree="27">
      <Node pos="s" depth="0" NCoef="0" IVar="7" Cut="1.9960079807788134e-03" cType="1" res="-1.3135287445038557e-03" rms="2.9068717360496521e-01" purity="4.9844121932983398e-01" nType="0">
        <Node pos="l" depth="1" NCoef="0" IVar="2" Cut="3.2030943781137466e-02" cType="1" res="-9.6739426255226135e-02" rms="2.5668495893478394e-01" purity="1.3876917958259583e-01" nType="0">
          <Node pos="l" depth="2" NCoef="0" IVar="8" Cut="2.3940400779247284e-01" cType="1" res="-6.0970420017838478e-03" rms="4.2852973937988281e-01" purity="4.5589596033096313e-01" nType="0">
            <Node pos="l" depth="3" NCoef="0" IVar="-1" Cut="0.0000000000000000e+00" cType="1" res="4.0773339569568634e-03" rms="4.4209501147270203e-01" purity="5.2928531169891357e-01" nType="-99"/>
            <Node pos="r" depth="3" NCoef="0" IVar="-1" Cut="0.0000000000000000e+00" cType="1" res="-2.6127221062779427e-02" rms="2.7915379405021667e-01" purity="1.0568969696760178e-01" nType="-99"/>
          </Node>
          <Node pos="r" depth="2" NCoef="0" IVar="6" Cut="1.2622570800781250e+02" cType="1" res="-1.2794831395149231e-01" rms="1.4677147567272186e-01" purity="2.9579928144812584e-02" nType="0">
            <Node pos="l" depth="3" NCoef="0" IVar="-1" Cut="0.0000000000000000e+00" cType="1" res="-2.5512522086501122e-02" rms="1.3709622621536255e-01" purity="2.5746164843440056e-02" nType="-99"/>
            <Node pos="r" depth="3" NCoef="0" IVar="-1" Cut="0.0000000000000000e+00" cType="1" res="6.0591584770008922e-05" rms="3.8041821122169495e-01" purity="2.2495853900909424e-01" nType="-99"/>
          </Node>
        </Node>
        <Node pos="r" depth="1" NCoef="0" IVar="0" Cut="2.7674211502075195e+01" cType="1" res="1.0194996744394302e-01" rms="2.9003825783729553e-01" purity="8.8765412569046021e-01" nType="0">
          <Node pos="l" depth="2" NCoef="0" IVar="4" Cut="-5.1197075843811035e+00" cType="1" res="3.5489905625581741e-02" rms="4.0816739201545715e-01" purity="7.3995310068130493e-01" nType="0">
            <Node pos="l" depth="3" NCoef="0" IVar="-1" Cut="0.0000000000000000e+00" cType="1" res="8.1680174916982651e-03" rms="3.9450824260711670e-01" purity="7.8838294744491577e-01" nType="-99"/>
            <Node pos="r" depth="3" NCoef="0" IVar="-1" Cut="0.0000000000000000e+00" cType="1" res="-1.1209581047296524e-02" rms="4.4468164443969727e-01" purity="5.1057398319244385e-01" nType="-99"/>
          </Node>
          <Node pos="r" depth="2" NCoef="0" IVar="0" Cut="6.2248039245605469e+01" cType="1" res="1.2530514597892761e-01" rms="2.3030468821525574e-01" purity="9.3955880403518677e-01" nType="0">
            <Node pos="l" depth="3" NCoef="0" IVar="-1" Cut="0.0000000000000000e+00" cType="1" res="2.2118199616670609e-02" rms="2.1759214997291565e-01" purity="9.4588100910186768e-01" nType="-99"/>
            <Node pos="r" depth="3" NCoef="0" IVar="-1" Cut="0.0000000000000000e+00" cType="1" res="6.3734999857842922e-03" rms="3.4767910838127136e-01" purity="8.5508847236633301e-01" nType="-99"/>
          </Node>
        </Node>
      </Node>
    </BinaryTree>
    <BinaryTree type="DecisionTree" boostWeight="1.0000000000000000e+00" itree="28">
      <Node pos="s" depth="0" NCoef="0" IVar="2" Cut="6.4061887562274933e-02" cType="1" res="3.3822769182734191e-04" rms="2.8837832808494568e-01" purity="5.0091284513473511e-01" nType="0">
        <Node pos="l" depth="1" NCoef="0" IVar="8" Cut="2.2942884266376495e-01" cType="1" res="7.4461594223976135e-02" rms="3.2764735817909241e-01" purity="7.8371787071228027e-01" nType="0">
          <Node pos="l" depth="2" NCoef="0" IVar="3" Cut="2.1472236514091492e-01" cType="1" res="9.2109218239784241e-02" rms="3.1623515486717224e-01" purity="8.3098769187927246e-01" nType="0">
            <Node pos="l" depth="3" NCoef="0" IVar="-1" Cut="0.0000000000000000e+00" cType="1" res="1.5475274063646793e-02" rms="3.0903181433677673e-01" purity="8.6185294389724731e-01" nType="-99"/>
            <Node pos="r" depth="3" NCoef="0" IVar="-1" Cut="0.0000000000000000e+00" cType="1" res="-1.2848874554038048e-02" rms="3.7870863080024719e-01" purity="2.6099702715873718e-01" nType="-99"/>
          </Node>
          <Node pos="r" depth="2" NCoef="0" IVar="7" Cut="1.9960079807788134e-03" cType="1" res="-1.0826726257801056e-01" rms="3.8317459821701050e-01" purity="2.9427212476730347e-01" nType="0">
            <Node pos="l" depth="3" NCoef="0" IVar="-1" Cut="0.0000000000000000e+00" cType="1" res="-2.4787304922938347e-02" rms="2.7297270298004150e-01" purity="1.0359706729650497e-01" nType="-99"/>
            <Node pos="r" depth="3" NCoef="0" IVar="-1" Cut="0.0000000000000000e+00" cType="1" res="-1.3018359895795584e-03" rms="4.6379506587982178e-01" purity="5.1930665969848633e-01" nType="-99"/>
          </Node>
        </Node>
        <Node pos="r" depth="1" NCoef="0" IVar="2" Cut="1.2787802517414093e-01" cType="1" res="-1.2177935242652893e-01" rms="1.3908120989799500e-01" purity="3.4994084388017654e-02" nType="0">
          <Node pos="l" depth="2" NCoef="0" IVar="8" Cut="1.8753314018249512e-01" cType="1" res="-6.1744052916765213e-02" rms="3.1693166494369507e-01" purity="2.4056950211524963e-01" nType="0">
            <Node pos="l" depth="3" NCoef="0" IVar="-1" Cut="0.0000000000000000e+00" cType="1" res="-5.8202521177008748e-04" rms="3.6446857452392578e-01" purity="3.6225074529647827e-01" nType="-99"/>
            <Node pos="r" depth="3" NCoef="0" IVar="-1" Cut="0.0000000000000000e+00" cType="1" res="-2.5408338755369186e-02" rms="1.9456754624843597e-01" purity="5.4187703877687454e-02" nType="-99"/>
          </Node>
          <Node pos="r" depth="2" NCoef="0" IVar="0" Cut="5.0155109405517578e+01" cType="1" res="-1.2767729163169861e-01" rms="1.0481962561607361e-01" purity="1.4798131771385670e-02" nType="0">
            <Node pos="l" depth="3" NCoef="0" IVar="-1" Cut="0.0000000000000000e+00" cType="1" res="-2.6606498286128044e-02" rms="1.0543961077928543e-01" purity="1.5326365828514099e-02" nType="-99"/>
            <Node pos="r" depth="3" NCoef="0" IVar="-1" Cut="0.0000000000000000e+00" cType="1" res="-2.8533894568681717e-02" rms="9.4326660037040710e-02" purity="8.9872945100069046e-03" nType="-99"/>
          </Node>
        </Node>
      </Node>
    </BinaryTree>
    <BinaryTree type="DecisionTree" boostWeight="1.0000000000000000e+00" itree="29">
      <Node pos="s" depth="0" NCoef="0" IVar="2" Cut="5.3798947483301163e-02" cType="1" res="-1.0798823786899447e-03" rms="2.8571036458015442e-01" purity="4.9760904908180237e-01" nType="0">
        <Node pos="l" depth="1" NCoef="0" IVar="3" Cut="1.1151373386383057e-01" cType="1" res="7.1551844477653503e-02" rms="3.2635697722434998e-01" purity="7.8764510154724121e-01" nType="0">
          <Node pos="l" depth="2" NCoef="0" IVar="0" Cut="2.2041229248046875e+01" cType="1" res="8.9026540517807007e-02" rms="3.1747627258300781e-01" purity="8.4137117862701416e-01" nType="0">
            <Node pos="l" depth="3" NCoef="0" IVar="-1" Cut="0.0000000000000000e+00" cType="1" res="-2.1266972180455923e-03" rms="4.4464451074600220e-01" purity="5.9092432260513306e-01" nType="-99"/>
            <Node pos="r" depth="3" NCoef="0" IVar="-1" Cut="0.0000000000000000e+00" cType="1" res="1.6684325411915779e-02" rms="2.8791660070419312e-01" purity="8.8204383850097656e-01" nType="-99"/>
          </Node>
          <Node pos="r" depth="2" NCoef="0" IVar="7" Cut="1.9960079807788134e-03" cType="1" res="-9.2909067869186401e-02" rms="3.6110776662826538e-01" purity="2.8200981020927429e-01" nType="0">
            <Node pos="l" depth="3" NCoef="0" IVar="-1" Cut="0.0000000000000000e+00" cType="1" res="-1.5830786898732185e-02" rms="3.5342347621917725e-01" purity="1.7547427117824554e-01" nType="-99"/>
            <Node pos="r" depth="3" NCoef="0" IVar="-1" Cut="0.0000000000000000e+00" cType="1" res="5.1350635476410389e-03" rms="3.6525028944015503e-01" purity="7.4756550788879395e-01" nType="-99"/>
          </Node>
        </Node>
        <Node pos="r" depth="1" NCoef="0" IVar="2" Cut="1.0740377008914948e-01" cType="1" res="-1.1505918949842453e-01" rms="1.4601171016693115e-01" purity="4.2462054640054703e-02" nType="0">
